98 3 -20 95 98 3 -20 95 98 3 -20 95 98 3 -20 95 98 -3 123 -104 98 -3 123 -104 98 -3 123 -104 98 -3 123 -104 
65 115 70 82 65 115 70 82 65 115 70 82 65 115 70 82 116 -107 1 -112 116 -107 1 -112 116 -107 1 -112 116 -107 1 -112 
82 101 -106 116 82 101 -106 116 82 101 -106 116 82 101 -106 116 -95 127 -4 35 -95 127 -4 35 -95 127 -4 35 -95 127 -4 35 
61 -16 22 -38 61 -16 22 -38 61 -16 22 -38 61 -16 22 -38 -127 -57 53 127 -127 -57 53 127 -127 -57 53 127 -127 -57 53 127 
-41 127 -30 -102 -41 127 -30 -102 -41 127 -30 -102 -41 127 -30 -102 18 -19 -125 121 18 -19 -125 121 18 -19 -125 121 18 -19 -125 121 
24 -83 -89 54 24 -83 -89 54 24 -83 -89 54 24 -83 -89 54 123 94 27 103 123 94 27 103 123 94 27 103 123 94 27 103 
51 94 -114 -102 51 94 -114 -102 51 94 -114 -102 51 94 -114 -102 87 -88 -70 -33 87 -88 -70 -33 87 -88 -70 -33 87 -88 -70 -33 
8 112 77 -109 8 112 77 -109 8 112 77 -109 8 112 77 -109 -121 31 -28 50 -121 31 -28 50 -121 31 -28 50 -121 31 -28 50 
-71 74 -54 -7 -71 74 -54 -7 -71 74 -54 -7 -71 74 -54 -7 -37 33 42 24 -37 33 42 24 -37 33 42 24 -37 33 42 24 
-29 -117 -82 60 -29 -117 -82 60 -29 -117 -82 60 -29 -117 -82 60 -127 101 -101 -41 -127 101 -101 -41 -127 101 -101 -41 -127 101 -101 -41 
-75 -14 -42 -41 -75 -14 -42 -41 -75 -14 -42 -41 -75 -14 -42 -41 119 29 107 99 119 29 107 99 119 29 107 99 119 29 107 99 
-53 73 -103 101 -53 73 -103 101 -53 73 -103 101 -53 73 -103 101 3 111 14 -1 3 111 14 -1 3 111 14 -1 3 111 14 -1 
1 18 121 -127 1 18 121 -127 1 18 121 -127 1 18 121 -127 -34 -64 40 103 -34 -64 40 103 -34 -64 40 103 -34 -64 40 103 
85 -35 110 -127 85 -35 110 -127 85 -35 110 -127 85 -35 110 -127 -12 6 41 -67 -12 6 41 -67 -12 6 41 -67 -12 6 41 -67 
-3 31 -36 -103 -3 31 -36 -103 -3 31 -36 -103 -3 31 -36 -103 -13 25 -29 94 -13 25 -29 94 -13 25 -29 94 -13 25 -29 94 
82 -112 -107 -104 82 -112 -107 -104 82 -112 -107 -104 82 -112 -107 -104 121 87 -13 -77 121 87 -13 -77 121 87 -13 -77 121 87 -13 -77 
83 65 10 119 83 65 10 119 83 65 10 119 83 65 10 119 126 126 -69 109 126 126 -69 109 126 126 -69 109 126 126 -69 109 
-73 77 17 -5 -73 77 17 -5 -73 77 17 -5 -73 77 17 -5 -104 25 -98 93 -104 25 -98 93 -104 25 -98 93 -104 25 -98 93 
-53 -127 -63 14 -53 -127 -63 14 -53 -127 -63 14 -53 -127 -63 14 -31 56 65 127 -31 56 65 127 -31 56 65 127 -31 56 65 127 
47 -120 72 -7 47 -120 72 -7 47 -120 72 -7 47 -120 72 -7 -38 -34 41 -64 -38 -34 41 -64 -38 -34 41 -64 -38 -34 41 -64 
-114 9 -127 -107 -114 9 -127 -107 -114 9 -127 -107 -114 9 -127 -107 -67 95 -127 -60 -67 95 -127 -60 -67 95 -127 -60 -67 95 -127 -60 
60 1 109 -32 60 1 109 -32 60 1 109 -32 60 1 109 -32 -37 -18 -77 -16 -37 -18 -77 -16 -37 -18 -77 -16 -37 -18 -77 -16 
-59 -40 -62 55 -59 -40 -62 55 -59 -40 -62 55 -59 -40 -62 55 -16 -108 36 83 -16 -108 36 83 -16 -108 36 83 -16 -108 36 83 
-93 99 116 58 -93 99 116 58 -93 99 116 58 -93 99 116 58 -104 -127 71 79 -104 -127 71 79 -104 -127 71 79 -104 -127 71 79 
46 53 83 -116 46 53 83 -116 46 53 83 -116 46 53 83 -116 -94 23 0 -94 -94 23 0 -94 -94 23 0 -94 -94 23 0 -94 
-84 34 -58 66 -84 34 -58 66 -84 34 -58 66 -84 34 -58 66 82 -92 16 0 82 -92 16 0 82 -92 16 0 82 -92 16 0 
60 125 104 115 60 125 104 115 60 125 104 115 60 125 104 115 88 -32 39 -68 88 -32 39 -68 88 -32 39 -68 88 -32 39 -68 
127 -28 96 41 127 -28 96 41 127 -28 96 41 127 -28 96 41 -63 46 -30 -38 -63 46 -30 -38 -63 46 -30 -38 -63 46 -30 -38 
-112 -18 39 -45 -112 -18 39 -45 -112 -18 39 -45 -112 -18 39 -45 87 -97 -88 55 87 -97 -88 55 87 -97 -88 55 87 -97 -88 55 
97 -80 -65 -33 97 -80 -65 -33 97 -80 -65 -33 97 -80 -65 -33 15 99 63 -37 15 99 63 -37 15 99 63 -37 15 99 63 -37 
93 74 -8 -90 93 74 -8 -90 93 74 -8 -90 93 74 -8 -90 -90 -74 54 72 -90 -74 54 72 -90 -74 54 72 -90 -74 54 72 
-4 -121 -54 86 -4 -121 -54 86 -4 -121 -54 86 -4 -121 -54 86 -124 -109 25 -107 -124 -109 25 -107 -124 -109 25 -107 -124 -109 25 -107 
126 -74 4 4 126 -74 4 4 126 -74 4 4 126 -74 4 4 -20 -74 86 -104 -20 -74 86 -104 -20 -74 86 -104 -20 -74 86 -104 
-124 21 -40 51 -124 21 -40 51 -124 21 -40 51 -124 21 -40 51 31 78 -74 50 31 78 -74 50 31 78 -74 50 31 78 -74 50 
78 104 61 -37 78 104 61 -37 78 104 61 -37 78 104 61 -37 -24 102 72 52 -24 102 72 52 -24 102 72 52 -24 102 72 52 
9 -54 43 -92 9 -54 43 -92 9 -54 43 -92 9 -54 43 -92 78 -71 123 -123 78 -71 123 -123 78 -71 123 -123 78 -71 123 -123 
42 -121 -95 -17 42 -121 -95 -17 42 -121 -95 -17 42 -121 -95 -17 -62 117 89 127 -62 117 89 127 -62 117 89 127 -62 117 89 127 
95 -127 -127 41 95 -127 -127 41 95 -127 -127 41 95 -127 -127 41 -32 -78 -64 23 -32 -78 -64 23 -32 -78 -64 23 -32 -78 -64 23 
-112 -117 80 16 -112 -117 80 16 -112 -117 80 16 -112 -117 80 16 -89 -121 99 -37 -89 -121 99 -37 -89 -121 99 -37 -89 -121 99 -37 
73 24 -39 34 73 24 -39 34 73 24 -39 34 73 24 -39 34 -36 -73 -111 -119 -36 -73 -111 -119 -36 -73 -111 -119 -36 -73 -111 -119 
-35 26 43 -127 -35 26 43 -127 -35 26 43 -127 -35 26 43 -127 -44 91 30 127 -44 91 30 127 -44 91 30 127 -44 91 30 127 
-119 -89 120 118 -119 -89 120 118 -119 -89 120 118 -119 -89 120 118 -103 46 -2 -97 -103 46 -2 -97 -103 46 -2 -97 -103 46 -2 -97 
49 24 127 -127 49 24 127 -127 49 24 127 -127 49 24 127 -127 76 -110 4 101 76 -110 4 101 76 -110 4 101 76 -110 4 101 
-11 -122 16 3 -11 -122 16 3 -11 -122 16 3 -11 -122 16 3 79 -115 -53 106 79 -115 -53 106 79 -115 -53 106 79 -115 -53 106 
14 92 -127 49 14 92 -127 49 14 92 -127 49 14 92 -127 49 30 48 29 5 30 48 29 5 30 48 29 5 30 48 29 5 
-21 -52 1 33 -21 -52 1 33 -21 -52 1 33 -21 -52 1 33 55 -63 -56 100 55 -63 -56 100 55 -63 -56 100 55 -63 -56 100 
17 0 73 -127 17 0 73 -127 17 0 73 -127 17 0 73 -127 2 -65 -127 -27 2 -65 -127 -27 2 -65 -127 -27 2 -65 -127 -27 
-25 16 3 -127 -25 16 3 -127 -25 16 3 -127 -25 16 3 -127 60 9 34 -36 60 9 34 -36 60 9 34 -36 60 9 34 -36 
-57 42 -69 52 -57 42 -69 52 -57 42 -69 52 -57 42 -69 52 98 93 98 61 98 93 98 61 98 93 98 61 98 93 98 61 
-98 77 95 124 -98 77 95 124 -98 77 95 124 -98 77 95 124 28 -124 15 72 28 -124 15 72 28 -124 15 72 28 -124 15 72 
-102 -44 78 -37 -102 -44 78 -37 -102 -44 78 -37 -102 -44 78 -37 110 9 -56 80 110 9 -56 80 110 9 -56 80 110 9 -56 80 
34 106 -122 -37 34 106 -122 -37 34 106 -122 -37 34 106 -122 -37 -3 66 -76 69 -3 66 -76 69 -3 66 -76 69 -3 66 -76 69 
-81 -16 86 -30 -81 -16 86 -30 -81 -16 86 -30 -81 -16 86 -30 123 -121 -5 100 123 -121 -5 100 123 -121 -5 100 123 -121 -5 100 
33 91 -34 -4 33 91 -34 -4 33 91 -34 -4 33 91 -34 -4 -3 88 57 16 -3 88 57 16 -3 88 57 16 -3 88 57 16 
-69 106 93 -27 -69 106 93 -27 -69 106 93 -27 -69 106 93 -27 123 -82 -26 -17 123 -82 -26 -17 123 -82 -26 -17 123 -82 -26 -17 
-54 127 110 1 -54 127 110 1 -54 127 110 1 -54 127 110 1 81 -127 119 -49 81 -127 119 -49 81 -127 119 -49 81 -127 119 -49 
-4 -109 -67 -118 -4 -109 -67 -118 -4 -109 -67 -118 -4 -109 -67 -118 -12 -45 -120 -127 -12 -45 -120 -127 -12 -45 -120 -127 -12 -45 -120 -127 
127 -98 74 21 127 -98 74 21 127 -98 74 21 127 -98 74 21 -64 111 -126 -61 -64 111 -126 -61 -64 111 -126 -61 -64 111 -126 -61 
116 58 -96 32 116 58 -96 32 116 58 -96 32 116 58 -96 32 -97 -27 -20 -46 -97 -27 -20 -46 -97 -27 -20 -46 -97 -27 -20 -46 
29 -110 21 -51 29 -110 21 -51 29 -110 21 -51 29 -110 21 -51 78 64 -117 -71 78 64 -117 -71 78 64 -117 -71 78 64 -117 -71 
2 -118 46 -6 2 -118 46 -6 2 -118 46 -6 2 -118 46 -6 -55 -57 -106 109 -55 -57 -106 109 -55 -57 -106 109 -55 -57 -106 109 
46 -94 -112 0 46 -94 -112 0 46 -94 -112 0 46 -94 -112 0 -27 -110 -7 38 -27 -110 -7 38 -27 -110 -7 38 -27 -110 -7 38 
-127 -24 32 -6 -127 -24 32 -6 -127 -24 32 -6 -127 -24 32 -6 17 -14 116 -94 17 -14 116 -94 17 -14 116 -94 17 -14 116 -94 
-40 100 -61 -68 -40 100 -61 -68 -40 100 -61 -68 -40 100 -61 -68 -1 40 -123 -114 -1 40 -123 -114 -1 40 -123 -114 -1 40 -123 -114 
-118 7 -79 24 -118 7 -79 24 -118 7 -79 24 -118 7 -79 24 24 85 -83 84 24 85 -83 84 24 85 -83 84 24 85 -83 84 
-116 -71 74 -6 -116 -71 74 -6 -116 -71 74 -6 -116 -71 74 -6 -103 -44 -52 -67 -103 -44 -52 -67 -103 -44 -52 -67 -103 -44 -52 -67 
35 -18 14 -110 35 -18 14 -110 35 -18 14 -110 35 -18 14 -110 107 72 -127 10 107 72 -127 10 107 72 -127 10 107 72 -127 10 
-12 -110 105 -127 -12 -110 105 -127 -12 -110 105 -127 -12 -110 105 -127 -106 112 -51 21 -106 112 -51 21 -106 112 -51 21 -106 112 -51 21 
117 59 57 51 117 59 57 51 117 59 57 51 117 59 57 51 83 -104 18 -88 83 -104 18 -88 83 -104 18 -88 83 -104 18 -88 
121 96 -81 -1 121 96 -81 -1 121 96 -81 -1 121 96 -81 -1 -125 29 -41 -87 -125 29 -41 -87 -125 29 -41 -87 -125 29 -41 -87 
-127 -92 -83 127 -127 -92 -83 127 -127 -92 -83 127 -127 -92 -83 127 8 16 -127 -64 8 16 -127 -64 8 16 -127 -64 8 16 -127 -64 
97 -45 -91 127 97 -45 -91 127 97 -45 -91 127 97 -45 -91 127 26 80 -127 7 26 80 -127 7 26 80 -127 7 26 80 -127 7 
-69 122 60 120 -69 122 60 120 -69 122 60 120 -69 122 60 120 -72 -19 25 116 -72 -19 25 116 -72 -19 25 116 -72 -19 25 116 
-57 -87 63 43 -57 -87 63 43 -57 -87 63 43 -57 -87 63 43 -110 39 -56 103 -110 39 -56 103 -110 39 -56 103 -110 39 -56 103 
-12 -70 117 34 -12 -70 117 34 -12 -70 117 34 -12 -70 117 34 -78 118 -19 19 -78 118 -19 19 -78 118 -19 19 -78 118 -19 19 
-106 106 114 -38 -106 106 114 -38 -106 106 114 -38 -106 106 114 -38 -50 127 125 15 -50 127 125 15 -50 127 125 15 -50 127 125 15 
-76 -31 20 -33 -76 -31 20 -33 -76 -31 20 -33 -76 -31 20 -33 -4 37 -81 -118 -4 37 -81 -118 -4 37 -81 -118 -4 37 -81 -118 
-118 -11 -44 59 -118 -11 -44 59 -118 -11 -44 59 -118 -11 -44 59 45 -71 -7 -53 45 -71 -7 -53 45 -71 -7 -53 45 -71 -7 -53 
-86 -10 -44 75 -86 -10 -44 75 -86 -10 -44 75 -86 -10 -44 75 115 -110 -7 39 115 -110 -7 39 115 -110 -7 39 115 -110 -7 39 
-56 19 -122 110 -56 19 -122 110 -56 19 -122 110 -56 19 -122 110 74 -119 -105 10 74 -119 -105 10 74 -119 -105 10 74 -119 -105 10 
-119 106 -96 35 -119 106 -96 35 -119 106 -96 35 -119 106 -96 35 48 116 44 -95 48 116 44 -95 48 116 44 -95 48 116 44 -95 
-4 65 62 41 -4 65 62 41 -4 65 62 41 -4 65 62 41 -110 42 -22 -113 -110 42 -22 -113 -110 42 -22 -113 -110 42 -22 -113 
13 80 -68 81 13 80 -68 81 13 80 -68 81 13 80 -68 81 -9 56 126 76 -9 56 126 76 -9 56 126 76 -9 56 126 76 
-83 2 -106 -18 -83 2 -106 -18 -83 2 -106 -18 -83 2 -106 -18 -40 16 10 42 -40 16 10 42 -40 16 10 42 -40 16 10 42 
-34 64 -58 19 -34 64 -58 19 -34 64 -58 19 -34 64 -58 19 -7 127 -112 -25 -7 127 -112 -25 -7 127 -112 -25 -7 127 -112 -25 
32 -12 17 -1 32 -12 17 -1 32 -12 17 -1 32 -12 17 -1 76 42 -106 -105 76 42 -106 -105 76 42 -106 -105 76 42 -106 -105 
80 54 65 119 80 54 65 119 80 54 65 119 80 54 65 119 -13 -96 -29 92 -13 -96 -29 92 -13 -96 -29 92 -13 -96 -29 92 
87 97 -123 -88 87 97 -123 -88 87 97 -123 -88 87 97 -123 -88 19 42 12 12 19 42 12 12 19 42 12 12 19 42 12 12 
-25 8 -6 92 -25 8 -6 92 -25 8 -6 92 -25 8 -6 92 108 -53 -20 -110 108 -53 -20 -110 108 -53 -20 -110 108 -53 -20 -110 
-28 -71 41 115 -28 -71 41 115 -28 -71 41 115 -28 -71 41 115 -24 86 -88 -112 -24 86 -88 -112 -24 86 -88 -112 -24 86 -88 -112 
-114 -69 -11 6 -114 -69 -11 6 -114 -69 -11 6 -114 -69 -11 6 -42 -127 31 76 -42 -127 31 76 -42 -127 31 76 -42 -127 31 76 
-12 42 -11 -97 -12 42 -11 -97 -12 42 -11 -97 -12 42 -11 -97 -125 -121 -120 -17 -125 -121 -120 -17 -125 -121 -120 -17 -125 -121 -120 -17 
87 56 112 -85 87 56 112 -85 87 56 112 -85 87 56 112 -85 -19 62 2 -96 -19 62 2 -96 -19 62 2 -96 -19 62 2 -96 
-67 -79 75 -83 -67 -79 75 -83 -67 -79 75 -83 -67 -79 75 -83 79 117 -37 65 79 117 -37 65 79 117 -37 65 79 117 -37 65 
73 51 -81 124 73 51 -81 124 73 51 -81 124 73 51 -81 124 11 -48 11 27 11 -48 11 27 11 -48 11 27 11 -48 11 27 
-15 40 -70 88 -15 40 -70 88 -15 40 -70 88 -15 40 -70 88 96 -71 83 34 96 -71 83 34 96 -71 83 34 96 -71 83 34 
-119 77 116 -62 -119 77 116 -62 -119 77 116 -62 -119 77 116 -62 -98 57 -25 -75 -98 57 -25 -75 -98 57 -25 -75 -98 57 -25 -75 
112 -125 -72 -53 112 -125 -72 -53 112 -125 -72 -53 112 -125 -72 -53 -65 -51 42 125 -65 -51 42 125 -65 -51 42 125 -65 -51 42 125 
-92 91 -70 -78 -92 91 -70 -78 -92 91 -70 -78 -92 91 -70 -78 2 12 -32 14 2 12 -32 14 2 12 -32 14 2 12 -32 14 
72 -9 -122 88 72 -9 -122 88 72 -9 -122 88 72 -9 -122 88 -10 -91 68 -82 -10 -91 68 -82 -10 -91 68 -82 -10 -91 68 -82 
-39 -56 61 91 -39 -56 61 91 -39 -56 61 91 -39 -56 61 91 -69 76 -126 -53 -69 76 -126 -53 -69 76 -126 -53 -69 76 -126 -53 
-97 -102 99 61 -97 -102 99 61 -97 -102 99 61 -97 -102 99 61 -8 127 -80 26 -8 127 -80 26 -8 127 -80 26 -8 127 -80 26 
-35 -39 -46 34 -35 -39 -46 34 -35 -39 -46 34 -35 -39 -46 34 20 35 49 100 20 35 49 100 20 35 49 100 20 35 49 100 
125 -50 -68 35 125 -50 -68 35 125 -50 -68 35 125 -50 -68 35 67 40 20 -102 67 40 20 -102 67 40 20 -102 67 40 20 -102 
-1 59 -112 96 -1 59 -112 96 -1 59 -112 96 -1 59 -112 96 20 -97 38 -3 20 -97 38 -3 20 -97 38 -3 20 -97 38 -3 
-26 -66 -95 101 -26 -66 -95 101 -26 -66 -95 101 -26 -66 -95 101 -126 14 -11 5 -126 14 -11 5 -126 14 -11 5 -126 14 -11 5 
101 56 -37 -8 101 56 -37 -8 101 56 -37 -8 101 56 -37 -8 48 -96 -49 63 48 -96 -49 63 48 -96 -49 63 48 -96 -49 63 
127 -79 -47 -31 127 -79 -47 -31 127 -79 -47 -31 127 -79 -47 -31 42 -80 89 -107 42 -80 89 -107 42 -80 89 -107 42 -80 89 -107 
-83 -38 -127 1 -83 -38 -127 1 -83 -38 -127 1 -83 -38 -127 1 -124 45 -93 73 -124 45 -93 73 -124 45 -93 73 -124 45 -93 73 
41 -112 -42 103 41 -112 -42 103 41 -112 -42 103 41 -112 -42 103 110 67 35 -70 110 67 35 -70 110 67 35 -70 110 67 35 -70 
-36 -127 -81 -105 -36 -127 -81 -105 -36 -127 -81 -105 -36 -127 -81 -105 105 -117 96 34 105 -117 96 34 105 -117 96 34 105 -117 96 34 
111 -51 46 -2 111 -51 46 -2 111 -51 46 -2 111 -51 46 -2 -119 83 -108 -10 -119 83 -108 -10 -119 83 -108 -10 -119 83 -108 -10 
86 -59 54 -78 86 -59 54 -78 86 -59 54 -78 86 -59 54 -78 -114 2 56 -65 -114 2 56 -65 -114 2 56 -65 -114 2 56 -65 
112 56 125 96 112 56 125 96 112 56 125 96 112 56 125 96 63 98 52 -15 63 98 52 -15 63 98 52 -15 63 98 52 -15 
98 66 -55 35 98 66 -55 35 98 66 -55 35 98 66 -55 35 -44 -57 -100 -61 -44 -57 -100 -61 -44 -57 -100 -61 -44 -57 -100 -61 
6 -107 -65 37 6 -107 -65 37 6 -107 -65 37 6 -107 -65 37 55 79 127 56 55 79 127 56 55 79 127 56 55 79 127 56 
-76 -87 -107 97 -76 -87 -107 97 -76 -87 -107 97 -76 -87 -107 97 -119 -93 -32 127 -119 -93 -32 127 -119 -93 -32 127 -119 -93 -32 127 
7 50 -39 8 7 50 -39 8 7 50 -39 8 7 50 -39 8 68 107 -123 92 68 107 -123 92 68 107 -123 92 68 107 -123 92 
-2 -61 91 38 -2 -61 91 38 -2 -61 91 38 -2 -61 91 38 42 91 90 34 42 91 90 34 42 91 90 34 42 91 90 34 
59 11 -62 121 59 11 -62 121 59 11 -62 121 59 11 -62 121 -115 -106 -1 -70 -115 -106 -1 -70 -115 -106 -1 -70 -115 -106 -1 -70 
30 68 9 103 30 68 9 103 30 68 9 103 30 68 9 103 -25 -17 -85 2 -25 -17 -85 2 -25 -17 -85 2 -25 -17 -85 2 
-101 -20 -14 -105 -101 -20 -14 -105 -101 -20 -14 -105 -101 -20 -14 -105 -26 107 27 -26 -26 107 27 -26 -26 107 27 -26 -26 107 27 -26 
29 56 -71 43 29 56 -71 43 29 56 -71 43 29 56 -71 43 127 83 -127 -127 127 83 -127 -127 127 83 -127 -127 127 83 -127 -127 
-102 -71 118 -101 -102 -71 118 -101 -102 -71 118 -101 -102 -71 118 -101 -40 -62 -91 -125 -40 -62 -91 -125 -40 -62 -91 -125 -40 -62 -91 -125 
80 91 77 -10 80 91 77 -10 80 91 77 -10 80 91 77 -10 35 -1 -26 -122 35 -1 -26 -122 35 -1 -26 -122 35 -1 -26 -122 
-63 121 25 103 -63 121 25 103 -63 121 25 103 -63 121 25 103 0 -118 -58 103 0 -118 -58 103 0 -118 -58 103 0 -118 -58 103 
-106 -28 -49 91 -106 -28 -49 91 -106 -28 -49 91 -106 -28 -49 91 -36 86 -113 34 -36 86 -113 34 -36 86 -113 34 -36 86 -113 34 
-117 -81 79 -59 -117 -81 79 -59 -117 -81 79 -59 -117 -81 79 -59 31 -21 127 48 31 -21 127 48 31 -21 127 48 31 -21 127 48 
127 -115 -9 -51 127 -115 -9 -51 127 -115 -9 -51 127 -115 -9 -51 100 -51 6 -28 100 -51 6 -28 100 -51 6 -28 100 -51 6 -28 
-87 36 88 46 -87 36 88 46 -87 36 88 46 -87 36 88 46 -127 122 38 -5 -127 122 38 -5 -127 122 38 -5 -127 122 38 -5 
35 119 -42 18 35 119 -42 18 35 119 -42 18 35 119 -42 18 20 51 -64 15 20 51 -64 15 20 51 -64 15 20 51 -64 15 
-44 -78 119 -83 -44 -78 119 -83 -44 -78 119 -83 -44 -78 119 -83 20 60 13 -7 20 60 13 -7 20 60 13 -7 20 60 13 -7 
36 -120 -76 89 36 -120 -76 89 36 -120 -76 89 36 -120 -76 89 -72 -68 -59 -78 -72 -68 -59 -78 -72 -68 -59 -78 -72 -68 -59 -78 
-101 -35 56 -37 -101 -35 56 -37 -101 -35 56 -37 -101 -35 56 -37 68 127 -37 -62 68 127 -37 -62 68 127 -37 -62 68 127 -37 -62 
14 126 -67 -62 14 126 -67 -62 14 126 -67 -62 14 126 -67 -62 65 113 40 -99 65 113 40 -99 65 113 40 -99 65 113 40 -99 
50 -95 -125 102 50 -95 -125 102 50 -95 -125 102 50 -95 -125 102 35 6 73 44 35 6 73 44 35 6 73 44 35 6 73 44 
-44 90 127 -127 -44 90 127 -127 -44 90 127 -127 -44 90 127 -127 -22 -23 -29 -83 -22 -23 -29 -83 -22 -23 -29 -83 -22 -23 -29 -83 
16 98 86 -18 16 98 86 -18 16 98 86 -18 16 98 86 -18 53 -123 25 -127 53 -123 25 -127 53 -123 25 -127 53 -123 25 -127 
32 -68 -38 -108 32 -68 -38 -108 32 -68 -38 -108 32 -68 -38 -108 -117 115 19 46 -117 115 19 46 -117 115 19 46 -117 115 19 46 
115 110 104 -25 115 110 104 -25 115 110 104 -25 115 110 104 -25 -41 112 57 22 -41 112 57 22 -41 112 57 22 -41 112 57 22 
-108 -8 34 -69 -108 -8 34 -69 -108 -8 34 -69 -108 -8 34 -69 -42 106 96 37 -42 106 96 37 -42 106 96 37 -42 106 96 37 
96 -108 -53 39 96 -108 -53 39 96 -108 -53 39 96 -108 -53 39 -40 100 40 -81 -40 100 40 -81 -40 100 40 -81 -40 100 40 -81 
57 87 114 23 57 87 114 23 57 87 114 23 57 87 114 23 -25 105 -127 81 -25 105 -127 81 -25 105 -127 81 -25 105 -127 81 
-3 88 91 -40 -3 88 91 -40 -3 88 91 -40 -3 88 91 -40 55 -70 83 -25 55 -70 83 -25 55 -70 83 -25 55 -70 83 -25 
35 63 43 114 35 63 43 114 35 63 43 114 35 63 43 114 -101 -76 66 -118 -101 -76 66 -118 -101 -76 66 -118 -101 -76 66 -118 
127 -74 96 -81 127 -74 96 -81 127 -74 96 -81 127 -74 96 -81 72 108 99 13 72 108 99 13 72 108 99 13 72 108 99 13 
-84 86 -127 -91 -84 86 -127 -91 -84 86 -127 -91 -84 86 -127 -91 -90 59 95 -96 -90 59 95 -96 -90 59 95 -96 -90 59 95 -96 
-61 5 55 -7 -61 5 55 -7 -61 5 55 -7 -61 5 55 -7 67 -24 46 13 67 -24 46 13 67 -24 46 13 67 -24 46 13 
-105 91 124 40 -105 91 124 40 -105 91 124 40 -105 91 124 40 72 -81 -127 -31 72 -81 -127 -31 72 -81 -127 -31 72 -81 -127 -31 
-77 -74 100 87 -77 -74 100 87 -77 -74 100 87 -77 -74 100 87 -74 -75 102 74 -74 -75 102 74 -74 -75 102 74 -74 -75 102 74 
-61 -31 -98 -43 -61 -31 -98 -43 -61 -31 -98 -43 -61 -31 -98 -43 126 101 -111 59 126 101 -111 59 126 101 -111 59 126 101 -111 59 
-39 1 -17 59 -39 1 -17 59 -39 1 -17 59 -39 1 -17 59 -125 -6 -112 -41 -125 -6 -112 -41 -125 -6 -112 -41 -125 -6 -112 -41 
-127 -72 -105 40 -127 -72 -105 40 -127 -72 -105 40 -127 -72 -105 40 107 -27 -89 -120 107 -27 -89 -120 107 -27 -89 -120 107 -27 -89 -120 
31 -126 -32 127 31 -126 -32 127 31 -126 -32 127 31 -126 -32 127 7 -86 98 -85 7 -86 98 -85 7 -86 98 -85 7 -86 98 -85 
69 83 -103 6 69 83 -103 6 69 83 -103 6 69 83 -103 6 -18 127 -111 -55 -18 127 -111 -55 -18 127 -111 -55 -18 127 -111 -55 
124 27 44 -127 124 27 44 -127 124 27 44 -127 124 27 44 -127 -49 -22 127 -64 -49 -22 127 -64 -49 -22 127 -64 -49 -22 127 -64 
25 -115 -19 -113 25 -115 -19 -113 25 -115 -19 -113 25 -115 -19 -113 84 -49 60 -37 84 -49 60 -37 84 -49 60 -37 84 -49 60 -37 
13 -52 69 110 13 -52 69 110 13 -52 69 110 13 -52 69 110 -68 26 -69 -63 -68 26 -69 -63 -68 26 -69 -63 -68 26 -69 -63 
127 -123 124 -125 127 -123 124 -125 127 -123 124 -125 127 -123 124 -125 -73 -88 -34 -28 -73 -88 -34 -28 -73 -88 -34 -28 -73 -88 -34 -28 
-58 -31 -2 68 -58 -31 -2 68 -58 -31 -2 68 -58 -31 -2 68 -57 3 -21 -43 -57 3 -21 -43 -57 3 -21 -43 -57 3 -21 -43 
-5 77 -61 34 -5 77 -61 34 -5 77 -61 34 -5 77 -61 34 -106 -16 -15 76 -106 -16 -15 76 -106 -16 -15 76 -106 -16 -15 76 
-40 28 71 -75 -40 28 71 -75 -40 28 71 -75 -40 28 71 -75 -127 111 127 34 -127 111 127 34 -127 111 127 34 -127 111 127 34 
-127 105 35 -124 -127 105 35 -124 -127 105 35 -124 -127 105 35 -124 114 67 -127 -124 114 67 -127 -124 114 67 -127 -124 114 67 -127 -124 
3 106 -107 96 3 106 -107 96 3 106 -107 96 3 106 -107 96 126 -62 -15 -113 126 -62 -15 -113 126 -62 -15 -113 126 -62 -15 -113 
-36 -102 22 24 -36 -102 22 24 -36 -102 22 24 -36 -102 22 24 57 12 58 -70 57 12 58 -70 57 12 58 -70 57 12 58 -70 
-5 -65 -77 99 -5 -65 -77 99 -5 -65 -77 99 -5 -65 -77 99 -125 1 -114 124 -125 1 -114 124 -125 1 -114 124 -125 1 -114 124 
102 68 35 -86 102 68 35 -86 102 68 35 -86 102 68 35 -86 59 -46 -60 -127 59 -46 -60 -127 59 -46 -60 -127 59 -46 -60 -127 
75 -39 126 6 75 -39 126 6 75 -39 126 6 75 -39 126 6 112 -80 -56 81 112 -80 -56 81 112 -80 -56 81 112 -80 -56 81 
-127 65 108 108 -127 65 108 108 -127 65 108 108 -127 65 108 108 39 -77 91 61 39 -77 91 61 39 -77 91 61 39 -77 91 61 
-98 18 -80 60 -98 18 -80 60 -98 18 -80 60 -98 18 -80 60 -1 50 -6 105 -1 50 -6 105 -1 50 -6 105 -1 50 -6 105 
-50 -56 61 -116 -50 -56 61 -116 -50 -56 61 -116 -50 -56 61 -116 -48 93 -84 85 -48 93 -84 85 -48 93 -84 85 -48 93 -84 85 
126 -11 107 59 126 -11 107 59 126 -11 107 59 126 -11 107 59 25 -74 -55 111 25 -74 -55 111 25 -74 -55 111 25 -74 -55 111 
-1 107 0 58 -1 107 0 58 -1 107 0 58 -1 107 0 58 19 91 -33 117 19 91 -33 117 19 91 -33 117 19 91 -33 117 
38 127 -97 115 38 127 -97 115 38 127 -97 115 38 127 -97 115 101 -46 -46 54 101 -46 -46 54 101 -46 -46 54 101 -46 -46 54 
-121 -116 13 57 -121 -116 13 57 -121 -116 13 57 -121 -116 13 57 -62 -114 -99 127 -62 -114 -99 127 -62 -114 -99 127 -62 -114 -99 127 
37 11 -22 -22 37 11 -22 -22 37 11 -22 -22 37 11 -22 -22 -119 127 -62 117 -119 127 -62 117 -119 127 -62 117 -119 127 -62 117 
21 127 83 -56 21 127 83 -56 21 127 83 -56 21 127 83 -56 46 122 40 -101 46 122 40 -101 46 122 40 -101 46 122 40 -101 
-40 52 -97 -64 -40 52 -97 -64 -40 52 -97 -64 -40 52 -97 -64 -41 42 -37 53 -41 42 -37 53 -41 42 -37 53 -41 42 -37 53 
31 -123 -1 -46 31 -123 -1 -46 31 -123 -1 -46 31 -123 -1 -46 64 -21 -116 -121 64 -21 -116 -121 64 -21 -116 -121 64 -21 -116 -121 
37 -44 127 23 37 -44 127 23 37 -44 127 23 37 -44 127 23 -91 37 -120 112 -91 37 -120 112 -91 37 -120 112 -91 37 -120 112 
115 10 12 -22 115 10 12 -22 115 10 12 -22 115 10 12 -22 -119 -105 106 82 -119 -105 106 82 -119 -105 106 82 -119 -105 106 82 
-35 -53 114 92 -35 -53 114 92 -35 -53 114 92 -35 -53 114 92 -118 114 33 -127 -118 114 33 -127 -118 114 33 -127 -118 114 33 -127 
17 89 -24 -110 17 89 -24 -110 17 89 -24 -110 17 89 -24 -110 25 -88 104 -35 25 -88 104 -35 25 -88 104 -35 25 -88 104 -35 
87 -10 -46 126 87 -10 -46 126 87 -10 -46 126 87 -10 -46 126 -20 -56 45 114 -20 -56 45 114 -20 -56 45 114 -20 -56 45 114 
-117 -1 -65 84 -117 -1 -65 84 -117 -1 -65 84 -117 -1 -65 84 37 12 -108 -29 37 12 -108 -29 37 12 -108 -29 37 12 -108 -29 
103 55 -53 13 103 55 -53 13 103 55 -53 13 103 55 -53 13 99 18 80 77 99 18 80 77 99 18 80 77 99 18 80 77 
-51 96 -38 33 -51 96 -38 33 -51 96 -38 33 -51 96 -38 33 79 -49 -87 -93 79 -49 -87 -93 79 -49 -87 -93 79 -49 -87 -93 
61 -90 116 21 61 -90 116 21 61 -90 116 21 61 -90 116 21 51 -127 -67 122 51 -127 -67 122 51 -127 -67 122 51 -127 -67 122 
-127 16 -39 -100 -127 16 -39 -100 -127 16 -39 -100 -127 16 -39 -100 -107 13 -111 -62 -107 13 -111 -62 -107 13 -111 -62 -107 13 -111 -62 
2 -11 -17 127 2 -11 -17 127 2 -11 -17 127 2 -11 -17 127 125 -110 23 23 125 -110 23 23 125 -110 23 23 125 -110 23 23 
-57 -31 6 93 -57 -31 6 93 -57 -31 6 93 -57 -31 6 93 -127 -72 -62 81 -127 -72 -62 81 -127 -72 -62 81 -127 -72 -62 81 
-103 23 -90 98 -103 23 -90 98 -103 23 -90 98 -103 23 -90 98 -122 21 -59 123 -122 21 -59 123 -122 21 -59 123 -122 21 -59 123 
32 -11 80 -86 32 -11 80 -86 32 -11 80 -86 32 -11 80 -86 -91 54 -85 127 -91 54 -85 127 -91 54 -85 127 -91 54 -85 127 
-1 -52 79 108 -1 -52 79 108 -1 -52 79 108 -1 -52 79 108 109 -114 90 0 109 -114 90 0 109 -114 90 0 109 -114 90 0 
-104 -80 33 95 -104 -80 33 95 -104 -80 33 95 -104 -80 33 95 -25 -82 -13 -15 -25 -82 -13 -15 -25 -82 -13 -15 -25 -82 -13 -15 
44 -89 -41 -97 44 -89 -41 -97 44 -89 -41 -97 44 -89 -41 -97 -51 32 -61 103 -51 32 -61 103 -51 32 -61 103 -51 32 -61 103 
-74 -18 -54 -22 -74 -18 -54 -22 -74 -18 -54 -22 -74 -18 -54 -22 48 51 -76 -94 48 51 -76 -94 48 51 -76 -94 48 51 -76 -94 
68 108 -61 -18 68 108 -61 -18 68 108 -61 -18 68 108 -61 -18 -10 79 -53 -122 -10 79 -53 -122 -10 79 -53 -122 -10 79 -53 -122 
-77 -121 -82 -92 -77 -121 -82 -92 -77 -121 -82 -92 -77 -121 -82 -92 52 -75 -9 46 52 -75 -9 46 52 -75 -9 46 52 -75 -9 46 
-3 -57 108 -85 -3 -57 108 -85 -3 -57 108 -85 -3 -57 108 -85 127 51 -112 -8 127 51 -112 -8 127 51 -112 -8 127 51 -112 -8 
-33 57 16 -76 -33 57 16 -76 -33 57 16 -76 -33 57 16 -76 -19 -57 -108 -101 -19 -57 -108 -101 -19 -57 -108 -101 -19 -57 -108 -101 
-109 55 -87 103 -109 55 -87 103 -109 55 -87 103 -109 55 -87 103 72 72 75 68 72 72 75 68 72 72 75 68 72 72 75 68 
47 20 -110 113 47 20 -110 113 47 20 -110 113 47 20 -110 113 4 -105 -110 33 4 -105 -110 33 4 -105 -110 33 4 -105 -110 33 
29 91 -95 -91 29 91 -95 -91 29 91 -95 -91 29 91 -95 -91 -78 61 67 2 -78 61 67 2 -78 61 67 2 -78 61 67 2 
62 -102 -43 84 62 -102 -43 84 62 -102 -43 84 62 -102 -43 84 -119 -113 104 61 -119 -113 104 61 -119 -113 104 61 -119 -113 104 61 
14 127 52 -52 14 127 52 -52 14 127 52 -52 14 127 52 -52 -116 -36 98 -7 -116 -36 98 -7 -116 -36 98 -7 -116 -36 98 -7 
-127 102 67 -44 -127 102 67 -44 -127 102 67 -44 -127 102 67 -44 -16 110 116 42 -16 110 116 42 -16 110 116 42 -16 110 116 42 
34 -26 0 -3 34 -26 0 -3 34 -26 0 -3 34 -26 0 -3 -81 127 40 45 -81 127 40 45 -81 127 40 45 -81 127 40 45 
116 26 57 53 116 26 57 53 116 26 57 53 116 26 57 53 127 -56 115 92 127 -56 115 92 127 -56 115 92 127 -56 115 92 
-35 -64 127 22 -35 -64 127 22 -35 -64 127 22 -35 -64 127 22 -25 102 -74 125 -25 102 -74 125 -25 102 -74 125 -25 102 -74 125 
34 -25 116 -23 34 -25 116 -23 34 -25 116 -23 34 -25 116 -23 -42 -73 -28 5 -42 -73 -28 5 -42 -73 -28 5 -42 -73 -28 5 
-78 -108 -5 -90 -78 -108 -5 -90 -78 -108 -5 -90 -78 -108 -5 -90 -37 -115 68 104 -37 -115 68 104 -37 -115 68 104 -37 -115 68 104 
102 63 73 -118 102 63 73 -118 102 63 73 -118 102 63 73 -118 -5 93 -126 56 -5 93 -126 56 -5 93 -126 56 -5 93 -126 56 
56 79 -56 -99 56 79 -56 -99 56 79 -56 -99 56 79 -56 -99 41 -42 -44 16 41 -42 -44 16 41 -42 -44 16 41 -42 -44 16 
-21 119 127 10 -21 119 127 10 -21 119 127 10 -21 119 127 10 -70 -56 2 -118 -70 -56 2 -118 -70 -56 2 -118 -70 -56 2 -118 
1 -94 -38 33 1 -94 -38 33 1 -94 -38 33 1 -94 -38 33 127 94 13 -6 127 94 13 -6 127 94 13 -6 127 94 13 -6 
84 -42 -22 -32 84 -42 -22 -32 84 -42 -22 -32 84 -42 -22 -32 -46 -123 -90 127 -46 -123 -90 127 -46 -123 -90 127 -46 -123 -90 127 
-16 98 -102 -29 -16 98 -102 -29 -16 98 -102 -29 -16 98 -102 -29 -51 24 62 -122 -51 24 62 -122 -51 24 62 -122 -51 24 62 -122 
94 49 103 112 94 49 103 112 94 49 103 112 94 49 103 112 -91 32 -49 -10 -91 32 -49 -10 -91 32 -49 -10 -91 32 -49 -10 
-105 -123 79 -88 -105 -123 79 -88 -105 -123 79 -88 -105 -123 79 -88 60 -122 118 -33 60 -122 118 -33 60 -122 118 -33 60 -122 118 -33 
63 95 24 -26 63 95 24 -26 63 95 24 -26 63 95 24 -26 77 -7 35 -6 77 -7 35 -6 77 -7 35 -6 77 -7 35 -6 
-60 124 87 23 -60 124 87 23 -60 124 87 23 -60 124 87 23 -52 25 -37 -124 -52 25 -37 -124 -52 25 -37 -124 -52 25 -37 -124 
4 -126 3 -49 4 -126 3 -49 4 -126 3 -49 4 -126 3 -49 7 -78 114 11 7 -78 114 11 7 -78 114 11 7 -78 114 11 
-48 109 51 88 -48 109 51 88 -48 109 51 88 -48 109 51 88 -32 109 48 8 -32 109 48 8 -32 109 48 8 -32 109 48 8 
101 74 73 -57 101 74 73 -57 101 74 73 -57 101 74 73 -57 -1 -115 -118 -127 -1 -115 -118 -127 -1 -115 -118 -127 -1 -115 -118 -127 
118 110 52 -110 118 110 52 -110 118 110 52 -110 118 110 52 -110 103 78 85 127 103 78 85 127 103 78 85 127 103 78 85 127 
31 -33 65 124 31 -33 65 124 31 -33 65 124 31 -33 65 124 37 -26 0 -7 37 -26 0 -7 37 -26 0 -7 37 -26 0 -7 
114 -105 -5 -3 114 -105 -5 -3 114 -105 -5 -3 114 -105 -5 -3 -2 88 7 -92 -2 88 7 -92 -2 88 7 -92 -2 88 7 -92 
-100 -87 -5 -65 -100 -87 -5 -65 -100 -87 -5 -65 -100 -87 -5 -65 125 85 -85 -66 125 85 -85 -66 125 85 -85 -66 125 85 -85 -66 
40 33 -47 74 40 33 -47 74 40 33 -47 74 40 33 -47 74 -120 22 101 0 -120 22 101 0 -120 22 101 0 -120 22 101 0 
16 71 -57 87 16 71 -57 87 16 71 -57 87 16 71 -57 87 14 80 -27 -109 14 80 -27 -109 14 80 -27 -109 14 80 -27 -109 
-126 -71 71 -127 -126 -71 71 -127 -126 -71 71 -127 -126 -71 71 -127 -42 97 -111 -62 -42 97 -111 -62 -42 97 -111 -62 -42 97 -111 -62 
-54 126 21 -47 -54 126 21 -47 -54 126 21 -47 -54 126 21 -47 94 116 -49 115 94 116 -49 115 94 116 -49 115 94 116 -49 115 
93 108 123 -106 93 108 123 -106 93 108 123 -106 93 108 123 -106 -120 37 -76 -37 -120 37 -76 -37 -120 37 -76 -37 -120 37 -76 -37 
-127 87 -19 -96 -127 87 -19 -96 -127 87 -19 -96 -127 87 -19 -96 21 81 -30 30 21 81 -30 30 21 81 -30 30 21 81 -30 30 
113 30 -90 109 113 30 -90 109 113 30 -90 109 113 30 -90 109 -122 -96 30 55 -122 -96 30 55 -122 -96 30 55 -122 -96 30 55 
42 -125 -75 68 42 -125 -75 68 42 -125 -75 68 42 -125 -75 68 113 -50 91 28 113 -50 91 28 113 -50 91 28 113 -50 91 28 
88 87 107 11 88 87 107 11 88 87 107 11 88 87 107 11 -31 82 15 92 -31 82 15 92 -31 82 15 92 -31 82 15 92 
-12 102 -81 -109 -12 102 -81 -109 -12 102 -81 -109 -12 102 -81 -109 -26 -46 88 -86 -26 -46 88 -86 -26 -46 88 -86 -26 -46 88 -86 
-6 -116 18 108 -6 -116 18 108 -6 -116 18 108 -6 -116 18 108 -31 -62 -7 91 -31 -62 -7 91 -31 -62 -7 91 -31 -62 -7 91 
74 115 -87 -2 74 115 -87 -2 74 115 -87 -2 74 115 -87 -2 -7 7 104 119 -7 7 104 119 -7 7 104 119 -7 7 104 119 
-88 93 -52 -4 -88 93 -52 -4 -88 93 -52 -4 -88 93 -52 -4 -104 -72 110 -2 -104 -72 110 -2 -104 -72 110 -2 -104 -72 110 -2 
-105 56 -23 70 -105 56 -23 70 -105 56 -23 70 -105 56 -23 70 -73 -85 -33 91 -73 -85 -33 91 -73 -85 -33 91 -73 -85 -33 91 
42 50 19 -108 42 50 19 -108 42 50 19 -108 42 50 19 -108 47 -29 -27 -84 47 -29 -27 -84 47 -29 -27 -84 47 -29 -27 -84 
121 -119 84 42 121 -119 84 42 121 -119 84 42 121 -119 84 42 -94 -15 -59 127 -94 -15 -59 127 -94 -15 -59 127 -94 -15 -59 127 
-71 121 87 -122 -71 121 87 -122 -71 121 87 -122 -71 121 87 -122 -63 -87 -50 112 -63 -87 -50 112 -63 -87 -50 112 -63 -87 -50 112 
41 -29 43 84 41 -29 43 84 41 -29 43 84 41 -29 43 84 20 -61 -30 91 20 -61 -30 91 20 -61 -30 91 20 -61 -30 91 
-85 10 28 -123 -85 10 28 -123 -85 10 28 -123 -85 10 28 -123 -80 -77 -117 58 -80 -77 -117 58 -80 -77 -117 58 -80 -77 -117 58 
126 -29 20 -73 126 -29 20 -73 126 -29 20 -73 126 -29 20 -73 46 68 27 2 46 68 27 2 46 68 27 2 46 68 27 2 
70 34 -82 17 70 34 -82 17 70 34 -82 17 70 34 -82 17 96 -53 -113 28 96 -53 -113 28 96 -53 -113 28 96 -53 -113 28 
-31 108 62 -90 -31 108 62 -90 -31 108 62 -90 -31 108 62 -90 56 47 -105 26 56 47 -105 26 56 47 -105 26 56 47 -105 26 
0 8 -10 -40 0 8 -10 -40 0 8 -10 -40 0 8 -10 -40 -67 111 -89 -115 -67 111 -89 -115 -67 111 -89 -115 -67 111 -89 -115 
-68 107 -110 -54 -68 107 -110 -54 -68 107 -110 -54 -68 107 -110 -54 -2 53 121 19 -2 53 121 19 -2 53 121 19 -2 53 121 19 
109 27 -46 16 109 27 -46 16 109 27 -46 16 109 27 -46 16 -84 -85 -8 -37 -84 -85 -8 -37 -84 -85 -8 -37 -84 -85 -8 -37 
65 57 127 8 65 57 127 8 65 57 127 8 65 57 127 8 -81 -127 -18 -41 -81 -127 -18 -41 -81 -127 -18 -41 -81 -127 -18 -41 
-122 -5 -41 -56 -122 -5 -41 -56 -122 -5 -41 -56 -122 -5 -41 -56 80 -90 -84 -5 80 -90 -84 -5 80 -90 -84 -5 80 -90 -84 -5 
97 19 -26 -12 97 19 -26 -12 97 19 -26 -12 97 19 -26 -12 97 -30 -19 81 97 -30 -19 81 97 -30 -19 81 97 -30 -19 81 
25 21 -115 127 25 21 -115 127 25 21 -115 127 25 21 -115 127 -32 90 -89 -43 -32 90 -89 -43 -32 90 -89 -43 -32 90 -89 -43 
71 15 -29 -68 71 15 -29 -68 71 15 -29 -68 71 15 -29 -68 45 -56 -91 -108 45 -56 -91 -108 45 -56 -91 -108 45 -56 -91 -108 
-78 -11 79 125 -78 -11 79 125 -78 -11 79 125 -78 -11 79 125 77 -68 49 75 77 -68 49 75 77 -68 49 75 77 -68 49 75 
-31 96 50 -10 -31 96 50 -10 -31 96 50 -10 -31 96 50 -10 -25 127 21 -77 -25 127 21 -77 -25 127 21 -77 -25 127 21 -77 
124 31 -76 103 124 31 -76 103 124 31 -76 103 124 31 -76 103 -19 18 -42 108 -19 18 -42 108 -19 18 -42 108 -19 18 -42 108 
-75 -40 109 73 -75 -40 109 73 -75 -40 109 73 -75 -40 109 73 -66 -51 5 99 -66 -51 5 99 -66 -51 5 99 -66 -51 5 99 
36 11 -73 -127 36 11 -73 -127 36 11 -73 -127 36 11 -73 -127 -121 74 -40 -2 -121 74 -40 -2 -121 74 -40 -2 -121 74 -40 -2 
75 46 -55 127 75 46 -55 127 75 46 -55 127 75 46 -55 127 -123 -7 113 111 -123 -7 113 111 -123 -7 113 111 -123 -7 113 111 
76 -17 -54 -127 76 -17 -54 -127 76 -17 -54 -127 76 -17 -54 -127 88 88 -87 83 88 88 -87 83 88 88 -87 83 88 88 -87 83 
79 95 108 31 79 95 108 31 79 95 108 31 79 95 108 31 -86 29 102 66 -86 29 102 66 -86 29 102 66 -86 29 102 66 
47 68 -66 114 47 68 -66 114 47 68 -66 114 47 68 -66 114 -127 -86 -33 -67 -127 -86 -33 -67 -127 -86 -33 -67 -127 -86 -33 -67 
65 127 53 100 65 127 53 100 65 127 53 100 65 127 53 100 124 -94 45 -86 124 -94 45 -86 124 -94 45 -86 124 -94 45 -86 
40 41 -50 24 40 41 -50 24 40 41 -50 24 40 41 -50 24 15 -7 110 119 15 -7 110 119 15 -7 110 119 15 -7 110 119 
-101 110 -29 95 -101 110 -29 95 -101 110 -29 95 -101 110 -29 95 52 126 26 -113 52 126 26 -113 52 126 26 -113 52 126 26 -113 
4 -23 -30 95 4 -23 -30 95 4 -23 -30 95 4 -23 -30 95 100 -115 125 115 100 -115 125 115 100 -115 125 115 100 -115 125 115 
72 30 18 -51 72 30 18 -51 72 30 18 -51 72 30 18 -51 -46 -26 44 -110 -46 -26 44 -110 -46 -26 44 -110 -46 -26 44 -110 
64 -122 -76 -107 64 -122 -76 -107 64 -122 -76 -107 64 -122 -76 -107 -3 -35 -113 -69 -3 -35 -113 -69 -3 -35 -113 -69 -3 -35 -113 -69 
39 -127 -2 -9 39 -127 -2 -9 39 -127 -2 -9 39 -127 -2 -9 91 -119 -30 119 91 -119 -30 119 91 -119 -30 119 91 -119 -30 119 
-34 -100 -58 -8 -34 -100 -58 -8 -34 -100 -58 -8 -34 -100 -58 -8 -52 39 119 -94 -52 39 119 -94 -52 39 119 -94 -52 39 119 -94 
5 -39 -49 -101 5 -39 -49 -101 5 -39 -49 -101 5 -39 -49 -101 -123 6 -93 -95 -123 6 -93 -95 -123 6 -93 -95 -123 6 -93 -95 
-37 93 55 72 -37 93 55 72 -37 93 55 72 -37 93 55 72 -3 97 48 56 -3 97 48 56 -3 97 48 56 -3 97 48 56 
-69 114 -85 -76 -69 114 -85 -76 -69 114 -85 -76 -69 114 -85 -76 -15 -26 30 -127 -15 -26 30 -127 -15 -26 30 -127 -15 -26 30 -127 
-47 -18 66 -71 -47 -18 66 -71 -47 -18 66 -71 -47 -18 66 -71 21 -72 -32 -109 21 -72 -32 -109 21 -72 -32 -109 21 -72 -32 -109 
12 -61 -25 -51 12 -61 -25 -51 12 -61 -25 -51 12 -61 -25 -51 24 8 4 68 24 8 4 68 24 8 4 68 24 8 4 68 
-82 5 -59 -88 -82 5 -59 -88 -82 5 -59 -88 -82 5 -59 -88 -81 -49 46 -67 -81 -49 46 -67 -81 -49 46 -67 -81 -49 46 -67 
-78 103 115 24 -78 103 115 24 -78 103 115 24 -78 103 115 24 15 -102 1 127 15 -102 1 127 15 -102 1 127 15 -102 1 127 
127 119 -121 -12 127 119 -121 -12 127 119 -121 -12 127 119 -121 -12 -121 -17 88 60 -121 -17 88 60 -121 -17 88 60 -121 -17 88 60 
-127 10 -50 127 -127 10 -50 127 -127 10 -50 127 -127 10 -50 127 -22 -127 -5 -7 -22 -127 -5 -7 -22 -127 -5 -7 -22 -127 -5 -7 
39 23 106 111 39 23 106 111 39 23 106 111 39 23 106 111 103 -80 -25 76 103 -80 -25 76 103 -80 -25 76 103 -80 -25 76 
110 3 -14 -103 110 3 -14 -103 110 3 -14 -103 110 3 -14 -103 105 -76 -100 35 105 -76 -100 35 105 -76 -100 35 105 -76 -100 35 
-45 113 83 -84 -45 113 83 -84 -45 113 83 -84 -45 113 83 -84 90 127 79 83 90 127 79 83 90 127 79 83 90 127 79 83 
79 83 39 58 79 83 39 58 79 83 39 58 79 83 39 58 -116 -7 6 19 -116 -7 6 19 -116 -7 6 19 -116 -7 6 19 
-86 -123 126 86 -86 -123 126 86 -86 -123 126 86 -86 -123 126 86 -61 -117 34 97 -61 -117 34 97 -61 -117 34 97 -61 -117 34 97 
-12 118 -38 -127 -12 118 -38 -127 -12 118 -38 -127 -12 118 -38 -127 -127 -121 124 52 -127 -121 124 52 -127 -121 124 52 -127 -121 124 52 
55 124 37 7 55 124 37 7 55 124 37 7 55 124 37 7 -64 -36 121 96 -64 -36 121 96 -64 -36 121 96 -64 -36 121 96 
-95 -117 59 127 -95 -117 59 127 -95 -117 59 127 -95 -117 59 127 101 27 -7 -70 101 27 -7 -70 101 27 -7 -70 101 27 -7 -70 
29 -67 127 54 29 -67 127 54 29 -67 127 54 29 -67 127 54 -112 -7 -111 -17 -112 -7 -111 -17 -112 -7 -111 -17 -112 -7 -111 -17 
79 -95 117 -96 79 -95 117 -96 79 -95 117 -96 79 -95 117 -96 52 43 32 -32 52 43 32 -32 52 43 32 -32 52 43 32 -32 
-24 63 45 -108 -24 63 45 -108 -24 63 45 -108 -24 63 45 -108 -20 -108 82 66 -20 -108 82 66 -20 -108 82 66 -20 -108 82 66 
-37 127 -82 -103 -37 127 -82 -103 -37 127 -82 -103 -37 127 -82 -103 -127 -23 98 94 -127 -23 98 94 -127 -23 98 94 -127 -23 98 94 
54 85 -99 0 54 85 -99 0 54 85 -99 0 54 85 -99 0 47 127 73 -122 47 127 73 -122 47 127 73 -122 47 127 73 -122 
-16 33 -52 126 -16 33 -52 126 -16 33 -52 126 -16 33 -52 126 -123 90 11 22 -123 90 11 22 -123 90 11 22 -123 90 11 22 
-120 -45 112 -9 -120 -45 112 -9 -120 -45 112 -9 -120 -45 112 -9 -123 -75 81 -127 -123 -75 81 -127 -123 -75 81 -127 -123 -75 81 -127 
126 -82 -47 -121 126 -82 -47 -121 126 -82 -47 -121 126 -82 -47 -121 110 -75 33 -13 110 -75 33 -13 110 -75 33 -13 110 -75 33 -13 
-8 -2 14 1 -8 -2 14 1 -8 -2 14 1 -8 -2 14 1 59 -41 18 77 59 -41 18 77 59 -41 18 77 59 -41 18 77 
99 108 -3 -105 99 108 -3 -105 99 108 -3 -105 99 108 -3 -105 -79 50 41 -79 -79 50 41 -79 -79 50 41 -79 -79 50 41 -79 
-72 -124 -102 -24 -72 -124 -102 -24 -72 -124 -102 -24 -72 -124 -102 -24 -122 -52 57 -104 -122 -52 57 -104 -122 -52 57 -104 -122 -52 57 -104 
-58 -54 31 93 -58 -54 31 93 -58 -54 31 93 -58 -54 31 93 119 -71 -115 53 119 -71 -115 53 119 -71 -115 53 119 -71 -115 53 
102 102 74 -98 102 102 74 -98 102 102 74 -98 102 102 74 -98 112 -57 -112 111 112 -57 -112 111 112 -57 -112 111 112 -57 -112 111 
-103 127 -99 -88 -103 127 -99 -88 -103 127 -99 -88 -103 127 -99 -88 -13 -111 47 116 -13 -111 47 116 -13 -111 47 116 -13 -111 47 116 
-121 -62 69 -64 -121 -62 69 -64 -121 -62 69 -64 -121 -62 69 -64 -94 104 -57 -81 -94 104 -57 -81 -94 104 -57 -81 -94 104 -57 -81 
-4 127 44 -37 -4 127 44 -37 -4 127 44 -37 -4 127 44 -37 -50 45 -52 -17 -50 45 -52 -17 -50 45 -52 -17 -50 45 -52 -17 
72 86 -56 73 72 86 -56 73 72 86 -56 73 72 86 -56 73 -32 57 117 -111 -32 57 117 -111 -32 57 117 -111 -32 57 117 -111 
22 -41 -50 -19 22 -41 -50 -19 22 -41 -50 -19 22 -41 -50 -19 65 7 -5 19 65 7 -5 19 65 7 -5 19 65 7 -5 19 
110 -70 -5 -115 110 -70 -5 -115 110 -70 -5 -115 110 -70 -5 -115 -114 -106 -29 -43 -114 -106 -29 -43 -114 -106 -29 -43 -114 -106 -29 -43 
31 114 -62 -37 31 114 -62 -37 31 114 -62 -37 31 114 -62 -37 -127 -125 119 56 -127 -125 119 56 -127 -125 119 56 -127 -125 119 56 
-34 108 107 -72 -34 108 107 -72 -34 108 107 -72 -34 108 107 -72 -64 34 15 -120 -64 34 15 -120 -64 34 15 -120 -64 34 15 -120 
79 10 103 -45 79 10 103 -45 79 10 103 -45 79 10 103 -45 127 -113 77 -78 127 -113 77 -78 127 -113 77 -78 127 -113 77 -78 
84 -82 -96 -88 84 -82 -96 -88 84 -82 -96 -88 84 -82 -96 -88 -66 54 -117 42 -66 54 -117 42 -66 54 -117 42 -66 54 -117 42 
-124 110 37 -34 -124 110 37 -34 -124 110 37 -34 -124 110 37 -34 -23 52 -42 90 -23 52 -42 90 -23 52 -42 90 -23 52 -42 90 
-69 -35 -84 122 -69 -35 -84 122 -69 -35 -84 122 -69 -35 -84 122 127 66 -92 12 127 66 -92 12 127 66 -92 12 127 66 -92 12 
-88 108 19 101 -88 108 19 101 -88 108 19 101 -88 108 19 101 94 -91 -6 73 94 -91 -6 73 94 -91 -6 73 94 -91 -6 73 
40 -125 -42 -81 40 -125 -42 -81 40 -125 -42 -81 40 -125 -42 -81 107 16 58 22 107 16 58 22 107 16 58 22 107 16 58 22 
59 65 -49 -4 59 65 -49 -4 59 65 -49 -4 59 65 -49 -4 127 -2 44 65 127 -2 44 65 127 -2 44 65 127 -2 44 65 
40 -71 90 94 40 -71 90 94 40 -71 90 94 40 -71 90 94 7 107 -34 55 7 107 -34 55 7 107 -34 55 7 107 -34 55 
62 -33 -57 53 62 -33 -57 53 62 -33 -57 53 62 -33 -57 53 -115 -47 -91 -37 -115 -47 -91 -37 -115 -47 -91 -37 -115 -47 -91 -37 
89 47 45 -100 89 47 45 -100 89 47 45 -100 89 47 45 -100 107 68 -94 117 107 68 -94 117 107 68 -94 117 107 68 -94 117 
-9 72 -47 -127 -9 72 -47 -127 -9 72 -47 -127 -9 72 -47 -127 28 -7 52 -21 28 -7 52 -21 28 -7 52 -21 28 -7 52 -21 
104 -102 -38 3 104 -102 -38 3 104 -102 -38 3 104 -102 -38 3 87 -67 -91 -9 87 -67 -91 -9 87 -67 -91 -9 87 -67 -91 -9 
-113 116 -5 6 -113 116 -5 6 -113 116 -5 6 -113 116 -5 6 126 35 115 53 126 35 115 53 126 35 115 53 126 35 115 53 
-84 -85 10 -117 -84 -85 10 -117 -84 -85 10 -117 -84 -85 10 -117 -83 28 24 -79 -83 28 24 -79 -83 28 24 -79 -83 28 24 -79 
97 97 -127 46 97 97 -127 46 97 97 -127 46 97 97 -127 46 122 99 -96 -67 122 99 -96 -67 122 99 -96 -67 122 99 -96 -67 
52 24 -39 -96 52 24 -39 -96 52 24 -39 -96 52 24 -39 -96 -37 63 -111 -86 -37 63 -111 -86 -37 63 -111 -86 -37 63 -111 -86 
-8 120 -12 127 -8 120 -12 127 -8 120 -12 127 -8 120 -12 127 92 58 54 -97 92 58 54 -97 92 58 54 -97 92 58 54 -97 
126 -44 75 -72 126 -44 75 -72 126 -44 75 -72 126 -44 75 -72 -112 -48 -14 -30 -112 -48 -14 -30 -112 -48 -14 -30 -112 -48 -14 -30 
-18 -66 20 15 -18 -66 20 15 -18 -66 20 15 -18 -66 20 15 12 118 7 46 12 118 7 46 12 118 7 46 12 118 7 46 
-70 -12 -92 -36 -70 -12 -92 -36 -70 -12 -92 -36 -70 -12 -92 -36 3 -106 -80 -30 3 -106 -80 -30 3 -106 -80 -30 3 -106 -80 -30 
80 34 -88 -74 80 34 -88 -74 80 34 -88 -74 80 34 -88 -74 94 40 -19 -122 94 40 -19 -122 94 40 -19 -122 94 40 -19 -122 
-65 76 97 -31 -65 76 97 -31 -65 76 97 -31 -65 76 97 -31 123 83 88 -44 123 83 88 -44 123 83 88 -44 123 83 88 -44 
65 -48 106 52 65 -48 106 52 65 -48 106 52 65 -48 106 52 108 117 -4 -108 108 117 -4 -108 108 117 -4 -108 108 117 -4 -108 
6 63 31 60 6 63 31 60 6 63 31 60 6 63 31 60 39 -101 56 12 39 -101 56 12 39 -101 56 12 39 -101 56 12 
-81 -113 -27 40 -81 -113 -27 40 -81 -113 -27 40 -81 -113 -27 40 118 4 58 -1 118 4 58 -1 118 4 58 -1 118 4 58 -1 
-35 86 -23 -125 -35 86 -23 -125 -35 86 -23 -125 -35 86 -23 -125 -29 -79 121 -17 -29 -79 121 -17 -29 -79 121 -17 -29 -79 121 -17 
-56 -64 -11 -116 -56 -64 -11 -116 -56 -64 -11 -116 -56 -64 -11 -116 -108 18 17 -55 -108 18 17 -55 -108 18 17 -55 -108 18 17 -55 
61 -127 6 -127 61 -127 6 -127 61 -127 6 -127 61 -127 6 -127 16 -90 113 -25 16 -90 113 -25 16 -90 113 -25 16 -90 113 -25 
60 51 124 119 60 51 124 119 60 51 124 119 60 51 124 119 -124 -88 65 -74 -124 -88 65 -74 -124 -88 65 -74 -124 -88 65 -74 
-41 -126 83 69 -41 -126 83 69 -41 -126 83 69 -41 -126 83 69 94 49 -122 18 94 49 -122 18 94 49 -122 18 94 49 -122 18 
2 -61 -5 100 2 -61 -5 100 2 -61 -5 100 2 -61 -5 100 127 2 116 -52 127 2 116 -52 127 2 116 -52 127 2 116 -52 
19 -2 -85 1 19 -2 -85 1 19 -2 -85 1 19 -2 -85 1 127 -77 -119 -97 127 -77 -119 -97 127 -77 -119 -97 127 -77 -119 -97 
47 -101 -117 -123 47 -101 -117 -123 47 -101 -117 -123 47 -101 -117 -123 -22 -2 -21 -56 -22 -2 -21 -56 -22 -2 -21 -56 -22 -2 -21 -56 
-118 39 58 -78 -118 39 58 -78 -118 39 58 -78 -118 39 58 -78 44 80 -72 -72 44 80 -72 -72 44 80 -72 -72 44 80 -72 -72 
110 14 -5 -91 110 14 -5 -91 110 14 -5 -91 110 14 -5 -91 16 -44 -106 74 16 -44 -106 74 16 -44 -106 74 16 -44 -106 74 
-84 -48 -43 -7 -84 -48 -43 -7 -84 -48 -43 -7 -84 -48 -43 -7 127 122 -52 53 127 122 -52 53 127 122 -52 53 127 122 -52 53 
18 49 -53 -52 18 49 -53 -52 18 49 -53 -52 18 49 -53 -52 -95 60 125 64 -95 60 125 64 -95 60 125 64 -95 60 125 64 
-64 33 -52 110 -64 33 -52 110 -64 33 -52 110 -64 33 -52 110 -11 -45 -97 -58 -11 -45 -97 -58 -11 -45 -97 -58 -11 -45 -97 -58 
84 61 -9 -122 84 61 -9 -122 84 61 -9 -122 84 61 -9 -122 59 86 1 -63 59 86 1 -63 59 86 1 -63 59 86 1 -63 
116 43 -20 -24 116 43 -20 -24 116 43 -20 -24 116 43 -20 -24 -127 96 116 118 -127 96 116 118 -127 96 116 118 -127 96 116 118 
-70 64 84 -108 -70 64 84 -108 -70 64 84 -108 -70 64 84 -108 -112 60 -15 46 -112 60 -15 46 -112 60 -15 46 -112 60 -15 46 
-127 -27 101 -106 -127 -27 101 -106 -127 -27 101 -106 -127 -27 101 -106 -13 -46 112 -65 -13 -46 112 -65 -13 -46 112 -65 -13 -46 112 -65 
15 -22 93 -86 15 -22 93 -86 15 -22 93 -86 15 -22 93 -86 17 -85 81 -94 17 -85 81 -94 17 -85 81 -94 17 -85 81 -94 
-92 -47 -36 38 -92 -47 -36 38 -92 -47 -36 38 -92 -47 -36 38 -82 99 -42 91 -82 99 -42 91 -82 99 -42 91 -82 99 -42 91 
-39 93 37 82 -39 93 37 82 -39 93 37 82 -39 93 37 82 -118 69 26 34 -118 69 26 34 -118 69 26 34 -118 69 26 34 
61 80 43 -100 61 80 43 -100 61 80 43 -100 61 80 43 -100 -115 95 -50 55 -115 95 -50 55 -115 95 -50 55 -115 95 -50 55 
110 -108 56 -67 110 -108 56 -67 110 -108 56 -67 110 -108 56 -67 118 34 54 28 118 34 54 28 118 34 54 28 118 34 54 28 
-19 -105 -37 57 -19 -105 -37 57 -19 -105 -37 57 -19 -105 -37 57 112 -5 127 40 112 -5 127 40 112 -5 127 40 112 -5 127 40 
32 -43 76 35 32 -43 76 35 32 -43 76 35 32 -43 76 35 9 -32 127 127 9 -32 127 127 9 -32 127 127 9 -32 127 127 
54 92 -59 71 54 92 -59 71 54 92 -59 71 54 92 -59 71 1 -92 -86 19 1 -92 -86 19 1 -92 -86 19 1 -92 -86 19 
-54 29 -127 31 -54 29 -127 31 -54 29 -127 31 -54 29 -127 31 -103 -67 127 -105 -103 -67 127 -105 -103 -67 127 -105 -103 -67 127 -105 
14 -102 45 5 14 -102 45 5 14 -102 45 5 14 -102 45 5 -85 -3 -37 49 -85 -3 -37 49 -85 -3 -37 49 -85 -3 -37 49 
-45 78 -108 -41 -45 78 -108 -41 -45 78 -108 -41 -45 78 -108 -41 33 119 124 -115 33 119 124 -115 33 119 124 -115 33 119 124 -115 
114 -33 22 49 114 -33 22 49 114 -33 22 49 114 -33 22 49 -84 -104 104 -73 -84 -104 104 -73 -84 -104 104 -73 -84 -104 104 -73 
-103 -77 94 100 -103 -77 94 100 -103 -77 94 100 -103 -77 94 100 49 127 -27 100 49 127 -27 100 49 127 -27 100 49 127 -27 100 
125 -107 64 108 125 -107 64 108 125 -107 64 108 125 -107 64 108 97 -118 -73 12 97 -118 -73 12 97 -118 -73 12 97 -118 -73 12 
21 -127 -87 8 21 -127 -87 8 21 -127 -87 8 21 -127 -87 8 -47 13 -104 33 -47 13 -104 33 -47 13 -104 33 -47 13 -104 33 
120 97 -109 -86 120 97 -109 -86 120 97 -109 -86 120 97 -109 -86 126 -54 115 120 126 -54 115 120 126 -54 115 120 126 -54 115 120 
1 28 35 28 1 28 35 28 1 28 35 28 1 28 35 28 -72 -66 71 23 -72 -66 71 23 -72 -66 71 23 -72 -66 71 23 
-99 -76 -100 67 -99 -76 -100 67 -99 -76 -100 67 -99 -76 -100 67 -2 104 -74 -30 -2 104 -74 -30 -2 104 -74 -30 -2 104 -74 -30 
15 7 35 83 15 7 35 83 15 7 35 83 15 7 35 83 -45 41 -104 -75 -45 41 -104 -75 -45 41 -104 -75 -45 41 -104 -75 
31 54 46 53 31 54 46 53 31 54 46 53 31 54 46 53 127 113 -114 30 127 113 -114 30 127 113 -114 30 127 113 -114 30 
127 -86 -15 110 127 -86 -15 110 127 -86 -15 110 127 -86 -15 110 88 75 -40 81 88 75 -40 81 88 75 -40 81 88 75 -40 81 
-17 -9 113 -6 -17 -9 113 -6 -17 -9 113 -6 -17 -9 113 -6 25 -15 -116 -73 25 -15 -116 -73 25 -15 -116 -73 25 -15 -116 -73 
123 -4 110 8 123 -4 110 8 123 -4 110 8 123 -4 110 8 31 127 33 -46 31 127 33 -46 31 127 33 -46 31 127 33 -46 
12 -88 -91 -77 12 -88 -91 -77 12 -88 -91 -77 12 -88 -91 -77 126 -116 -82 -65 126 -116 -82 -65 126 -116 -82 -65 126 -116 -82 -65 
16 102 -79 99 16 102 -79 99 16 102 -79 99 16 102 -79 99 -91 110 118 -12 -91 110 118 -12 -91 110 118 -12 -91 110 118 -12 
-8 82 34 2 -8 82 34 2 -8 82 34 2 -8 82 34 2 7 114 109 84 7 114 109 84 7 114 109 84 7 114 109 84 
20 -103 -94 104 20 -103 -94 104 20 -103 -94 104 20 -103 -94 104 -3 -89 -1 -41 -3 -89 -1 -41 -3 -89 -1 -41 -3 -89 -1 -41 
-22 -43 -122 -33 -22 -43 -122 -33 -22 -43 -122 -33 -22 -43 -122 -33 37 60 -17 -97 37 60 -17 -97 37 60 -17 -97 37 60 -17 -97 
22 51 30 8 22 51 30 8 22 51 30 8 22 51 30 8 -50 -88 -127 -54 -50 -88 -127 -54 -50 -88 -127 -54 -50 -88 -127 -54 
46 100 -26 37 46 100 -26 37 46 100 -26 37 46 100 -26 37 -73 -74 -85 -119 -73 -74 -85 -119 -73 -74 -85 -119 -73 -74 -85 -119 
-124 11 60 96 -124 11 60 96 -124 11 60 96 -124 11 60 96 -4 -126 -17 -13 -4 -126 -17 -13 -4 -126 -17 -13 -4 -126 -17 -13 
76 -87 -36 88 76 -87 -36 88 76 -87 -36 88 76 -87 -36 88 -31 22 -56 -78 -31 22 -56 -78 -31 22 -56 -78 -31 22 -56 -78 
-12 -25 -71 110 -12 -25 -71 110 -12 -25 -71 110 -12 -25 -71 110 -3 61 -31 71 -3 61 -31 71 -3 61 -31 71 -3 61 -31 71 
62 113 -117 92 62 113 -117 92 62 113 -117 92 62 113 -117 92 -40 -8 4 31 -40 -8 4 31 -40 -8 4 31 -40 -8 4 31 
-28 68 46 75 -28 68 46 75 -28 68 46 75 -28 68 46 75 121 -83 -41 22 121 -83 -41 22 121 -83 -41 22 121 -83 -41 22 
93 -127 -10 19 93 -127 -10 19 93 -127 -10 19 93 -127 -10 19 11 102 59 70 11 102 59 70 11 102 59 70 11 102 59 70 
0 -126 -61 31 0 -126 -61 31 0 -126 -61 31 0 -126 -61 31 -62 -64 93 39 -62 -64 93 39 -62 -64 93 39 -62 -64 93 39 
-127 48 57 -101 -127 48 57 -101 -127 48 57 -101 -127 48 57 -101 14 -114 -117 -41 14 -114 -117 -41 14 -114 -117 -41 14 -114 -117 -41 
111 -120 -74 -115 111 -120 -74 -115 111 -120 -74 -115 111 -120 -74 -115 -112 -6 -111 -22 -112 -6 -111 -22 -112 -6 -111 -22 -112 -6 -111 -22 
124 -25 -71 14 124 -25 -71 14 124 -25 -71 14 124 -25 -71 14 -9 99 -127 8 -9 99 -127 8 -9 99 -127 8 -9 99 -127 8 
87 57 -55 -26 87 57 -55 -26 87 57 -55 -26 87 57 -55 -26 -41 -11 -41 104 -41 -11 -41 104 -41 -11 -41 104 -41 -11 -41 104 
-127 113 41 -20 -127 113 41 -20 -127 113 41 -20 -127 113 41 -20 -8 59 26 105 -8 59 26 105 -8 59 26 105 -8 59 26 105 
-84 51 -106 -94 -84 51 -106 -94 -84 51 -106 -94 -84 51 -106 -94 54 61 -109 -127 54 61 -109 -127 54 61 -109 -127 54 61 -109 -127 
19 -65 -38 -69 19 -65 -38 -69 19 -65 -38 -69 19 -65 -38 -69 68 15 -109 -35 68 15 -109 -35 68 15 -109 -35 68 15 -109 -35 
-32 -105 13 -29 -32 -105 13 -29 -32 -105 13 -29 -32 -105 13 -29 -127 -103 -84 11 -127 -103 -84 11 -127 -103 -84 11 -127 -103 -84 11 
-92 -4 -67 -40 -92 -4 -67 -40 -92 -4 -67 -40 -92 -4 -67 -40 -40 -42 94 -19 -40 -42 94 -19 -40 -42 94 -19 -40 -42 94 -19 
-68 -106 -73 41 -68 -106 -73 41 -68 -106 -73 41 -68 -106 -73 41 -50 127 -7 71 -50 127 -7 71 -50 127 -7 71 -50 127 -7 71 
-31 15 84 112 -31 15 84 112 -31 15 84 112 -31 15 84 112 -119 48 -56 123 -119 48 -56 123 -119 48 -56 123 -119 48 -56 123 
-50 -119 -105 -52 -50 -119 -105 -52 -50 -119 -105 -52 -50 -119 -105 -52 -67 61 93 -36 -67 61 93 -36 -67 61 93 -36 -67 61 93 -36 
-86 -61 -28 -57 -86 -61 -28 -57 -86 -61 -28 -57 -86 -61 -28 -57 -21 -89 -125 84 -21 -89 -125 84 -21 -89 -125 84 -21 -89 -125 84 
58 -97 17 31 58 -97 17 31 58 -97 17 31 58 -97 17 31 -116 -116 -102 -70 -116 -116 -102 -70 -116 -116 -102 -70 -116 -116 -102 -70 
-70 -71 -116 -113 -70 -71 -116 -113 -70 -71 -116 -113 -70 -71 -116 -113 -102 -2 37 89 -102 -2 37 89 -102 -2 37 89 -102 -2 37 89 
-74 -26 -65 -127 -74 -26 -65 -127 -74 -26 -65 -127 -74 -26 -65 -127 125 -124 -111 -40 125 -124 -111 -40 125 -124 -111 -40 125 -124 -111 -40 
-29 -35 47 57 -29 -35 47 57 -29 -35 47 57 -29 -35 47 57 -60 56 42 122 -60 56 42 122 -60 56 42 122 -60 56 42 122 
62 -37 19 -101 62 -37 19 -101 62 -37 19 -101 62 -37 19 -101 -127 73 -102 -6 -127 73 -102 -6 -127 73 -102 -6 -127 73 -102 -6 
-93 51 17 -24 -93 51 17 -24 -93 51 17 -24 -93 51 17 -24 -127 -108 -88 -7 -127 -108 -88 -7 -127 -108 -88 -7 -127 -108 -88 -7 
83 -74 -2 123 83 -74 -2 123 83 -74 -2 123 83 -74 -2 123 -28 57 74 20 -28 57 74 20 -28 57 74 20 -28 57 74 20 
-127 1 -3 -42 -127 1 -3 -42 -127 1 -3 -42 -127 1 -3 -42 -127 -36 76 55 -127 -36 76 55 -127 -36 76 55 -127 -36 76 55 
-5 -34 82 -119 -5 -34 82 -119 -5 -34 82 -119 -5 -34 82 -119 115 -127 -57 116 115 -127 -57 116 115 -127 -57 116 115 -127 -57 116 
70 22 96 -104 70 22 96 -104 70 22 96 -104 70 22 96 -104 67 -67 -96 33 67 -67 -96 33 67 -67 -96 33 67 -67 -96 33 
109 -36 80 52 109 -36 80 52 109 -36 80 52 109 -36 80 52 -9 15 -41 53 -9 15 -41 53 -9 15 -41 53 -9 15 -41 53 
127 -81 -127 119 127 -81 -127 119 127 -81 -127 119 127 -81 -127 119 -78 -107 18 -66 -78 -107 18 -66 -78 -107 18 -66 -78 -107 18 -66 
-32 45 40 -102 -32 45 40 -102 -32 45 40 -102 -32 45 40 -102 -83 96 -45 -6 -83 96 -45 -6 -83 96 -45 -6 -83 96 -45 -6 
-91 78 55 -1 -91 78 55 -1 -91 78 55 -1 -91 78 55 -1 -111 -75 -127 -95 -111 -75 -127 -95 -111 -75 -127 -95 -111 -75 -127 -95 
46 58 50 65 46 58 50 65 46 58 50 65 46 58 50 65 35 22 127 2 35 22 127 2 35 22 127 2 35 22 127 2 
-81 23 -15 -30 -81 23 -15 -30 -81 23 -15 -30 -81 23 -15 -30 -28 -87 99 46 -28 -87 99 46 -28 -87 99 46 -28 -87 99 46 
9 70 3 66 9 70 3 66 9 70 3 66 9 70 3 66 92 84 -100 18 92 84 -100 18 92 84 -100 18 92 84 -100 18 
-63 54 8 -75 -63 54 8 -75 -63 54 8 -75 -63 54 8 -75 63 -24 122 -113 63 -24 122 -113 63 -24 122 -113 63 -24 122 -113 
6 66 108 -70 6 66 108 -70 6 66 108 -70 6 66 108 -70 24 127 25 58 24 127 25 58 24 127 25 58 24 127 25 58 
-98 -28 25 -31 -98 -28 25 -31 -98 -28 25 -31 -98 -28 25 -31 -107 -109 99 -62 -107 -109 99 -62 -107 -109 99 -62 -107 -109 99 -62 
14 -85 15 107 14 -85 15 107 14 -85 15 107 14 -85 15 107 -38 95 103 127 -38 95 103 127 -38 95 103 127 -38 95 103 127 
-13 -44 121 -68 -13 -44 121 -68 -13 -44 121 -68 -13 -44 121 -68 101 -121 -39 35 101 -121 -39 35 101 -121 -39 35 101 -121 -39 35 
-26 -34 57 -29 -26 -34 57 -29 -26 -34 57 -29 -26 -34 57 -29 -58 27 -23 97 -58 27 -23 97 -58 27 -23 97 -58 27 -23 97 
63 84 18 -1 63 84 18 -1 63 84 18 -1 63 84 18 -1 74 113 -65 35 74 113 -65 35 74 113 -65 35 74 113 -65 35 
-127 126 -88 -127 -127 126 -88 -127 -127 126 -88 -127 -127 126 -88 -127 -109 107 -110 -42 -109 107 -110 -42 -109 107 -110 -42 -109 107 -110 -42 
-8 -37 78 124 -8 -37 78 124 -8 -37 78 124 -8 -37 78 124 -110 -127 46 118 -110 -127 46 118 -110 -127 46 118 -110 -127 46 118 
127 106 -58 -12 127 106 -58 -12 127 106 -58 -12 127 106 -58 -12 71 97 -58 26 71 97 -58 26 71 97 -58 26 71 97 -58 26 
-54 43 80 -91 -54 43 80 -91 -54 43 80 -91 -54 43 80 -91 127 -79 44 34 127 -79 44 34 127 -79 44 34 127 -79 44 34 
44 -69 45 120 44 -69 45 120 44 -69 45 120 44 -69 45 120 35 -55 52 4 35 -55 52 4 35 -55 52 4 35 -55 52 4 
75 -114 -69 -109 75 -114 -69 -109 75 -114 -69 -109 75 -114 -69 -109 118 -124 -40 114 118 -124 -40 114 118 -124 -40 114 118 -124 -40 114 
25 -87 -127 -117 25 -87 -127 -117 25 -87 -127 -117 25 -87 -127 -117 -113 -77 -86 -13 -113 -77 -86 -13 -113 -77 -86 -13 -113 -77 -86 -13 
101 103 63 -90 101 103 63 -90 101 103 63 -90 101 103 63 -90 -41 -37 30 47 -41 -37 30 47 -41 -37 30 47 -41 -37 30 47 
-7 -93 -17 111 -7 -93 -17 111 -7 -93 -17 111 -7 -93 -17 111 -18 -108 -8 51 -18 -108 -8 51 -18 -108 -8 51 -18 -108 -8 51 
127 59 -18 -106 127 59 -18 -106 127 59 -18 -106 127 59 -18 -106 -58 27 -54 -43 -58 27 -54 -43 -58 27 -54 -43 -58 27 -54 -43 
73 75 21 -22 73 75 21 -22 73 75 21 -22 73 75 21 -22 -28 63 72 -79 -28 63 72 -79 -28 63 72 -79 -28 63 72 -79 
36 111 104 7 36 111 104 7 36 111 104 7 36 111 104 7 71 -18 -71 89 71 -18 -71 89 71 -18 -71 89 71 -18 -71 89 
9 54 83 102 9 54 83 102 9 54 83 102 9 54 83 102 72 -28 -74 -68 72 -28 -74 -68 72 -28 -74 -68 72 -28 -74 -68 
-54 -48 40 2 -54 -48 40 2 -54 -48 40 2 -54 -48 40 2 16 -11 98 119 16 -11 98 119 16 -11 98 119 16 -11 98 119 
54 -57 -56 -5 54 -57 -56 -5 54 -57 -56 -5 54 -57 -56 -5 -5 47 -40 71 -5 47 -40 71 -5 47 -40 71 -5 47 -40 71 
104 49 -7 -102 104 49 -7 -102 104 49 -7 -102 104 49 -7 -102 13 62 119 -87 13 62 119 -87 13 62 119 -87 13 62 119 -87 
-127 -55 -84 11 -127 -55 -84 11 -127 -55 -84 11 -127 -55 -84 11 66 -45 61 80 66 -45 61 80 66 -45 61 80 66 -45 61 80 
62 -49 0 3 62 -49 0 3 62 -49 0 3 62 -49 0 3 -99 -27 80 -48 -99 -27 80 -48 -99 -27 80 -48 -99 -27 80 -48 
-36 102 -93 -91 -36 102 -93 -91 -36 102 -93 -91 -36 102 -93 -91 -20 42 26 17 -20 42 26 17 -20 42 26 17 -20 42 26 17 
39 79 -13 113 39 79 -13 113 39 79 -13 113 39 79 -13 113 -70 -99 -16 7 -70 -99 -16 7 -70 -99 -16 7 -70 -99 -16 7 
21 -80 57 17 21 -80 57 17 21 -80 57 17 21 -80 57 17 -97 -108 -55 -111 -97 -108 -55 -111 -97 -108 -55 -111 -97 -108 -55 -111 
21 114 -48 80 21 114 -48 80 21 114 -48 80 21 114 -48 80 91 -5 -127 127 91 -5 -127 127 91 -5 -127 127 91 -5 -127 127 
8 33 -93 127 8 33 -93 127 8 33 -93 127 8 33 -93 127 109 86 42 -127 109 86 42 -127 109 86 42 -127 109 86 42 -127 
23 -111 11 -12 23 -111 11 -12 23 -111 11 -12 23 -111 11 -12 112 81 -84 11 112 81 -84 11 112 81 -84 11 112 81 -84 11 
-119 104 -18 -87 -119 104 -18 -87 -119 104 -18 -87 -119 104 -18 -87 123 -47 89 119 123 -47 89 119 123 -47 89 119 123 -47 89 119 
-108 -113 107 51 -108 -113 107 51 -108 -113 107 51 -108 -113 107 51 -36 33 41 64 -36 33 41 64 -36 33 41 64 -36 33 41 64 
-16 -97 -89 -29 -16 -97 -89 -29 -16 -97 -89 -29 -16 -97 -89 -29 12 104 -62 126 12 104 -62 126 12 104 -62 126 12 104 -62 126 
-113 -84 81 -127 -113 -84 81 -127 -113 -84 81 -127 -113 -84 81 -127 127 17 32 39 127 17 32 39 127 17 32 39 127 17 32 39 
-17 41 -18 -47 -17 41 -18 -47 -17 41 -18 -47 -17 41 -18 -47 14 69 -19 -11 14 69 -19 -11 14 69 -19 -11 14 69 -19 -11 
-18 46 -112 90 -18 46 -112 90 -18 46 -112 90 -18 46 -112 90 -67 54 15 -98 -67 54 15 -98 -67 54 15 -98 -67 54 15 -98 
-127 30 37 39 -127 30 37 39 -127 30 37 39 -127 30 37 39 62 75 -37 -53 62 75 -37 -53 62 75 -37 -53 62 75 -37 -53 
-126 70 -44 -82 -126 70 -44 -82 -126 70 -44 -82 -126 70 -44 -82 82 -12 48 -95 82 -12 48 -95 82 -12 48 -95 82 -12 48 -95 
-61 19 -122 65 -61 19 -122 65 -61 19 -122 65 -61 19 -122 65 34 -88 32 -106 34 -88 32 -106 34 -88 32 -106 34 -88 32 -106 
98 -90 -127 -67 98 -90 -127 -67 98 -90 -127 -67 98 -90 -127 -67 -92 -94 -36 91 -92 -94 -36 91 -92 -94 -36 91 -92 -94 -36 91 
-127 67 -40 51 -127 67 -40 51 -127 67 -40 51 -127 67 -40 51 -125 4 -3 25 -125 4 -3 25 -125 4 -3 25 -125 4 -3 25 
-15 -20 93 63 -15 -20 93 63 -15 -20 93 63 -15 -20 93 63 -83 -2 -54 -127 -83 -2 -54 -127 -83 -2 -54 -127 -83 -2 -54 -127 
-38 87 -5 42 -38 87 -5 42 -38 87 -5 42 -38 87 -5 42 -45 32 96 -89 -45 32 96 -89 -45 32 96 -89 -45 32 96 -89 
100 -16 -125 -98 100 -16 -125 -98 100 -16 -125 -98 100 -16 -125 -98 69 102 -25 -66 69 102 -25 -66 69 102 -25 -66 69 102 -25 -66 
105 -58 15 -34 105 -58 15 -34 105 -58 15 -34 105 -58 15 -34 76 13 -97 66 76 13 -97 66 76 13 -97 66 76 13 -97 66 
-102 -127 -79 89 -102 -127 -79 89 -102 -127 -79 89 -102 -127 -79 89 38 -124 -47 122 38 -124 -47 122 38 -124 -47 122 38 -124 -47 122 
127 -5 46 -37 127 -5 46 -37 127 -5 46 -37 127 -5 46 -37 75 -55 -77 -57 75 -55 -77 -57 75 -55 -77 -57 75 -55 -77 -57 
-34 -4 8 -45 -34 -4 8 -45 -34 -4 8 -45 -34 -4 8 -45 119 -106 -28 -94 119 -106 -28 -94 119 -106 -28 -94 119 -106 -28 -94 
-29 -87 110 -56 -29 -87 110 -56 -29 -87 110 -56 -29 -87 110 -56 78 -108 75 -45 78 -108 75 -45 78 -108 75 -45 78 -108 75 -45 
104 -48 91 57 104 -48 91 57 104 -48 91 57 104 -48 91 57 25 78 -25 -109 25 78 -25 -109 25 78 -25 -109 25 78 -25 -109 
104 -38 105 -22 104 -38 105 -22 104 -38 105 -22 104 -38 105 -22 -84 78 -84 52 -84 78 -84 52 -84 78 -84 52 -84 78 -84 52 
14 -57 5 6 14 -57 5 6 14 -57 5 6 14 -57 5 6 106 -36 -107 -24 106 -36 -107 -24 106 -36 -107 -24 106 -36 -107 -24 
-66 -65 -127 -38 -66 -65 -127 -38 -66 -65 -127 -38 -66 -65 -127 -38 -93 -28 66 -95 -93 -28 66 -95 -93 -28 66 -95 -93 -28 66 -95 
110 -34 -113 75 110 -34 -113 75 110 -34 -113 75 110 -34 -113 75 -58 -91 -127 -119 -58 -91 -127 -119 -58 -91 -127 -119 -58 -91 -127 -119 
-116 -35 18 -117 -116 -35 18 -117 -116 -35 18 -117 -116 -35 18 -117 -71 -75 -96 83 -71 -75 -96 83 -71 -75 -96 83 -71 -75 -96 83 
38 -43 -92 54 38 -43 -92 54 38 -43 -92 54 38 -43 -92 54 127 80 123 116 127 80 123 116 127 80 123 116 127 80 123 116 
105 -16 73 -102 105 -16 73 -102 105 -16 73 -102 105 -16 73 -102 -49 127 70 -41 -49 127 70 -41 -49 127 70 -41 -49 127 70 -41 
-86 -54 16 -127 -86 -54 16 -127 -86 -54 16 -127 -86 -54 16 -127 -114 2 59 -114 -114 2 59 -114 -114 2 59 -114 -114 2 59 -114 
-19 17 -2 127 -19 17 -2 127 -19 17 -2 127 -19 17 -2 127 -4 40 114 -104 -4 40 114 -104 -4 40 114 -104 -4 40 114 -104 
41 98 62 10 41 98 62 10 41 98 62 10 41 98 62 10 -85 -19 -21 -55 -85 -19 -21 -55 -85 -19 -21 -55 -85 -19 -21 -55 
36 -59 -45 -52 36 -59 -45 -52 36 -59 -45 -52 36 -59 -45 -52 -34 -81 83 -14 -34 -81 83 -14 -34 -81 83 -14 -34 -81 83 -14 
118 -21 -92 -71 118 -21 -92 -71 118 -21 -92 -71 118 -21 -92 -71 109 -37 -93 -77 109 -37 -93 -77 109 -37 -93 -77 109 -37 -93 -77 
-93 124 70 -4 -93 124 70 -4 -93 124 70 -4 -93 124 70 -4 92 97 62 -44 92 97 62 -44 92 97 62 -44 92 97 62 -44 
1 -78 23 -113 1 -78 23 -113 1 -78 23 -113 1 -78 23 -113 -97 -55 -19 -66 -97 -55 -19 -66 -97 -55 -19 -66 -97 -55 -19 -66 
-42 -122 -62 59 -42 -122 -62 59 -42 -122 -62 59 -42 -122 -62 59 116 42 -109 41 116 42 -109 41 116 42 -109 41 116 42 -109 41 
84 -23 75 -18 84 -23 75 -18 84 -23 75 -18 84 -23 75 -18 -72 64 -12 108 -72 64 -12 108 -72 64 -12 108 -72 64 -12 108 
-26 -26 59 -21 -26 -26 59 -21 -26 -26 59 -21 -26 -26 59 -21 120 -2 -16 93 120 -2 -16 93 120 -2 -16 93 120 -2 -16 93 
-124 60 -116 90 -124 60 -116 90 -124 60 -116 90 -124 60 -116 90 -100 96 -127 -65 -100 96 -127 -65 -100 96 -127 -65 -100 96 -127 -65 
102 37 17 -98 102 37 17 -98 102 37 17 -98 102 37 17 -98 -119 39 61 26 -119 39 61 26 -119 39 61 26 -119 39 61 26 
32 25 -70 18 32 25 -70 18 32 25 -70 18 32 25 -70 18 90 -98 3 -28 90 -98 3 -28 90 -98 3 -28 90 -98 3 -28 
-95 65 -41 67 -95 65 -41 67 -95 65 -41 67 -95 65 -41 67 17 11 55 -114 17 11 55 -114 17 11 55 -114 17 11 55 -114 
2 113 -27 -42 2 113 -27 -42 2 113 -27 -42 2 113 -27 -42 122 77 -8 32 122 77 -8 32 122 77 -8 32 122 77 -8 32 
53 -35 13 57 53 -35 13 57 53 -35 13 57 53 -35 13 57 -52 121 39 93 -52 121 39 93 -52 121 39 93 -52 121 39 93 
-22 -86 96 -28 -22 -86 96 -28 -22 -86 96 -28 -22 -86 96 -28 -75 -40 31 36 -75 -40 31 36 -75 -40 31 36 -75 -40 31 36 
53 27 32 -72 53 27 32 -72 53 27 32 -72 53 27 32 -72 63 58 -102 110 63 58 -102 110 63 58 -102 110 63 58 -102 110 
75 19 37 -56 75 19 37 -56 75 19 37 -56 75 19 37 -56 -24 114 -117 -47 -24 114 -117 -47 -24 114 -117 -47 -24 114 -117 -47 
-63 101 99 35 -63 101 99 35 -63 101 99 35 -63 101 99 35 121 -69 127 -91 121 -69 127 -91 121 -69 127 -91 121 -69 127 -91 
-127 45 -55 60 -127 45 -55 60 -127 45 -55 60 -127 45 -55 60 -38 -35 103 -127 -38 -35 103 -127 -38 -35 103 -127 -38 -35 103 -127 
74 -66 -22 83 74 -66 -22 83 74 -66 -22 83 74 -66 -22 83 69 21 56 -105 69 21 56 -105 69 21 56 -105 69 21 56 -105 
-121 72 -46 30 -121 72 -46 30 -121 72 -46 30 -121 72 -46 30 56 -87 -32 58 56 -87 -32 58 56 -87 -32 58 56 -87 -32 58 
49 -53 -77 41 49 -53 -77 41 49 -53 -77 41 49 -53 -77 41 69 76 39 71 69 76 39 71 69 76 39 71 69 76 39 71 
45 0 -100 -5 45 0 -100 -5 45 0 -100 -5 45 0 -100 -5 -32 90 82 119 -32 90 82 119 -32 90 82 119 -32 90 82 119 
15 55 -66 -33 15 55 -66 -33 15 55 -66 -33 15 55 -66 -33 -44 94 41 93 -44 94 41 93 -44 94 41 93 -44 94 41 93 
76 -57 -127 -61 76 -57 -127 -61 76 -57 -127 -61 76 -57 -127 -61 -14 -33 0 -57 -14 -33 0 -57 -14 -33 0 -57 -14 -33 0 -57 
-91 -3 80 16 -91 -3 80 16 -91 -3 80 16 -91 -3 80 16 11 0 -120 -29 11 0 -120 -29 11 0 -120 -29 11 0 -120 -29 
-69 -15 48 107 -69 -15 48 107 -69 -15 48 107 -69 -15 48 107 -2 24 -13 -27 -2 24 -13 -27 -2 24 -13 -27 -2 24 -13 -27 
100 -71 -5 -58 100 -71 -5 -58 100 -71 -5 -58 100 -71 -5 -58 16 -124 -73 -70 16 -124 -73 -70 16 -124 -73 -70 16 -124 -73 -70 
-21 -127 102 85 -21 -127 102 85 -21 -127 102 85 -21 -127 102 85 -71 85 -75 43 -71 85 -75 43 -71 85 -75 43 -71 85 -75 43 
-115 89 -65 87 -115 89 -65 87 -115 89 -65 87 -115 89 -65 87 -28 100 30 -6 -28 100 30 -6 -28 100 30 -6 -28 100 30 -6 
60 -73 -87 -15 60 -73 -87 -15 60 -73 -87 -15 60 -73 -87 -15 122 91 -16 105 122 91 -16 105 122 91 -16 105 122 91 -16 105 
-24 105 22 -74 -24 105 22 -74 -24 105 22 -74 -24 105 22 -74 -59 61 111 -78 -59 61 111 -78 -59 61 111 -78 -59 61 111 -78 
32 -29 -23 -105 32 -29 -23 -105 32 -29 -23 -105 32 -29 -23 -105 -76 -5 -58 43 -76 -5 -58 43 -76 -5 -58 43 -76 -5 -58 43 
-53 -36 59 -4 -53 -36 59 -4 -53 -36 59 -4 -53 -36 59 -4 -36 2 80 -109 -36 2 80 -109 -36 2 80 -109 -36 2 80 -109 
-64 47 -79 47 -64 47 -79 47 -64 47 -79 47 -64 47 -79 47 113 97 85 123 113 97 85 123 113 97 85 123 113 97 85 123 
73 10 -65 93 73 10 -65 93 73 10 -65 93 73 10 -65 93 43 40 -46 -65 43 40 -46 -65 43 40 -46 -65 43 40 -46 -65 
36 26 119 -115 36 26 119 -115 36 26 119 -115 36 26 119 -115 -31 42 79 49 -31 42 79 49 -31 42 79 49 -31 42 79 49 
-23 -112 55 51 -23 -112 55 51 -23 -112 55 51 -23 -112 55 51 -78 119 5 48 -78 119 5 48 -78 119 5 48 -78 119 5 48 
52 -99 79 79 52 -99 79 79 52 -99 79 79 52 -99 79 79 19 61 59 -43 19 61 59 -43 19 61 59 -43 19 61 59 -43 
-18 22 -51 77 -18 22 -51 77 -18 22 -51 77 -18 22 -51 77 -93 67 -127 94 -93 67 -127 94 -93 67 -127 94 -93 67 -127 94 
-23 54 52 55 -23 54 52 55 -23 54 52 55 -23 54 52 55 -120 -1 -124 -109 -120 -1 -124 -109 -120 -1 -124 -109 -120 -1 -124 -109 
33 26 -2 -42 33 26 -2 -42 33 26 -2 -42 33 26 -2 -42 117 28 -126 36 117 28 -126 36 117 28 -126 36 117 28 -126 36 
-19 -102 -51 69 -19 -102 -51 69 -19 -102 -51 69 -19 -102 -51 69 -20 -14 -2 33 -20 -14 -2 33 -20 -14 -2 33 -20 -14 -2 33 
-4 -118 1 85 -4 -118 1 85 -4 -118 1 85 -4 -118 1 85 1 -20 79 48 1 -20 79 48 1 -20 79 48 1 -20 79 48 
29 103 55 13 29 103 55 13 29 103 55 13 29 103 55 13 71 -124 -55 23 71 -124 -55 23 71 -124 -55 23 71 -124 -55 23 
77 -32 127 100 77 -32 127 100 77 -32 127 100 77 -32 127 100 -37 121 111 -62 -37 121 111 -62 -37 121 111 -62 -37 121 111 -62 
57 -33 -105 16 57 -33 -105 16 57 -33 -105 16 57 -33 -105 16 42 -110 112 -75 42 -110 112 -75 42 -110 112 -75 42 -110 112 -75 
39 51 93 116 39 51 93 116 39 51 93 116 39 51 93 116 -88 -12 50 -10 -88 -12 50 -10 -88 -12 50 -10 -88 -12 50 -10 
-127 96 -95 61 -127 96 -95 61 -127 96 -95 61 -127 96 -95 61 1 109 119 120 1 109 119 120 1 109 119 120 1 109 119 120 
99 -24 -91 -96 99 -24 -91 -96 99 -24 -91 -96 99 -24 -91 -96 28 33 -85 27 28 33 -85 27 28 33 -85 27 28 33 -85 27 
-70 -45 -16 -16 -70 -45 -16 -16 -70 -45 -16 -16 -70 -45 -16 -16 -105 -123 1 121 -105 -123 1 121 -105 -123 1 121 -105 -123 1 121 
-106 89 108 61 -106 89 108 61 -106 89 108 61 -106 89 108 61 117 59 -56 -45 117 59 -56 -45 117 59 -56 -45 117 59 -56 -45 
-82 85 -96 123 -82 85 -96 123 -82 85 -96 123 -82 85 -96 123 40 82 110 -20 40 82 110 -20 40 82 110 -20 40 82 110 -20 
-23 -56 -70 120 -23 -56 -70 120 -23 -56 -70 120 -23 -56 -70 120 24 -108 -72 -3 24 -108 -72 -3 24 -108 -72 -3 24 -108 -72 -3 
100 21 -27 0 100 21 -27 0 100 21 -27 0 100 21 -27 0 -31 52 62 -76 -31 52 62 -76 -31 52 62 -76 -31 52 62 -76 
9 51 37 -70 9 51 37 -70 9 51 37 -70 9 51 37 -70 38 -41 -3 -4 38 -41 -3 -4 38 -41 -3 -4 38 -41 -3 -4 
-103 -118 -58 59 -103 -118 -58 59 -103 -118 -58 59 -103 -118 -58 59 124 -87 -89 -108 124 -87 -89 -108 124 -87 -89 -108 124 -87 -89 -108 
-18 20 21 123 -18 20 21 123 -18 20 21 123 -18 20 21 123 -101 104 60 39 -101 104 60 39 -101 104 60 39 -101 104 60 39 
106 -30 -80 -4 106 -30 -80 -4 106 -30 -80 -4 106 -30 -80 -4 -17 5 81 -47 -17 5 81 -47 -17 5 81 -47 -17 5 81 -47 
29 -103 -109 -115 29 -103 -109 -115 29 -103 -109 -115 29 -103 -109 -115 -118 -29 -54 -77 -118 -29 -54 -77 -118 -29 -54 -77 -118 -29 -54 -77 
-122 127 76 -49 -122 127 76 -49 -122 127 76 -49 -122 127 76 -49 111 19 100 -81 111 19 100 -81 111 19 100 -81 111 19 100 -81 
19 -41 -77 31 19 -41 -77 31 19 -41 -77 31 19 -41 -77 31 43 28 24 119 43 28 24 119 43 28 24 119 43 28 24 119 
-67 66 -42 -112 -67 66 -42 -112 -67 66 -42 -112 -67 66 -42 -112 120 22 21 25 120 22 21 25 120 22 21 25 120 22 21 25 
103 -115 114 22 103 -115 114 22 103 -115 114 22 103 -115 114 22 -76 93 -16 -121 -76 93 -16 -121 -76 93 -16 -121 -76 93 -16 -121 
-127 8 -95 -57 -127 8 -95 -57 -127 8 -95 -57 -127 8 -95 -57 94 5 -44 -124 94 5 -44 -124 94 5 -44 -124 94 5 -44 -124 
-38 -4 -90 -87 -38 -4 -90 -87 -38 -4 -90 -87 -38 -4 -90 -87 72 -92 119 -7 72 -92 119 -7 72 -92 119 -7 72 -92 119 -7 
127 124 106 119 127 124 106 119 127 124 106 119 127 124 106 119 106 127 93 -98 106 127 93 -98 106 127 93 -98 106 127 93 -98 
-106 123 76 -53 -106 123 76 -53 -106 123 76 -53 -106 123 76 -53 111 -114 -90 61 111 -114 -90 61 111 -114 -90 61 111 -114 -90 61 
55 126 -115 -92 55 126 -115 -92 55 126 -115 -92 55 126 -115 -92 -71 -14 65 54 -71 -14 65 54 -71 -14 65 54 -71 -14 65 54 
-15 92 -127 16 -15 92 -127 16 -15 92 -127 16 -15 92 -127 16 90 102 77 -119 90 102 77 -119 90 102 77 -119 90 102 77 -119 
-14 -47 -38 -4 -14 -47 -38 -4 -14 -47 -38 -4 -14 -47 -38 -4 94 21 85 -92 94 21 85 -92 94 21 85 -92 94 21 85 -92 
-83 59 127 -67 -83 59 127 -67 -83 59 127 -67 -83 59 127 -67 -80 -88 -56 75 -80 -88 -56 75 -80 -88 -56 75 -80 -88 -56 75 
-2 27 -127 18 -2 27 -127 18 -2 27 -127 18 -2 27 -127 18 3 74 120 92 3 74 120 92 3 74 120 92 3 74 120 92 
-67 -66 127 17 -67 -66 127 17 -67 -66 127 17 -67 -66 127 17 -52 84 -98 -77 -52 84 -98 -77 -52 84 -98 -77 -52 84 -98 -77 
-100 13 -61 110 -100 13 -61 110 -100 13 -61 110 -100 13 -61 110 -45 35 -107 -34 -45 35 -107 -34 -45 35 -107 -34 -45 35 -107 -34 
-75 42 91 -105 -75 42 91 -105 -75 42 91 -105 -75 42 91 -105 -12 69 51 -127 -12 69 51 -127 -12 69 51 -127 -12 69 51 -127 
30 -127 -102 64 30 -127 -102 64 30 -127 -102 64 30 -127 -102 64 -53 -123 17 -124 -53 -123 17 -124 -53 -123 17 -124 -53 -123 17 -124 
120 -28 -97 -29 120 -28 -97 -29 120 -28 -97 -29 120 -28 -97 -29 22 31 -88 -111 22 31 -88 -111 22 31 -88 -111 22 31 -88 -111 
126 -75 25 64 126 -75 25 64 126 -75 25 64 126 -75 25 64 -123 -67 -35 -118 -123 -67 -35 -118 -123 -67 -35 -118 -123 -67 -35 -118 
-23 89 110 -103 -23 89 110 -103 -23 89 110 -103 -23 89 110 -103 -96 -49 -107 121 -96 -49 -107 121 -96 -49 -107 121 -96 -49 -107 121 
71 -126 122 -65 71 -126 122 -65 71 -126 122 -65 71 -126 122 -65 -5 127 -24 -119 -5 127 -24 -119 -5 127 -24 -119 -5 127 -24 -119 
40 -41 76 -41 40 -41 76 -41 40 -41 76 -41 40 -41 76 -41 -41 -4 -32 -45 -41 -4 -32 -45 -41 -4 -32 -45 -41 -4 -32 -45 
5 55 104 -2 5 55 104 -2 5 55 104 -2 5 55 104 -2 -92 127 -57 13 -92 127 -57 13 -92 127 -57 13 -92 127 -57 13 
100 -125 49 -127 100 -125 49 -127 100 -125 49 -127 100 -125 49 -127 42 93 14 119 42 93 14 119 42 93 14 119 42 93 14 119 
94 126 -119 -77 94 126 -119 -77 94 126 -119 -77 94 126 -119 -77 64 2 -65 -93 64 2 -65 -93 64 2 -65 -93 64 2 -65 -93 
78 25 109 33 78 25 109 33 78 25 109 33 78 25 109 33 -53 -104 97 -113 -53 -104 97 -113 -53 -104 97 -113 -53 -104 97 -113 
63 10 105 -34 63 10 105 -34 63 10 105 -34 63 10 105 -34 27 48 4 118 27 48 4 118 27 48 4 118 27 48 4 118 
-127 -57 83 77 -127 -57 83 77 -127 -57 83 77 -127 -57 83 77 64 -108 15 89 64 -108 15 89 64 -108 15 89 64 -108 15 89 
-80 109 112 43 -80 109 112 43 -80 109 112 43 -80 109 112 43 82 19 -112 -24 82 19 -112 -24 82 19 -112 -24 82 19 -112 -24 
17 96 94 57 17 96 94 57 17 96 94 57 17 96 94 57 127 121 98 77 127 121 98 77 127 121 98 77 127 121 98 77 
-88 59 -106 -18 -88 59 -106 -18 -88 59 -106 -18 -88 59 -106 -18 -82 58 35 -127 -82 58 35 -127 -82 58 35 -127 -82 58 35 -127 
-24 98 -9 -127 -24 98 -9 -127 -24 98 -9 -127 -24 98 -9 -127 -102 75 -36 -71 -102 75 -36 -71 -102 75 -36 -71 -102 75 -36 -71 
-110 -29 -64 113 -110 -29 -64 113 -110 -29 -64 113 -110 -29 -64 113 116 -63 67 -127 116 -63 67 -127 116 -63 67 -127 116 -63 67 -127 
98 -3 123 -104 98 -3 123 -104 98 -3 123 -104 98 -3 123 -104 100 106 -124 26 100 106 -124 26 100 106 -124 26 100 106 -124 26 
116 -107 1 -112 116 -107 1 -112 116 -107 1 -112 116 -107 1 -112 -87 10 -87 -36 -87 10 -87 -36 -87 10 -87 -36 -87 10 -87 -36 
-95 127 -4 35 -95 127 -4 35 -95 127 -4 35 -95 127 -4 35 74 127 99 79 74 127 99 79 74 127 99 79 74 127 99 79 
-127 -57 53 127 -127 -57 53 127 -127 -57 53 127 -127 -57 53 127 -120 116 91 -81 -120 116 91 -81 -120 116 91 -81 -120 116 91 -81 
18 -19 -125 121 18 -19 -125 121 18 -19 -125 121 18 -19 -125 121 58 1 -24 -4 58 1 -24 -4 58 1 -24 -4 58 1 -24 -4 
123 94 27 103 123 94 27 103 123 94 27 103 123 94 27 103 -67 84 9 -92 -67 84 9 -92 -67 84 9 -92 -67 84 9 -92 
87 -88 -70 -33 87 -88 -70 -33 87 -88 -70 -33 87 -88 -70 -33 49 -97 51 -115 49 -97 51 -115 49 -97 51 -115 49 -97 51 -115 
-121 31 -28 50 -121 31 -28 50 -121 31 -28 50 -121 31 -28 50 -127 -118 -29 -107 -127 -118 -29 -107 -127 -118 -29 -107 -127 -118 -29 -107 
-37 33 42 24 -37 33 42 24 -37 33 42 24 -37 33 42 24 116 26 -44 116 116 26 -44 116 116 26 -44 116 116 26 -44 116 
-127 101 -101 -41 -127 101 -101 -41 -127 101 -101 -41 -127 101 -101 -41 -73 -5 49 101 -73 -5 49 101 -73 -5 49 101 -73 -5 49 101 
119 29 107 99 119 29 107 99 119 29 107 99 119 29 107 99 -6 -17 55 -115 -6 -17 55 -115 -6 -17 55 -115 -6 -17 55 -115 
3 111 14 -1 3 111 14 -1 3 111 14 -1 3 111 14 -1 26 126 104 -53 26 126 104 -53 26 126 104 -53 26 126 104 -53 
-34 -64 40 103 -34 -64 40 103 -34 -64 40 103 -34 -64 40 103 83 -92 70 105 83 -92 70 105 83 -92 70 105 83 -92 70 105 
-12 6 41 -67 -12 6 41 -67 -12 6 41 -67 -12 6 41 -67 -127 -106 102 -96 -127 -106 102 -96 -127 -106 102 -96 -127 -106 102 -96 
-13 25 -29 94 -13 25 -29 94 -13 25 -29 94 -13 25 -29 94 19 -44 -20 47 19 -44 -20 47 19 -44 -20 47 19 -44 -20 47 
121 87 -13 -77 121 87 -13 -77 121 87 -13 -77 121 87 -13 -77 -97 34 48 100 -97 34 48 100 -97 34 48 100 -97 34 48 100 
126 126 -69 109 126 126 -69 109 126 126 -69 109 126 126 -69 109 -116 127 106 -3 -116 127 106 -3 -116 127 106 -3 -116 127 106 -3 
-104 25 -98 93 -104 25 -98 93 -104 25 -98 93 -104 25 -98 93 -21 78 112 -118 -21 78 112 -118 -21 78 112 -118 -21 78 112 -118 
-31 56 65 127 -31 56 65 127 -31 56 65 127 -31 56 65 127 -55 -80 -49 -12 -55 -80 -49 -12 -55 -80 -49 -12 -55 -80 -49 -12 
-38 -34 41 -64 -38 -34 41 -64 -38 -34 41 -64 -38 -34 41 -64 -102 -39 -81 -39 -102 -39 -81 -39 -102 -39 -81 -39 -102 -39 -81 -39 
-67 95 -127 -60 -67 95 -127 -60 -67 95 -127 -60 -67 95 -127 -60 -127 -62 -125 104 -127 -62 -125 104 -127 -62 -125 104 -127 -62 -125 104 
-37 -18 -77 -16 -37 -18 -77 -16 -37 -18 -77 -16 -37 -18 -77 -16 -106 6 -61 -105 -106 6 -61 -105 -106 6 -61 -105 -106 6 -61 -105 
-16 -108 36 83 -16 -108 36 83 -16 -108 36 83 -16 -108 36 83 93 -82 -22 -2 93 -82 -22 -2 93 -82 -22 -2 93 -82 -22 -2 
-104 -127 71 79 -104 -127 71 79 -104 -127 71 79 -104 -127 71 79 -5 119 -114 -124 -5 119 -114 -124 -5 119 -114 -124 -5 119 -114 -124 
-94 23 0 -94 -94 23 0 -94 -94 23 0 -94 -94 23 0 -94 120 -81 30 28 120 -81 30 28 120 -81 30 28 120 -81 30 28 
82 -92 16 0 82 -92 16 0 82 -92 16 0 82 -92 16 0 42 14 80 -79 42 14 80 -79 42 14 80 -79 42 14 80 -79 
88 -32 39 -68 88 -32 39 -68 88 -32 39 -68 88 -32 39 -68 67 -18 -114 -68 67 -18 -114 -68 67 -18 -114 -68 67 -18 -114 -68 
-63 46 -30 -38 -63 46 -30 -38 -63 46 -30 -38 -63 46 -30 -38 72 110 -114 52 72 110 -114 52 72 110 -114 52 72 110 -114 52 
87 -97 -88 55 87 -97 -88 55 87 -97 -88 55 87 -97 -88 55 53 -72 -99 -18 53 -72 -99 -18 53 -72 -99 -18 53 -72 -99 -18 
15 99 63 -37 15 99 63 -37 15 99 63 -37 15 99 63 -37 -100 127 52 9 -100 127 52 9 -100 127 52 9 -100 127 52 9 
-90 -74 54 72 -90 -74 54 72 -90 -74 54 72 -90 -74 54 72 125 -29 79 49 125 -29 79 49 125 -29 79 49 125 -29 79 49 
-124 -109 25 -107 -124 -109 25 -107 -124 -109 25 -107 -124 -109 25 -107 -96 55 117 -127 -96 55 117 -127 -96 55 117 -127 -96 55 117 -127 
-20 -74 86 -104 -20 -74 86 -104 -20 -74 86 -104 -20 -74 86 -104 -57 -78 30 -86 -57 -78 30 -86 -57 -78 30 -86 -57 -78 30 -86 
31 78 -74 50 31 78 -74 50 31 78 -74 50 31 78 -74 50 -93 9 -80 79 -93 9 -80 79 -93 9 -80 79 -93 9 -80 79 
-24 102 72 52 -24 102 72 52 -24 102 72 52 -24 102 72 52 127 -113 89 8 127 -113 89 8 127 -113 89 8 127 -113 89 8 
78 -71 123 -123 78 -71 123 -123 78 -71 123 -123 78 -71 123 -123 110 -10 84 -47 110 -10 84 -47 110 -10 84 -47 110 -10 84 -47 
-62 117 89 127 -62 117 89 127 -62 117 89 127 -62 117 89 127 -82 91 -107 -67 -82 91 -107 -67 -82 91 -107 -67 -82 91 -107 -67 
-32 -78 -64 23 -32 -78 -64 23 -32 -78 -64 23 -32 -78 -64 23 -90 -58 -25 19 -90 -58 -25 19 -90 -58 -25 19 -90 -58 -25 19 
-89 -121 99 -37 -89 -121 99 -37 -89 -121 99 -37 -89 -121 99 -37 -97 -23 42 61 -97 -23 42 61 -97 -23 42 61 -97 -23 42 61 
-36 -73 -111 -119 -36 -73 -111 -119 -36 -73 -111 -119 -36 -73 -111 -119 124 -24 91 57 124 -24 91 57 124 -24 91 57 124 -24 91 57 
-44 91 30 127 -44 91 30 127 -44 91 30 127 -44 91 30 127 50 -53 98 -90 50 -53 98 -90 50 -53 98 -90 50 -53 98 -90 
-103 46 -2 -97 -103 46 -2 -97 -103 46 -2 -97 -103 46 -2 -97 -82 10 36 34 -82 10 36 34 -82 10 36 34 -82 10 36 34 
76 -110 4 101 76 -110 4 101 76 -110 4 101 76 -110 4 101 125 -59 50 -123 125 -59 50 -123 125 -59 50 -123 125 -59 50 -123 
79 -115 -53 106 79 -115 -53 106 79 -115 -53 106 79 -115 -53 106 73 18 -47 -59 73 18 -47 -59 73 18 -47 -59 73 18 -47 -59 
30 48 29 5 30 48 29 5 30 48 29 5 30 48 29 5 58 86 110 -10 58 86 110 -10 58 86 110 -10 58 86 110 -10 
55 -63 -56 100 55 -63 -56 100 55 -63 -56 100 55 -63 -56 100 127 -48 -113 -116 127 -48 -113 -116 127 -48 -113 -116 127 -48 -113 -116 
2 -65 -127 -27 2 -65 -127 -27 2 -65 -127 -27 2 -65 -127 -27 86 82 -53 -51 86 82 -53 -51 86 82 -53 -51 86 82 -53 -51 
60 9 34 -36 60 9 34 -36 60 9 34 -36 60 9 34 -36 -71 -2 21 -73 -71 -2 21 -73 -71 -2 21 -73 -71 -2 21 -73 
98 93 98 61 98 93 98 61 98 93 98 61 98 93 98 61 -35 -106 17 -83 -35 -106 17 -83 -35 -106 17 -83 -35 -106 17 -83 
28 -124 15 72 28 -124 15 72 28 -124 15 72 28 -124 15 72 65 -115 127 -127 65 -115 127 -127 65 -115 127 -127 65 -115 127 -127 
110 9 -56 80 110 9 -56 80 110 9 -56 80 110 9 -56 80 -38 109 -40 -33 -38 109 -40 -33 -38 109 -40 -33 -38 109 -40 -33 
-3 66 -76 69 -3 66 -76 69 -3 66 -76 69 -3 66 -76 69 26 -82 44 -84 26 -82 44 -84 26 -82 44 -84 26 -82 44 -84 
123 -121 -5 100 123 -121 -5 100 123 -121 -5 100 123 -121 -5 100 -33 -89 97 -16 -33 -89 97 -16 -33 -89 97 -16 -33 -89 97 -16 
-3 88 57 16 -3 88 57 16 -3 88 57 16 -3 88 57 16 86 125 -43 120 86 125 -43 120 86 125 -43 120 86 125 -43 120 
123 -82 -26 -17 123 -82 -26 -17 123 -82 -26 -17 123 -82 -26 -17 -4 117 101 -64 -4 117 101 -64 -4 117 101 -64 -4 117 101 -64 
81 -127 119 -49 81 -127 119 -49 81 -127 119 -49 81 -127 119 -49 -11 -9 -73 -44 -11 -9 -73 -44 -11 -9 -73 -44 -11 -9 -73 -44 
-12 -45 -120 -127 -12 -45 -120 -127 -12 -45 -120 -127 -12 -45 -120 -127 91 84 -75 -110 91 84 -75 -110 91 84 -75 -110 91 84 -75 -110 
-64 111 -126 -61 -64 111 -126 -61 -64 111 -126 -61 -64 111 -126 -61 8 84 -122 7 8 84 -122 7 8 84 -122 7 8 84 -122 7 
-97 -27 -20 -46 -97 -27 -20 -46 -97 -27 -20 -46 -97 -27 -20 -46 -92 -48 -29 17 -92 -48 -29 17 -92 -48 -29 17 -92 -48 -29 17 
78 64 -117 -71 78 64 -117 -71 78 64 -117 -71 78 64 -117 -71 90 21 -83 127 90 21 -83 127 90 21 -83 127 90 21 -83 127 
-55 -57 -106 109 -55 -57 -106 109 -55 -57 -106 109 -55 -57 -106 109 -36 -5 12 -9 -36 -5 12 -9 -36 -5 12 -9 -36 -5 12 -9 
-27 -110 -7 38 -27 -110 -7 38 -27 -110 -7 38 -27 -110 -7 38 -13 -29 114 51 -13 -29 114 51 -13 -29 114 51 -13 -29 114 51 
17 -14 116 -94 17 -14 116 -94 17 -14 116 -94 17 -14 116 -94 127 68 17 -117 127 68 17 -117 127 68 17 -117 127 68 17 -117 
-1 40 -123 -114 -1 40 -123 -114 -1 40 -123 -114 -1 40 -123 -114 -106 77 -31 13 -106 77 -31 13 -106 77 -31 13 -106 77 -31 13 
24 85 -83 84 24 85 -83 84 24 85 -83 84 24 85 -83 84 -97 -7 44 95 -97 -7 44 95 -97 -7 44 95 -97 -7 44 95 
-103 -44 -52 -67 -103 -44 -52 -67 -103 -44 -52 -67 -103 -44 -52 -67 4 -10 71 -58 4 -10 71 -58 4 -10 71 -58 4 -10 71 -58 
107 72 -127 10 107 72 -127 10 107 72 -127 10 107 72 -127 10 -127 -118 57 34 -127 -118 57 34 -127 -118 57 34 -127 -118 57 34 
-106 112 -51 21 -106 112 -51 21 -106 112 -51 21 -106 112 -51 21 68 53 75 22 68 53 75 22 68 53 75 22 68 53 75 22 
83 -104 18 -88 83 -104 18 -88 83 -104 18 -88 83 -104 18 -88 35 -13 -98 -60 35 -13 -98 -60 35 -13 -98 -60 35 -13 -98 -60 
-125 29 -41 -87 -125 29 -41 -87 -125 29 -41 -87 -125 29 -41 -87 -42 22 21 -26 -42 22 21 -26 -42 22 21 -26 -42 22 21 -26 
8 16 -127 -64 8 16 -127 -64 8 16 -127 -64 8 16 -127 -64 86 50 -54 -14 86 50 -54 -14 86 50 -54 -14 86 50 -54 -14 
26 80 -127 7 26 80 -127 7 26 80 -127 7 26 80 -127 7 -70 56 -117 48 -70 56 -117 48 -70 56 -117 48 -70 56 -117 48 
-72 -19 25 116 -72 -19 25 116 -72 -19 25 116 -72 -19 25 116 -82 78 103 -13 -82 78 103 -13 -82 78 103 -13 -82 78 103 -13 
-110 39 -56 103 -110 39 -56 103 -110 39 -56 103 -110 39 -56 103 113 -42 -61 -106 113 -42 -61 -106 113 -42 -61 -106 113 -42 -61 -106 
-78 118 -19 19 -78 118 -19 19 -78 118 -19 19 -78 118 -19 19 67 99 -22 97 67 99 -22 97 67 99 -22 97 67 99 -22 97 
-50 127 125 15 -50 127 125 15 -50 127 125 15 -50 127 125 15 -118 56 -54 -66 -118 56 -54 -66 -118 56 -54 -66 -118 56 -54 -66 
-4 37 -81 -118 -4 37 -81 -118 -4 37 -81 -118 -4 37 -81 -118 -108 26 -86 -87 -108 26 -86 -87 -108 26 -86 -87 -108 26 -86 -87 
45 -71 -7 -53 45 -71 -7 -53 45 -71 -7 -53 45 -71 -7 -53 -37 24 -115 -94 -37 24 -115 -94 -37 24 -115 -94 -37 24 -115 -94 
115 -110 -7 39 115 -110 -7 39 115 -110 -7 39 115 -110 -7 39 86 35 117 -76 86 35 117 -76 86 35 117 -76 86 35 117 -76 
74 -119 -105 10 74 -119 -105 10 74 -119 -105 10 74 -119 -105 10 -35 -56 -31 127 -35 -56 -31 127 -35 -56 -31 127 -35 -56 -31 127 
48 116 44 -95 48 116 44 -95 48 116 44 -95 48 116 44 -95 127 -102 -105 -110 127 -102 -105 -110 127 -102 -105 -110 127 -102 -105 -110 
-110 42 -22 -113 -110 42 -22 -113 -110 42 -22 -113 -110 42 -22 -113 78 -74 127 -75 78 -74 127 -75 78 -74 127 -75 78 -74 127 -75 
-9 56 126 76 -9 56 126 76 -9 56 126 76 -9 56 126 76 14 -37 -57 -10 14 -37 -57 -10 14 -37 -57 -10 14 -37 -57 -10 
-40 16 10 42 -40 16 10 42 -40 16 10 42 -40 16 10 42 -13 -119 50 -97 -13 -119 50 -97 -13 -119 50 -97 -13 -119 50 -97 
-7 127 -112 -25 -7 127 -112 -25 -7 127 -112 -25 -7 127 -112 -25 103 -2 123 -102 103 -2 123 -102 103 -2 123 -102 103 -2 123 -102 
76 42 -106 -105 76 42 -106 -105 76 42 -106 -105 76 42 -106 -105 -84 94 -61 -28 -84 94 -61 -28 -84 94 -61 -28 -84 94 -61 -28 
-13 -96 -29 92 -13 -96 -29 92 -13 -96 -29 92 -13 -96 -29 92 -119 89 48 16 -119 89 48 16 -119 89 48 16 -119 89 48 16 
19 42 12 12 19 42 12 12 19 42 12 12 19 42 12 12 -106 -75 104 53 -106 -75 104 53 -106 -75 104 53 -106 -75 104 53 
108 -53 -20 -110 108 -53 -20 -110 108 -53 -20 -110 108 -53 -20 -110 -26 -60 122 -127 -26 -60 122 -127 -26 -60 122 -127 -26 -60 122 -127 
-24 86 -88 -112 -24 86 -88 -112 -24 86 -88 -112 -24 86 -88 -112 7 -23 -30 -57 7 -23 -30 -57 7 -23 -30 -57 7 -23 -30 -57 
-42 -127 31 76 -42 -127 31 76 -42 -127 31 76 -42 -127 31 76 75 -112 -90 39 75 -112 -90 39 75 -112 -90 39 75 -112 -90 39 
-125 -121 -120 -17 -125 -121 -120 -17 -125 -121 -120 -17 -125 -121 -120 -17 -47 -83 52 -47 -47 -83 52 -47 -47 -83 52 -47 -47 -83 52 -47 
-19 62 2 -96 -19 62 2 -96 -19 62 2 -96 -19 62 2 -96 -105 118 -77 -63 -105 118 -77 -63 -105 118 -77 -63 -105 118 -77 -63 
79 117 -37 65 79 117 -37 65 79 117 -37 65 79 117 -37 65 10 -87 48 -27 10 -87 48 -27 10 -87 48 -27 10 -87 48 -27 
11 -48 11 27 11 -48 11 27 11 -48 11 27 11 -48 11 27 -66 -92 -123 99 -66 -92 -123 99 -66 -92 -123 99 -66 -92 -123 99 
96 -71 83 34 96 -71 83 34 96 -71 83 34 96 -71 83 34 68 53 -1 -86 68 53 -1 -86 68 53 -1 -86 68 53 -1 -86 
-98 57 -25 -75 -98 57 -25 -75 -98 57 -25 -75 -98 57 -25 -75 104 -5 -51 -70 104 -5 -51 -70 104 -5 -51 -70 104 -5 -51 -70 
-65 -51 42 125 -65 -51 42 125 -65 -51 42 125 -65 -51 42 125 -71 -110 102 -11 -71 -110 102 -11 -71 -110 102 -11 -71 -110 102 -11 
2 12 -32 14 2 12 -32 14 2 12 -32 14 2 12 -32 14 71 -100 -109 -1 71 -100 -109 -1 71 -100 -109 -1 71 -100 -109 -1 
-10 -91 68 -82 -10 -91 68 -82 -10 -91 68 -82 -10 -91 68 -82 2 -125 -77 -78 2 -125 -77 -78 2 -125 -77 -78 2 -125 -77 -78 
-69 76 -126 -53 -69 76 -126 -53 -69 76 -126 -53 -69 76 -126 -53 -63 -45 -92 -67 -63 -45 -92 -67 -63 -45 -92 -67 -63 -45 -92 -67 
-8 127 -80 26 -8 127 -80 26 -8 127 -80 26 -8 127 -80 26 -79 -61 -7 -66 -79 -61 -7 -66 -79 -61 -7 -66 -79 -61 -7 -66 
20 35 49 100 20 35 49 100 20 35 49 100 20 35 49 100 -50 -2 -36 -29 -50 -2 -36 -29 -50 -2 -36 -29 -50 -2 -36 -29 
67 40 20 -102 67 40 20 -102 67 40 20 -102 67 40 20 -102 94 24 12 -127 94 24 12 -127 94 24 12 -127 94 24 12 -127 
20 -97 38 -3 20 -97 38 -3 20 -97 38 -3 20 -97 38 -3 -89 26 -55 31 -89 26 -55 31 -89 26 -55 31 -89 26 -55 31 
-126 14 -11 5 -126 14 -11 5 -126 14 -11 5 -126 14 -11 5 -127 -75 -24 27 -127 -75 -24 27 -127 -75 -24 27 -127 -75 -24 27 
48 -96 -49 63 48 -96 -49 63 48 -96 -49 63 48 -96 -49 63 -110 -46 -121 18 -110 -46 -121 18 -110 -46 -121 18 -110 -46 -121 18 
42 -80 89 -107 42 -80 89 -107 42 -80 89 -107 42 -80 89 -107 112 115 -58 59 112 115 -58 59 112 115 -58 59 112 115 -58 59 
-124 45 -93 73 -124 45 -93 73 -124 45 -93 73 -124 45 -93 73 -51 -48 10 62 -51 -48 10 62 -51 -48 10 62 -51 -48 10 62 
110 67 35 -70 110 67 35 -70 110 67 35 -70 110 67 35 -70 47 -94 35 -10 47 -94 35 -10 47 -94 35 -10 47 -94 35 -10 
105 -117 96 34 105 -117 96 34 105 -117 96 34 105 -117 96 34 -49 72 100 28 -49 72 100 28 -49 72 100 28 -49 72 100 28 
-119 83 -108 -10 -119 83 -108 -10 -119 83 -108 -10 -119 83 -108 -10 7 91 -28 50 7 91 -28 50 7 91 -28 50 7 91 -28 50 
-114 2 56 -65 -114 2 56 -65 -114 2 56 -65 -114 2 56 -65 122 -118 27 97 122 -118 27 97 122 -118 27 97 122 -118 27 97 
63 98 52 -15 63 98 52 -15 63 98 52 -15 63 98 52 -15 -71 18 -79 -70 -71 18 -79 -70 -71 18 -79 -70 -71 18 -79 -70 
-44 -57 -100 -61 -44 -57 -100 -61 -44 -57 -100 -61 -44 -57 -100 -61 -81 -106 -87 106 -81 -106 -87 106 -81 -106 -87 106 -81 -106 -87 106 
55 79 127 56 55 79 127 56 55 79 127 56 55 79 127 56 -10 -50 38 -63 -10 -50 38 -63 -10 -50 38 -63 -10 -50 38 -63 
-119 -93 -32 127 -119 -93 -32 127 -119 -93 -32 127 -119 -93 -32 127 -16 39 -89 -16 -16 39 -89 -16 -16 39 -89 -16 -16 39 -89 -16 
68 107 -123 92 68 107 -123 92 68 107 -123 92 68 107 -123 92 25 -42 53 -50 25 -42 53 -50 25 -42 53 -50 25 -42 53 -50 
42 91 90 34 42 91 90 34 42 91 90 34 42 91 90 34 22 -48 107 78 22 -48 107 78 22 -48 107 78 22 -48 107 78 
-115 -106 -1 -70 -115 -106 -1 -70 -115 -106 -1 -70 -115 -106 -1 -70 -29 -78 -18 123 -29 -78 -18 123 -29 -78 -18 123 -29 -78 -18 123 
-25 -17 -85 2 -25 -17 -85 2 -25 -17 -85 2 -25 -17 -85 2 -73 76 124 -116 -73 76 124 -116 -73 76 124 -116 -73 76 124 -116 
-26 107 27 -26 -26 107 27 -26 -26 107 27 -26 -26 107 27 -26 11 107 10 105 11 107 10 105 11 107 10 105 11 107 10 105 
127 83 -127 -127 127 83 -127 -127 127 83 -127 -127 127 83 -127 -127 124 4 63 -6 124 4 63 -6 124 4 63 -6 124 4 63 -6 
-40 -62 -91 -125 -40 -62 -91 -125 -40 -62 -91 -125 -40 -62 -91 -125 -95 73 -92 -11 -95 73 -92 -11 -95 73 -92 -11 -95 73 -92 -11 
35 -1 -26 -122 35 -1 -26 -122 35 -1 -26 -122 35 -1 -26 -122 -18 -26 -64 -98 -18 -26 -64 -98 -18 -26 -64 -98 -18 -26 -64 -98 
0 -118 -58 103 0 -118 -58 103 0 -118 -58 103 0 -118 -58 103 -89 126 32 94 -89 126 32 94 -89 126 32 94 -89 126 32 94 
-36 86 -113 34 -36 86 -113 34 -36 86 -113 34 -36 86 -113 34 71 15 -120 6 71 15 -120 6 71 15 -120 6 71 15 -120 6 
31 -21 127 48 31 -21 127 48 31 -21 127 48 31 -21 127 48 -68 2 3 73 -68 2 3 73 -68 2 3 73 -68 2 3 73 
100 -51 6 -28 100 -51 6 -28 100 -51 6 -28 100 -51 6 -28 -77 4 112 -102 -77 4 112 -102 -77 4 112 -102 -77 4 112 -102 
-127 122 38 -5 -127 122 38 -5 -127 122 38 -5 -127 122 38 -5 104 93 -20 47 104 93 -20 47 104 93 -20 47 104 93 -20 47 
20 51 -64 15 20 51 -64 15 20 51 -64 15 20 51 -64 15 -74 -63 83 -60 -74 -63 83 -60 -74 -63 83 -60 -74 -63 83 -60 
20 60 13 -7 20 60 13 -7 20 60 13 -7 20 60 13 -7 -44 23 26 -109 -44 23 26 -109 -44 23 26 -109 -44 23 26 -109 
-72 -68 -59 -78 -72 -68 -59 -78 -72 -68 -59 -78 -72 -68 -59 -78 127 -70 46 -55 127 -70 46 -55 127 -70 46 -55 127 -70 46 -55 
68 127 -37 -62 68 127 -37 -62 68 127 -37 -62 68 127 -37 -62 81 46 65 -127 81 46 65 -127 81 46 65 -127 81 46 65 -127 
65 113 40 -99 65 113 40 -99 65 113 40 -99 65 113 40 -99 97 29 -77 49 97 29 -77 49 97 29 -77 49 97 29 -77 49 
35 6 73 44 35 6 73 44 35 6 73 44 35 6 73 44 -12 28 51 -30 -12 28 51 -30 -12 28 51 -30 -12 28 51 -30 
-22 -23 -29 -83 -22 -23 -29 -83 -22 -23 -29 -83 -22 -23 -29 -83 113 -83 46 -15 113 -83 46 -15 113 -83 46 -15 113 -83 46 -15 
53 -123 25 -127 53 -123 25 -127 53 -123 25 -127 53 -123 25 -127 -16 -26 -84 24 -16 -26 -84 24 -16 -26 -84 24 -16 -26 -84 24 
-117 115 19 46 -117 115 19 46 -117 115 19 46 -117 115 19 46 -82 -44 -112 122 -82 -44 -112 122 -82 -44 -112 122 -82 -44 -112 122 
-41 112 57 22 -41 112 57 22 -41 112 57 22 -41 112 57 22 78 -119 -17 -105 78 -119 -17 -105 78 -119 -17 -105 78 -119 -17 -105 
-42 106 96 37 -42 106 96 37 -42 106 96 37 -42 106 96 37 19 59 122 -14 19 59 122 -14 19 59 122 -14 19 59 122 -14 
-40 100 40 -81 -40 100 40 -81 -40 100 40 -81 -40 100 40 -81 87 -72 127 10 87 -72 127 10 87 -72 127 10 87 -72 127 10 
-25 105 -127 81 -25 105 -127 81 -25 105 -127 81 -25 105 -127 81 86 -109 28 71 86 -109 28 71 86 -109 28 71 86 -109 28 71 
55 -70 83 -25 55 -70 83 -25 55 -70 83 -25 55 -70 83 -25 17 -113 17 125 17 -113 17 125 17 -113 17 125 17 -113 17 125 
-101 -76 66 -118 -101 -76 66 -118 -101 -76 66 -118 -101 -76 66 -118 80 -14 84 77 80 -14 84 77 80 -14 84 77 80 -14 84 77 
72 108 99 13 72 108 99 13 72 108 99 13 72 108 99 13 26 -110 101 -15 26 -110 101 -15 26 -110 101 -15 26 -110 101 -15 
-90 59 95 -96 -90 59 95 -96 -90 59 95 -96 -90 59 95 -96 -82 16 -127 -91 -82 16 -127 -91 -82 16 -127 -91 -82 16 -127 -91 
67 -24 46 13 67 -24 46 13 67 -24 46 13 67 -24 46 13 -32 -127 115 -15 -32 -127 115 -15 -32 -127 115 -15 -32 -127 115 -15 
72 -81 -127 -31 72 -81 -127 -31 72 -81 -127 -31 72 -81 -127 -31 -74 -80 -42 5 -74 -80 -42 5 -74 -80 -42 5 -74 -80 -42 5 
-74 -75 102 74 -74 -75 102 74 -74 -75 102 74 -74 -75 102 74 -77 -127 2 13 -77 -127 2 13 -77 -127 2 13 -77 -127 2 13 
126 101 -111 59 126 101 -111 59 126 101 -111 59 126 101 -111 59 -13 -62 -96 -21 -13 -62 -96 -21 -13 -62 -96 -21 -13 -62 -96 -21 
-125 -6 -112 -41 -125 -6 -112 -41 -125 -6 -112 -41 -125 -6 -112 -41 39 -32 -53 80 39 -32 -53 80 39 -32 -53 80 39 -32 -53 80 
107 -27 -89 -120 107 -27 -89 -120 107 -27 -89 -120 107 -27 -89 -120 -45 -40 -101 110 -45 -40 -101 110 -45 -40 -101 110 -45 -40 -101 110 
7 -86 98 -85 7 -86 98 -85 7 -86 98 -85 7 -86 98 -85 57 -65 87 66 57 -65 87 66 57 -65 87 66 57 -65 87 66 
-18 127 -111 -55 -18 127 -111 -55 -18 127 -111 -55 -18 127 -111 -55 92 9 -30 29 92 9 -30 29 92 9 -30 29 92 9 -30 29 
-49 -22 127 -64 -49 -22 127 -64 -49 -22 127 -64 -49 -22 127 -64 40 -94 -55 101 40 -94 -55 101 40 -94 -55 101 40 -94 -55 101 
84 -49 60 -37 84 -49 60 -37 84 -49 60 -37 84 -49 60 -37 -127 -100 -39 -127 -127 -100 -39 -127 -127 -100 -39 -127 -127 -100 -39 -127 
-68 26 -69 -63 -68 26 -69 -63 -68 26 -69 -63 -68 26 -69 -63 45 -98 42 -16 45 -98 42 -16 45 -98 42 -16 45 -98 42 -16 
-73 -88 -34 -28 -73 -88 -34 -28 -73 -88 -34 -28 -73 -88 -34 -28 -22 96 55 79 -22 96 55 79 -22 96 55 79 -22 96 55 79 
-57 3 -21 -43 -57 3 -21 -43 -57 3 -21 -43 -57 3 -21 -43 22 31 122 -97 22 31 122 -97 22 31 122 -97 22 31 122 -97 
-106 -16 -15 76 -106 -16 -15 76 -106 -16 -15 76 -106 -16 -15 76 71 5 -22 9 71 5 -22 9 71 5 -22 9 71 5 -22 9 
-127 111 127 34 -127 111 127 34 -127 111 127 34 -127 111 127 34 23 -85 -38 -61 23 -85 -38 -61 23 -85 -38 -61 23 -85 -38 -61 
114 67 -127 -124 114 67 -127 -124 114 67 -127 -124 114 67 -127 -124 63 29 27 77 63 29 27 77 63 29 27 77 63 29 27 77 
126 -62 -15 -113 126 -62 -15 -113 126 -62 -15 -113 126 -62 -15 -113 -55 79 118 -18 -55 79 118 -18 -55 79 118 -18 -55 79 118 -18 
57 12 58 -70 57 12 58 -70 57 12 58 -70 57 12 58 -70 118 -1 37 45 118 -1 37 45 118 -1 37 45 118 -1 37 45 
-125 1 -114 124 -125 1 -114 124 -125 1 -114 124 -125 1 -114 124 11 -42 127 -93 11 -42 127 -93 11 -42 127 -93 11 -42 127 -93 
59 -46 -60 -127 59 -46 -60 -127 59 -46 -60 -127 59 -46 -60 -127 -46 -65 27 -28 -46 -65 27 -28 -46 -65 27 -28 -46 -65 27 -28 
112 -80 -56 81 112 -80 -56 81 112 -80 -56 81 112 -80 -56 81 -16 -104 -35 32 -16 -104 -35 32 -16 -104 -35 32 -16 -104 -35 32 
39 -77 91 61 39 -77 91 61 39 -77 91 61 39 -77 91 61 -75 -76 -13 -69 -75 -76 -13 -69 -75 -76 -13 -69 -75 -76 -13 -69 
-1 50 -6 105 -1 50 -6 105 -1 50 -6 105 -1 50 -6 105 -23 111 -41 -62 -23 111 -41 -62 -23 111 -41 -62 -23 111 -41 -62 
-48 93 -84 85 -48 93 -84 85 -48 93 -84 85 -48 93 -84 85 121 49 73 87 121 49 73 87 121 49 73 87 121 49 73 87 
25 -74 -55 111 25 -74 -55 111 25 -74 -55 111 25 -74 -55 111 -106 60 -2 78 -106 60 -2 78 -106 60 -2 78 -106 60 -2 78 
19 91 -33 117 19 91 -33 117 19 91 -33 117 19 91 -33 117 -117 49 79 110 -117 49 79 110 -117 49 79 110 -117 49 79 110 
101 -46 -46 54 101 -46 -46 54 101 -46 -46 54 101 -46 -46 54 81 4 82 -28 81 4 82 -28 81 4 82 -28 81 4 82 -28 
-62 -114 -99 127 -62 -114 -99 127 -62 -114 -99 127 -62 -114 -99 127 -105 -43 116 104 -105 -43 116 104 -105 -43 116 104 -105 -43 116 104 
-119 127 -62 117 -119 127 -62 117 -119 127 -62 117 -119 127 -62 117 -34 10 -58 117 -34 10 -58 117 -34 10 -58 117 -34 10 -58 117 
46 122 40 -101 46 122 40 -101 46 122 40 -101 46 122 40 -101 -63 54 -65 -42 -63 54 -65 -42 -63 54 -65 -42 -63 54 -65 -42 
-41 42 -37 53 -41 42 -37 53 -41 42 -37 53 -41 42 -37 53 -4 121 15 -92 -4 121 15 -92 -4 121 15 -92 -4 121 15 -92 
64 -21 -116 -121 64 -21 -116 -121 64 -21 -116 -121 64 -21 -116 -121 -116 79 88 -115 -116 79 88 -115 -116 79 88 -115 -116 79 88 -115 
-91 37 -120 112 -91 37 -120 112 -91 37 -120 112 -91 37 -120 112 -88 70 -24 69 -88 70 -24 69 -88 70 -24 69 -88 70 -24 69 
-119 -105 106 82 -119 -105 106 82 -119 -105 106 82 -119 -105 106 82 62 -11 -31 -37 62 -11 -31 -37 62 -11 -31 -37 62 -11 -31 -37 
-118 114 33 -127 -118 114 33 -127 -118 114 33 -127 -118 114 33 -127 102 -76 -76 -104 102 -76 -76 -104 102 -76 -76 -104 102 -76 -76 -104 
25 -88 104 -35 25 -88 104 -35 25 -88 104 -35 25 -88 104 -35 30 38 -61 7 30 38 -61 7 30 38 -61 7 30 38 -61 7 
-20 -56 45 114 -20 -56 45 114 -20 -56 45 114 -20 -56 45 114 -22 15 124 -7 -22 15 124 -7 -22 15 124 -7 -22 15 124 -7 
37 12 -108 -29 37 12 -108 -29 37 12 -108 -29 37 12 -108 -29 -121 34 109 71 -121 34 109 71 -121 34 109 71 -121 34 109 71 
99 18 80 77 99 18 80 77 99 18 80 77 99 18 80 77 27 81 -124 -7 27 81 -124 -7 27 81 -124 -7 27 81 -124 -7 
79 -49 -87 -93 79 -49 -87 -93 79 -49 -87 -93 79 -49 -87 -93 17 59 60 -65 17 59 60 -65 17 59 60 -65 17 59 60 -65 
51 -127 -67 122 51 -127 -67 122 51 -127 -67 122 51 -127 -67 122 -48 -11 -29 76 -48 -11 -29 76 -48 -11 -29 76 -48 -11 -29 76 
-107 13 -111 -62 -107 13 -111 -62 -107 13 -111 -62 -107 13 -111 -62 -21 12 55 66 -21 12 55 66 -21 12 55 66 -21 12 55 66 
125 -110 23 23 125 -110 23 23 125 -110 23 23 125 -110 23 23 101 -54 -3 125 101 -54 -3 125 101 -54 -3 125 101 -54 -3 125 
-127 -72 -62 81 -127 -72 -62 81 -127 -72 -62 81 -127 -72 -62 81 73 66 27 23 73 66 27 23 73 66 27 23 73 66 27 23 
-122 21 -59 123 -122 21 -59 123 -122 21 -59 123 -122 21 -59 123 102 -89 71 57 102 -89 71 57 102 -89 71 57 102 -89 71 57 
-91 54 -85 127 -91 54 -85 127 -91 54 -85 127 -91 54 -85 127 77 -43 80 -100 77 -43 80 -100 77 -43 80 -100 77 -43 80 -100 
109 -114 90 0 109 -114 90 0 109 -114 90 0 109 -114 90 0 -47 -107 58 4 -47 -107 58 4 -47 -107 58 4 -47 -107 58 4 
-25 -82 -13 -15 -25 -82 -13 -15 -25 -82 -13 -15 -25 -82 -13 -15 11 -85 50 -37 11 -85 50 -37 11 -85 50 -37 11 -85 50 -37 
-51 32 -61 103 -51 32 -61 103 -51 32 -61 103 -51 32 -61 103 -86 76 55 89 -86 76 55 89 -86 76 55 89 -86 76 55 89 
48 51 -76 -94 48 51 -76 -94 48 51 -76 -94 48 51 -76 -94 75 68 72 104 75 68 72 104 75 68 72 104 75 68 72 104 
-10 79 -53 -122 -10 79 -53 -122 -10 79 -53 -122 -10 79 -53 -122 127 -105 127 -36 127 -105 127 -36 127 -105 127 -36 127 -105 127 -36 
52 -75 -9 46 52 -75 -9 46 52 -75 -9 46 52 -75 -9 46 35 -127 80 -87 35 -127 80 -87 35 -127 80 -87 35 -127 80 -87 
127 51 -112 -8 127 51 -112 -8 127 51 -112 -8 127 51 -112 -8 115 -88 -99 65 115 -88 -99 65 115 -88 -99 65 115 -88 -99 65 
-19 -57 -108 -101 -19 -57 -108 -101 -19 -57 -108 -101 -19 -57 -108 -101 28 115 34 97 28 115 34 97 28 115 34 97 28 115 34 97 
72 72 75 68 72 72 75 68 72 72 75 68 72 72 75 68 123 -127 78 35 123 -127 78 35 123 -127 78 35 123 -127 78 35 
4 -105 -110 33 4 -105 -110 33 4 -105 -110 33 4 -105 -110 33 -29 126 57 -4 -29 126 57 -4 -29 126 57 -4 -29 126 57 -4 
-78 61 67 2 -78 61 67 2 -78 61 67 2 -78 61 67 2 -26 -83 14 107 -26 -83 14 107 -26 -83 14 107 -26 -83 14 107 
-119 -113 104 61 -119 -113 104 61 -119 -113 104 61 -119 -113 104 61 101 -73 -56 -127 101 -73 -56 -127 101 -73 -56 -127 101 -73 -56 -127 
-116 -36 98 -7 -116 -36 98 -7 -116 -36 98 -7 -116 -36 98 -7 -29 83 -19 52 -29 83 -19 52 -29 83 -19 52 -29 83 -19 52 
-16 110 116 42 -16 110 116 42 -16 110 116 42 -16 110 116 42 110 -113 73 -51 110 -113 73 -51 110 -113 73 -51 110 -113 73 -51 
-81 127 40 45 -81 127 40 45 -81 127 40 45 -81 127 40 45 -98 62 -98 -90 -98 62 -98 -90 -98 62 -98 -90 -98 62 -98 -90 
127 -56 115 92 127 -56 115 92 127 -56 115 92 127 -56 115 92 78 -19 -79 17 78 -19 -79 17 78 -19 -79 17 78 -19 -79 17 
-25 102 -74 125 -25 102 -74 125 -25 102 -74 125 -25 102 -74 125 -76 -88 -2 64 -76 -88 -2 64 -76 -88 -2 64 -76 -88 -2 64 
-42 -73 -28 5 -42 -73 -28 5 -42 -73 -28 5 -42 -73 -28 5 120 -57 109 -124 120 -57 109 -124 120 -57 109 -124 120 -57 109 -124 
-37 -115 68 104 -37 -115 68 104 -37 -115 68 104 -37 -115 68 104 -71 127 52 -56 -71 127 52 -56 -71 127 52 -56 -71 127 52 -56 
-5 93 -126 56 -5 93 -126 56 -5 93 -126 56 -5 93 -126 56 -96 46 19 96 -96 46 19 96 -96 46 19 96 -96 46 19 96 
41 -42 -44 16 41 -42 -44 16 41 -42 -44 16 41 -42 -44 16 61 -82 115 -86 61 -82 115 -86 61 -82 115 -86 61 -82 115 -86 
-70 -56 2 -118 -70 -56 2 -118 -70 -56 2 -118 -70 -56 2 -118 42 -11 -61 -69 42 -11 -61 -69 42 -11 -61 -69 42 -11 -61 -69 
127 94 13 -6 127 94 13 -6 127 94 13 -6 127 94 13 -6 47 -7 -65 -127 47 -7 -65 -127 47 -7 -65 -127 47 -7 -65 -127 
-46 -123 -90 127 -46 -123 -90 127 -46 -123 -90 127 -46 -123 -90 127 -19 120 -64 -86 -19 120 -64 -86 -19 120 -64 -86 -19 120 -64 -86 
-51 24 62 -122 -51 24 62 -122 -51 24 62 -122 -51 24 62 -122 4 102 -23 66 4 102 -23 66 4 102 -23 66 4 102 -23 66 
-91 32 -49 -10 -91 32 -49 -10 -91 32 -49 -10 -91 32 -49 -10 -121 -116 2 15 -121 -116 2 15 -121 -116 2 15 -121 -116 2 15 
60 -122 118 -33 60 -122 118 -33 60 -122 118 -33 60 -122 118 -33 78 115 84 -43 78 115 84 -43 78 115 84 -43 78 115 84 -43 
77 -7 35 -6 77 -7 35 -6 77 -7 35 -6 77 -7 35 -6 -52 -127 14 92 -52 -127 14 92 -52 -127 14 92 -52 -127 14 92 
-52 25 -37 -124 -52 25 -37 -124 -52 25 -37 -124 -52 25 -37 -124 113 127 72 28 113 127 72 28 113 127 72 28 113 127 72 28 
7 -78 114 11 7 -78 114 11 7 -78 114 11 7 -78 114 11 -123 -49 -55 -92 -123 -49 -55 -92 -123 -49 -55 -92 -123 -49 -55 -92 
-32 109 48 8 -32 109 48 8 -32 109 48 8 -32 109 48 8 38 108 92 9 38 108 92 9 38 108 92 9 38 108 92 9 
-1 -115 -118 -127 -1 -115 -118 -127 -1 -115 -118 -127 -1 -115 -118 -127 -118 -21 -30 -120 -118 -21 -30 -120 -118 -21 -30 -120 -118 -21 -30 -120 
103 78 85 127 103 78 85 127 103 78 85 127 103 78 85 127 -105 12 -59 91 -105 12 -59 91 -105 12 -59 91 -105 12 -59 91 
37 -26 0 -7 37 -26 0 -7 37 -26 0 -7 37 -26 0 -7 81 80 45 15 81 80 45 15 81 80 45 15 81 80 45 15 
-2 88 7 -92 -2 88 7 -92 -2 88 7 -92 -2 88 7 -92 -78 -32 107 -63 -78 -32 107 -63 -78 -32 107 -63 -78 -32 107 -63 
125 85 -85 -66 125 85 -85 -66 125 85 -85 -66 125 85 -85 -66 -31 84 42 -67 -31 84 42 -67 -31 84 42 -67 -31 84 42 -67 
-120 22 101 0 -120 22 101 0 -120 22 101 0 -120 22 101 0 43 -20 -113 67 43 -20 -113 67 43 -20 -113 67 43 -20 -113 67 
14 80 -27 -109 14 80 -27 -109 14 80 -27 -109 14 80 -27 -109 71 80 36 -111 71 80 36 -111 71 80 36 -111 71 80 36 -111 
-42 97 -111 -62 -42 97 -111 -62 -42 97 -111 -62 -42 97 -111 -62 -8 -75 -92 2 -8 -75 -92 2 -8 -75 -92 2 -8 -75 -92 2 
94 116 -49 115 94 116 -49 115 94 116 -49 115 94 116 -49 115 24 9 -115 -85 24 9 -115 -85 24 9 -115 -85 24 9 -115 -85 
-120 37 -76 -37 -120 37 -76 -37 -120 37 -76 -37 -120 37 -76 -37 -73 -28 127 -115 -73 -28 127 -115 -73 -28 127 -115 -73 -28 127 -115 
21 81 -30 30 21 81 -30 30 21 81 -30 30 21 81 -30 30 101 -9 42 -68 101 -9 42 -68 101 -9 42 -68 101 -9 42 -68 
-122 -96 30 55 -122 -96 30 55 -122 -96 30 55 -122 -96 30 55 -93 124 -74 -38 -93 124 -74 -38 -93 124 -74 -38 -93 124 -74 -38 
113 -50 91 28 113 -50 91 28 113 -50 91 28 113 -50 91 28 65 52 -18 105 65 52 -18 105 65 52 -18 105 65 52 -18 105 
-31 82 15 92 -31 82 15 92 -31 82 15 92 -31 82 15 92 -49 -91 52 -13 -49 -91 52 -13 -49 -91 52 -13 -49 -91 52 -13 
-26 -46 88 -86 -26 -46 88 -86 -26 -46 88 -86 -26 -46 88 -86 -1 109 71 38 -1 109 71 38 -1 109 71 38 -1 109 71 38 
-31 -62 -7 91 -31 -62 -7 91 -31 -62 -7 91 -31 -62 -7 91 79 10 26 32 79 10 26 32 79 10 26 32 79 10 26 32 
-7 7 104 119 -7 7 104 119 -7 7 104 119 -7 7 104 119 25 -30 111 6 25 -30 111 6 25 -30 111 6 25 -30 111 6 
-104 -72 110 -2 -104 -72 110 -2 -104 -72 110 -2 -104 -72 110 -2 14 -105 84 -127 14 -105 84 -127 14 -105 84 -127 14 -105 84 -127 
-73 -85 -33 91 -73 -85 -33 91 -73 -85 -33 91 -73 -85 -33 91 -122 86 -119 61 -122 86 -119 61 -122 86 -119 61 -122 86 -119 61 
47 -29 -27 -84 47 -29 -27 -84 47 -29 -27 -84 47 -29 -27 -84 -78 -127 -72 8 -78 -127 -72 8 -78 -127 -72 8 -78 -127 -72 8 
-94 -15 -59 127 -94 -15 -59 127 -94 -15 -59 127 -94 -15 -59 127 116 2 115 -55 116 2 115 -55 116 2 115 -55 116 2 115 -55 
-63 -87 -50 112 -63 -87 -50 112 -63 -87 -50 112 -63 -87 -50 112 14 -104 63 21 14 -104 63 21 14 -104 63 21 14 -104 63 21 
20 -61 -30 91 20 -61 -30 91 20 -61 -30 91 20 -61 -30 91 -127 -87 10 0 -127 -87 10 0 -127 -87 10 0 -127 -87 10 0 
-80 -77 -117 58 -80 -77 -117 58 -80 -77 -117 58 -80 -77 -117 58 127 -65 49 100 127 -65 49 100 127 -65 49 100 127 -65 49 100 
46 68 27 2 46 68 27 2 46 68 27 2 46 68 27 2 25 24 31 11 25 24 31 11 25 24 31 11 25 24 31 11 
96 -53 -113 28 96 -53 -113 28 96 -53 -113 28 96 -53 -113 28 93 -84 124 124 93 -84 124 124 93 -84 124 124 93 -84 124 124 
56 47 -105 26 56 47 -105 26 56 47 -105 26 56 47 -105 26 -110 92 127 77 -110 92 127 77 -110 92 127 77 -110 92 127 77 
-67 111 -89 -115 -67 111 -89 -115 -67 111 -89 -115 -67 111 -89 -115 43 -9 79 -30 43 -9 79 -30 43 -9 79 -30 43 -9 79 -30 
-2 53 121 19 -2 53 121 19 -2 53 121 19 -2 53 121 19 -83 118 53 17 -83 118 53 17 -83 118 53 17 -83 118 53 17 
-84 -85 -8 -37 -84 -85 -8 -37 -84 -85 -8 -37 -84 -85 -8 -37 12 63 -121 59 12 63 -121 59 12 63 -121 59 12 63 -121 59 
-81 -127 -18 -41 -81 -127 -18 -41 -81 -127 -18 -41 -81 -127 -18 -41 -27 27 -123 37 -27 27 -123 37 -27 27 -123 37 -27 27 -123 37 
80 -90 -84 -5 80 -90 -84 -5 80 -90 -84 -5 80 -90 -84 -5 43 92 37 -102 43 92 37 -102 43 92 37 -102 43 92 37 -102 
97 -30 -19 81 97 -30 -19 81 97 -30 -19 81 97 -30 -19 81 -43 35 -33 124 -43 35 -33 124 -43 35 -33 124 -43 35 -33 124 
-32 90 -89 -43 -32 90 -89 -43 -32 90 -89 -43 -32 90 -89 -43 92 -101 92 -120 92 -101 92 -120 92 -101 92 -120 92 -101 92 -120 
45 -56 -91 -108 45 -56 -91 -108 45 -56 -91 -108 45 -56 -91 -108 6 45 125 12 6 45 125 12 6 45 125 12 6 45 125 12 
77 -68 49 75 77 -68 49 75 77 -68 49 75 77 -68 49 75 19 -71 -95 18 19 -71 -95 18 19 -71 -95 18 19 -71 -95 18 
-25 127 21 -77 -25 127 21 -77 -25 127 21 -77 -25 127 21 -77 -120 84 95 -72 -120 84 95 -72 -120 84 95 -72 -120 84 95 -72 
-19 18 -42 108 -19 18 -42 108 -19 18 -42 108 -19 18 -42 108 -107 -7 -62 -112 -107 -7 -62 -112 -107 -7 -62 -112 -107 -7 -62 -112 
-66 -51 5 99 -66 -51 5 99 -66 -51 5 99 -66 -51 5 99 -62 -46 51 -122 -62 -46 51 -122 -62 -46 51 -122 -62 -46 51 -122 
