-29 127 -127 -28 -82 -63 95 60 14 41 -10 -54 -103 83 127 -82 -67 9 112 56 80 12 -31 17 -21 -19 -69 -90 -118 -111 30 80 
39 -99 -96 58 -88 -88 -37 -44 42 -40 -121 106 100 -95 1 -61 123 4 46 104 55 -91 63 43 104 -82 -41 -18 -62 15 29 -12 
-17 33 59 -39 -70 60 -64 -12 -47 -52 -127 -36 119 110 -7 46 83 1 89 119 77 -4 35 52 34 -17 -16 -82 40 75 -22 -85 
-69 -114 72 -69 62 -11 -122 120 6 88 -34 77 123 -108 -107 -4 18 -123 37 41 94 64 -41 -110 50 110 -114 111 53 -43 27 -2 
56 64 -36 108 8 88 -21 116 -83 7 -106 50 -28 -95 -39 -49 -40 26 107 -37 -98 -13 110 -26 -112 -127 43 -19 -10 -9 49 -7 
1 8 54 -49 -86 -5 57 -34 54 -55 -28 8 -26 -119 91 -42 96 -20 95 -86 -60 110 -59 -127 -14 -5 -2 50 -106 21 -65 37 
31 -127 63 -126 105 -11 43 -32 35 114 23 -10 36 21 -18 106 36 -114 6 -97 127 -48 -37 -80 61 -101 -23 -36 -91 14 -34 -24 
-80 46 -58 57 7 17 101 -34 2 -77 34 -11 -26 12 -17 -22 113 94 92 126 107 68 -66 -107 41 -9 122 -23 88 16 32 53 
127 -3 -77 -82 -93 -58 -34 124 113 15 70 -27 75 -4 109 -12 61 -50 126 85 52 -2 -17 113 42 -7 41 -49 21 95 30 -34 
84 118 -127 110 50 52 19 -32 -110 -96 122 -89 -127 -53 22 -77 11 18 56 -45 82 -120 -35 37 -55 -1 -49 -86 -93 41 -96 -38 
-87 -51 -95 41 77 61 -33 88 -68 124 -101 -47 31 110 -110 -76 -101 49 -3 52 -6 -14 87 -70 71 -93 -15 -72 -61 44 -112 -28 
-29 -54 23 111 -18 127 -75 94 20 21 106 91 -105 -77 -57 31 117 -65 -57 -99 70 80 36 -71 -123 10 53 -83 56 -96 -35 -40 
65 47 -14 -120 -18 -42 72 39 82 -7 94 -27 -124 -123 33 -62 -94 -84 43 125 112 11 36 115 -62 -33 31 61 31 -64 94 127 
110 126 -52 86 126 -34 -77 -8 17 -118 -127 7 -127 110 -79 41 -7 -39 10 80 -42 -96 119 92 -31 62 65 -82 98 -3 -122 -6 
0 24 -35 -102 104 -41 -102 34 -126 -38 -88 83 -9 69 79 117 36 -69 -41 51 127 18 5 8 96 -9 -26 1 -74 -98 61 62 
13 -39 -87 80 42 -56 -68 -11 43 81 54 -6 21 -12 -105 -127 73 -64 122 70 81 120 -80 90 54 -3 -49 -54 -87 26 -77 11 
-88 -37 -71 57 -77 110 -39 122 41 -44 -61 -81 90 -42 79 127 -113 65 -34 99 -9 107 -57 110 27 -58 37 -56 -37 -92 9 126 
103 -127 -99 -23 6 113 -97 22 66 41 17 108 -104 -70 -53 -8 92 -59 -22 115 -127 99 70 -98 -76 87 127 91 111 -120 -40 -13 
127 -1 106 107 96 -107 -81 6 0 58 -11 -55 -54 9 43 54 125 -86 -100 78 -15 74 -21 0 -80 117 -4 -58 110 -12 114 -73 
114 80 83 -48 37 39 -113 115 -35 -31 -57 26 114 108 57 92 79 36 75 98 63 -9 -83 -36 -53 34 99 -64 -24 65 25 -63 
93 -85 125 -31 -102 -116 1 -35 -78 -35 18 23 13 57 -114 -25 -21 9 -21 113 28 116 47 37 -39 61 -56 51 -65 -96 -7 -44 
-16 113 121 98 -102 -90 84 -29 124 109 125 29 45 -24 99 105 -127 -42 112 -77 -33 -74 -118 87 120 4 58 -35 114 38 -74 -117 
54 -24 -100 22 52 55 71 -21 109 -75 4 12 27 -40 -23 -30 48 -63 70 -117 -42 -81 -98 -75 -25 -53 119 -59 -8 -105 79 14 
16 -51 -108 127 106 -106 30 78 -30 -127 76 -102 -4 33 -106 95 -118 121 15 -19 -43 -71 -33 -66 119 -39 -8 29 -55 -121 -83 -101 
-53 -114 97 101 73 9 -80 -106 101 -107 97 -2 -12 -120 -4 -69 72 10 -74 -10 10 54 -91 -127 91 -79 123 101 72 -127 7 -75 
118 -45 -38 44 -84 -9 45 63 -25 -4 -117 -109 80 -67 74 16 62 -121 89 13 81 -79 -85 -99 -45 44 114 65 -25 29 76 127 
-127 -6 -67 86 -113 -65 116 76 -61 -5 -5 -20 -31 100 109 115 -51 -122 -31 -37 115 88 21 79 -31 86 -76 17 -43 -122 86 126 
-83 87 2 -102 112 99 34 -18 -85 61 -4 -90 120 16 62 113 -121 -97 -44 -18 -13 59 -62 39 48 0 -17 -95 116 -67 -97 -43 
76 -109 -79 -117 -86 92 -81 -114 -36 59 16 -127 11 98 -62 -105 16 -94 127 85 -66 22 -105 93 -110 84 127 90 -109 73 76 33 
-51 -18 -46 -69 -84 109 -98 -71 -28 -106 25 -113 52 -31 -23 -83 108 -81 79 121 -21 -118 50 -32 107 -51 26 125 27 -70 79 79 
-84 124 38 86 27 -102 -127 44 -97 -127 43 123 -54 -69 -48 33 -61 76 44 116 105 -31 -46 112 -84 -113 -4 -52 71 89 65 -2 
40 -44 120 2 127 -82 -6 114 -103 -33 -35 23 -64 -24 -90 16 16 45 23 0 124 -92 -3 88 127 80 29 -112 78 90 -87 61 
127 98 47 -82 127 38 -22 -43 -122 -86 -92 96 -37 -28 -102 -21 29 127 -39 117 22 -68 -18 118 40 85 -79 4 68 81 87 -36 
94 -71 -105 -125 121 103 -5 -75 68 -122 -57 -23 15 32 -70 55 73 -85 -122 106 69 92 -34 -127 80 -27 31 -50 86 -119 -52 -28 
-29 -45 -2 -105 -42 -16 -28 -69 65 36 -82 57 30 5 127 18 -29 -78 -55 -59 127 -127 -8 -38 -114 64 47 -38 -44 -74 12 4 
8 -127 53 -37 55 120 63 -103 -28 -115 -97 -115 -29 -34 -42 94 -113 23 78 -81 -42 -113 101 16 40 4 -10 18 54 72 63 77 
1 60 93 -16 1 74 22 121 109 -127 39 -34 55 126 -88 -82 -39 -29 -30 -83 -77 81 -29 39 124 -87 -37 114 -35 70 -26 -33 
86 108 7 -121 73 101 -16 -21 73 -57 35 24 42 -39 74 14 31 -127 -66 77 4 -117 -43 55 47 27 67 77 116 -22 33 30 
34 52 61 59 -84 19 -85 -48 -2 64 10 -85 52 1 101 -11 -49 127 87 109 -53 -80 127 49 39 -93 -65 38 -57 17 -81 -55 
-106 -35 106 64 -79 114 -58 -46 -38 19 59 121 54 -28 28 82 -31 -63 -73 -127 -48 -7 -42 49 64 -30 71 -13 120 -20 -8 -86 
-59 35 34 46 71 75 -97 105 111 30 -87 -51 68 36 -68 9 62 -71 -71 59 -112 22 -83 107 -91 95 115 19 27 -94 -23 127 
103 46 98 -9 19 -74 -65 -81 -85 -65 15 -69 -127 107 -70 -45 62 -30 -7 57 -127 -58 -104 97 70 -86 127 -36 53 -89 127 56 
-5 -121 5 -116 -77 13 -7 -113 99 57 -4 -100 75 54 23 -57 2 -94 -82 124 21 1 49 103 -21 110 -90 -10 123 -43 -100 69 
-111 19 11 -109 -5 -12 116 -25 87 32 -109 34 55 -25 -46 80 32 -104 39 62 -46 -121 -87 -66 58 -110 -22 26 -70 127 12 -90 
-86 -23 -93 -49 -34 105 53 -4 -23 27 73 75 32 -102 46 -37 46 105 109 -26 -5 -30 18 125 -19 85 -11 95 -59 -39 63 116 
-105 -100 88 41 -123 -87 87 -29 -65 84 -96 -1 76 -53 -36 -102 114 74 68 -99 94 72 -97 56 -127 -37 61 -20 55 78 -21 -14 
89 -127 59 -51 108 -4 47 -29 -122 64 -78 46 -122 103 -55 -76 -117 119 36 56 36 21 71 119 -15 -91 107 -27 19 -109 127 54 
127 24 -90 -19 126 -127 92 -75 76 -127 -49 16 64 77 -13 108 74 60 -83 -43 -127 115 30 -51 35 53 -106 126 41 -56 91 94 
-41 -4 -40 -121 -30 110 -54 -102 55 86 -37 -55 40 -117 -2 -125 53 -6 18 -4 96 -17 20 -2 -106 23 87 87 -25 -95 40 121 
59 14 -42 1 -19 -81 -21 -72 -98 116 -12 77 58 -110 43 95 93 58 79 127 -102 -33 44 -3 -127 29 -61 -80 -88 72 18 37 
-96 32 71 -18 97 47 -127 63 -101 -27 31 -117 -123 -106 -58 -19 -96 -127 -22 115 -127 42 -127 -114 -127 -121 100 32 -93 114 -22 -15 
-76 32 51 -50 17 -81 -68 -1 124 35 -18 -61 -54 29 -76 -103 18 -127 -22 37 -109 37 127 -25 -43 -3 -44 126 -47 40 -12 -122 
-127 -94 31 67 104 19 -12 -15 86 -101 35 115 -59 119 -42 104 78 35 63 114 25 60 -71 -22 60 78 75 12 127 44 -109 127 
18 -25 -52 95 -29 -32 -44 13 47 40 121 57 -102 -68 -17 -122 -113 7 -1 -64 84 -56 67 24 61 -27 46 88 127 25 -22 -42 
13 37 91 -52 68 69 35 -22 40 110 62 122 25 104 49 104 32 -57 68 124 -59 89 -13 116 -13 67 115 55 -78 -56 -34 84 
-90 -127 -18 -127 -117 -67 -99 -29 -117 -78 -1 20 -65 79 -5 108 18 84 -70 -46 65 52 -37 -28 5 -102 75 36 -125 -60 34 -33 
113 -90 -21 89 -29 -26 75 -87 -54 -26 110 16 -56 -21 83 125 -107 6 -49 -115 -45 -68 24 33 -35 -42 -80 -9 -51 111 118 -71 
63 40 -85 33 10 24 -81 28 -109 -123 -51 -85 -91 -4 -82 -3 -100 45 64 -48 98 69 -82 -55 36 -96 126 77 20 -62 112 -94 
47 -118 85 80 16 123 -111 -3 97 76 127 -17 -127 119 -26 -54 -79 9 34 15 -60 -74 77 123 101 -19 83 106 97 -70 -8 3 
-2 -127 39 -21 19 -14 -23 89 109 -77 -38 112 -4 -103 107 -57 -12 -109 -20 117 50 -71 101 -18 -13 -92 -80 -125 123 -115 -17 70 
24 99 -89 -36 116 4 54 -103 58 4 -1 65 29 99 -67 108 -65 -8 -74 118 -33 -127 66 53 109 -104 122 -50 -67 101 58 -20 
-70 65 -3 -5 -49 -105 46 -13 -119 29 -89 -110 59 120 78 57 -37 -55 82 -74 -55 -127 -114 95 101 -126 22 -77 28 -23 107 -52 
-37 -51 107 -43 52 -118 15 24 -113 39 -27 -96 -78 -86 -46 125 -60 -60 110 -45 -75 21 27 -109 55 102 -31 12 -74 -98 -109 -66 
-15 -1 -11 40 -44 65 -70 -112 59 119 63 92 14 -22 -102 -126 -6 67 20 -72 10 -37 -33 -62 -5 16 -117 -25 -127 -46 91 94 
35 -61 5 0 -33 31 -6 -107 112 29 -108 125 -71 119 34 96 81 -31 38 5 116 -109 110 109 30 102 107 -96 32 25 -38 77 
43 -83 127 11 -92 62 -26 -4 -37 -34 19 55 -40 -29 -106 -69 -59 0 -29 87 -52 -75 -58 105 120 -7 95 -70 -23 127 -98 55 
127 75 21 -123 -39 124 126 83 87 6 94 110 101 -127 -127 103 57 7 -88 5 -117 115 -122 -79 57 81 5 -1 95 30 -20 39 
-55 -113 63 11 51 51 -31 123 102 -80 63 33 -95 73 13 95 -20 -14 -11 -72 -6 62 -15 -8 -13 100 -122 -52 -110 58 -106 -127 
-91 -118 -2 -88 104 -19 -124 -63 -48 17 101 -2 -116 90 70 -65 -97 22 26 -17 -21 -59 41 10 -121 60 -46 -126 38 -19 117 -105 
-60 16 124 71 -116 87 -57 20 23 87 59 115 -69 29 -15 10 17 -41 42 -9 74 -17 14 46 -70 -107 62 91 -18 103 55 -22 
103 -65 -70 107 93 13 122 117 25 79 95 -100 10 -115 108 -50 -16 23 -127 100 -125 107 -2 -118 56 45 51 60 -63 -52 41 117 
127 127 -101 -29 -67 71 66 59 -126 122 94 -112 -67 -65 124 117 -127 -22 -40 -49 -99 70 -54 -112 30 -112 -94 -85 14 -1 59 87 
51 82 94 -112 53 -114 83 -40 -102 -104 61 115 79 31 40 -124 -49 -127 1 -14 89 18 -62 37 -86 30 -10 -76 -120 44 -66 -81 
117 -102 -96 -24 -37 94 -13 45 49 34 2 121 106 96 46 -127 47 127 4 75 51 -114 87 -113 7 -110 -105 -69 -121 63 -124 127 
-6 -1 -44 -81 -8 -35 110 120 14 -47 -23 -36 127 -91 90 -41 127 -61 -3 74 96 127 77 90 -107 105 14 37 -73 -29 126 60 
87 -119 -10 77 -66 -123 116 75 -88 -62 118 -42 31 -127 54 51 62 123 11 -127 -45 77 10 -20 115 54 123 -40 -101 -78 -122 -88 
48 46 30 53 8 -101 -26 -22 -102 96 66 -71 -108 -55 -76 -53 81 14 126 -54 -72 -57 121 -85 69 126 55 50 73 118 -40 69 
89 39 -51 -70 -68 -93 -106 51 58 84 -73 41 -24 65 113 -13 -30 -125 -74 109 -18 -50 -122 75 25 -127 -114 -91 -87 -114 -1 -112 
-61 -58 -127 -40 -31 52 -98 -2 108 -64 -121 -97 62 -93 -49 -97 -19 105 125 47 4 87 63 90 127 11 -14 -71 -3 58 15 -69 
-17 93 0 3 -29 63 -7 114 44 62 96 -89 -38 -41 -43 -56 -115 127 88 -28 2 -109 124 -27 -49 -31 -5 115 -66 0 -102 -102 
33 84 95 54 -127 98 37 45 105 62 -22 10 -98 60 -13 -24 -42 -12 -6 -117 -95 -85 -72 61 -85 -127 19 -90 16 87 124 55 
4 74 70 -71 115 3 -87 -49 -2 17 -43 109 100 100 -71 -32 127 64 -122 125 -73 22 91 -59 104 -51 99 63 127 62 105 16 
-5 119 -58 -115 100 0 -13 89 71 47 5 68 -39 -66 -49 106 116 20 92 -100 -47 56 110 -57 42 56 22 18 12 51 47 -64 
-68 111 -98 103 103 -2 -88 -115 -41 -127 76 -106 22 18 62 91 -127 75 -105 -8 52 -21 29 49 -28 112 -50 110 -80 112 55 91 
8 -84 78 65 34 77 10 61 66 -37 -53 109 62 63 108 -33 127 88 33 52 -57 -127 -51 36 -75 89 -42 -43 119 -13 97 89 
45 31 107 -108 93 53 -73 -40 -11 46 -127 -94 16 -112 3 -30 41 0 -110 -118 87 21 -7 92 -21 56 2 31 90 22 -56 127 
0 127 -11 77 -56 -84 -64 93 75 -11 -43 -116 -7 82 -25 -90 -68 -1 60 126 110 76 -33 -36 66 -89 -59 -36 114 98 -74 -43 
-56 -25 112 101 8 -6 -37 110 -53 -8 -38 47 46 111 -86 -120 -44 -87 76 -121 -20 87 -108 117 -41 0 -65 25 116 -21 -97 -59 
22 -15 -26 -74 110 -115 -81 -84 6 80 -101 57 -35 -65 77 56 -51 102 89 13 -94 118 -22 -14 -4 -6 126 78 36 68 100 -15 
114 -10 47 79 -31 83 -127 15 23 -2 -15 -88 112 123 62 91 -37 14 -57 -105 -111 -81 -57 48 -54 83 89 63 11 -91 26 -2 
-5 31 77 18 -123 -17 -61 -80 59 34 55 -22 127 -36 -113 -38 -110 -1 -5 127 26 -124 -52 107 -127 127 -19 -52 79 70 -58 21 
59 -93 -5 -106 -91 42 -70 31 14 -21 -18 127 119 116 127 21 -49 -123 -17 27 48 56 63 -16 93 -96 61 81 -20 20 -107 -10 
-52 10 -39 -20 -57 -59 -66 5 -45 -22 6 -52 18 83 -5 -80 47 1 31 -75 -23 -123 -68 54 -10 60 -106 58 -23 -73 62 -77 
-48 -54 -31 93 108 51 -52 -47 -4 -90 -27 -53 -21 57 9 -127 118 116 35 -14 42 -47 46 21 11 -50 -25 -91 60 -127 23 59 
51 102 55 -105 85 51 55 -99 -78 65 -37 110 -11 127 93 53 80 11 24 -120 -102 -8 -68 117 -120 -127 -93 46 -92 -88 -57 116 
125 72 82 127 -127 5 -24 -66 55 -95 104 -57 17 -127 -75 109 -74 74 -86 -35 4 30 -127 -126 -11 -54 76 74 39 0 -80 -9 
-71 -73 60 74 77 125 -54 -54 -7 -5 49 -9 102 89 127 10 43 -69 -51 93 125 -16 -118 -76 119 -88 126 71 -4 -39 36 51 
47 -82 103 -103 -45 -100 -43 -38 14 -127 97 92 -24 -127 -34 49 15 -89 38 -70 57 -39 123 -93 114 47 -81 51 -112 18 -38 -64 
-4 127 -77 93 18 61 -66 -127 49 80 6 43 15 -52 90 -4 -10 -99 119 29 -112 -64 115 -77 -14 76 -75 -62 41 -48 -91 -49 
-119 -92 106 91 -79 -96 41 -70 -47 -78 79 -43 -103 124 -9 94 -114 -88 -73 -62 120 -123 41 47 -5 -74 119 -31 4 48 -58 -57 
113 60 -71 -6 96 14 -17 41 -3 -87 121 126 88 -107 25 -67 -60 -49 -110 -82 116 -109 -20 -12 70 79 -101 52 77 -43 -127 -127 
103 -40 -89 -8 -50 9 -8 1 70 -37 -105 3 -52 66 85 -19 -32 -80 122 -113 57 -87 -44 -119 61 87 -9 77 -75 -122 -101 55 
-127 -40 37 28 -56 -44 71 -75 -116 23 -30 -21 73 39 100 75 114 -6 -124 -89 16 16 -8 84 27 24 110 -45 -92 30 -64 8 
79 -16 -22 113 -47 -98 -16 -69 -127 16 108 102 -61 67 -38 -100 -112 65 -83 45 6 -87 77 -10 100 -89 -95 -14 33 20 72 68 
-18 33 -66 116 118 -95 -121 -65 65 -127 -41 -71 67 30 -27 94 4 96 99 -69 -122 9 -60 55 -113 77 -46 -65 127 -82 95 -55 
101 93 -105 74 8 -23 -10 -106 70 -40 -20 -105 39 -103 89 -99 -79 -107 4 -126 127 107 126 -109 -120 -35 -66 92 16 -117 20 -90 
-65 93 87 79 116 59 -11 60 -31 40 -69 -45 41 113 50 -85 -97 -79 43 -10 -100 8 -97 -58 -18 20 -8 18 50 84 -23 116 
83 -84 -115 -81 -38 -100 -110 13 -29 -90 -61 -64 -87 -127 91 -85 95 -124 -13 -84 -87 3 -59 16 111 -18 102 114 70 -57 -29 62 
98 -127 101 56 46 65 -30 -41 127 -38 -20 -29 47 -13 -66 -7 -19 -28 -14 83 66 34 -38 19 70 -23 -57 -105 11 -108 -29 89 
-111 54 73 47 -117 42 -114 -34 117 -82 40 89 -56 -26 -123 127 25 -20 -107 -23 -118 81 -66 101 -127 -88 124 -57 32 70 -41 -29 
-17 -114 -33 -48 3 -124 -11 52 65 -97 -21 -30 -74 -58 -3 14 -56 -102 -53 -85 -43 28 -25 121 111 -19 -93 98 -37 27 -4 -90 
-110 -42 -10 -91 25 -22 31 68 116 76 95 -114 118 97 -31 34 -12 -127 73 95 20 60 93 -58 73 18 -39 -45 38 93 -17 -28 
-118 -73 33 -56 12 -78 -82 59 -124 68 35 45 107 86 6 -113 88 -127 -42 -27 22 14 -20 93 -45 -97 83 32 59 120 66 -96 
73 92 44 -5 -41 115 63 -89 -127 -41 -125 -57 104 84 55 109 127 -87 -113 -74 123 48 56 -47 127 60 -118 -127 49 71 111 113 
-101 7 114 25 67 66 -55 -118 -85 111 -71 79 -97 -67 97 -18 56 -105 -127 -1 127 4 57 22 2 66 -44 -97 72 -43 -81 -90 
-55 15 26 89 -111 -98 -4 60 125 52 -110 -75 106 23 -9 82 -51 127 74 -6 -24 91 -45 94 -47 -16 11 -58 59 -3 44 107 
46 45 -41 102 76 -58 13 -91 62 -8 66 -119 -44 32 -4 51 27 -67 -50 -12 86 104 -60 88 -117 120 -76 -127 107 -45 -4 90 
-46 103 81 -90 85 -30 -27 127 127 30 127 67 69 122 -93 67 122 -115 127 -52 34 79 -2 -32 -107 -40 -34 102 -98 -23 -95 -78 
39 -16 -127 71 94 120 -41 71 -2 -19 21 53 126 -72 26 -32 34 -98 106 -20 73 42 -71 59 -127 120 33 86 -78 40 -81 59 
19 -113 92 -37 106 -12 127 2 93 51 -65 39 -98 -127 126 -90 114 71 122 55 -89 -108 34 -73 6 84 -7 -13 -25 112 111 39 
116 87 -107 -97 1 107 41 -88 -112 99 63 -103 -61 -123 -94 -117 -110 -33 17 -127 -116 -3 108 98 -3 30 -5 -119 -16 -102 -110 -90 
90 52 34 -57 -81 90 -59 -73 81 -78 -65 -127 85 -64 -127 -83 -35 113 -32 12 -127 71 -43 91 30 -127 22 -61 9 118 -101 -1 
23 -49 91 -12 94 59 -67 49 86 -19 -9 -122 18 -63 -14 -38 83 84 -14 -83 -46 -74 53 -20 -88 -5 -47 -108 64 -11 109 -82 
-9 -69 39 -121 76 126 -120 -126 -17 -53 -50 -38 112 -47 -3 -5 8 87 108 90 29 -127 -73 97 2 104 -91 123 2 -52 59 124 
13 61 -104 -31 40 -65 90 -69 42 67 91 -21 -23 35 127 34 -48 -77 86 -26 -11 100 91 87 63 91 -99 88 30 47 -36 -79 
48 -83 -27 -14 -8 -116 67 24 -116 -67 26 25 105 -70 57 111 -73 35 127 -122 83 37 88 25 -4 50 -127 98 -108 13 -44 -10 
-18 126 108 91 99 -111 -15 -33 -55 117 -81 -106 127 72 -5 44 -27 70 -126 -113 86 -35 -127 6 54 83 47 -77 12 58 3 36 
-74 -127 -37 -68 127 -53 -17 67 -118 127 -72 51 -56 -112 115 -127 -64 102 49 -56 -100 127 -57 -42 10 -75 -95 55 -116 95 48 -21 
81 92 -68 -23 -52 -124 -47 -96 -19 39 122 83 -66 93 -1 24 100 40 -10 78 -106 124 -97 -19 84 114 38 -122 -120 96 -19 114 
37 -122 -94 24 -26 -96 -15 30 -59 55 76 -2 -59 -120 61 -1 -42 114 96 -127 -90 78 -49 112 -110 -88 -50 59 107 127 26 -19 
111 -124 -85 119 -109 27 -34 102 -66 24 -85 -115 8 5 125 4 123 -122 -74 73 65 104 110 62 62 -80 97 -56 -48 125 25 -103 
99 115 110 -38 111 -53 5 -104 -90 17 -47 61 -124 -113 -10 -106 -120 -3 -78 -34 102 -126 86 83 -5 -120 -18 127 111 -100 127 84 
-95 3 15 111 95 99 -4 -127 -1 -37 -91 -21 -127 -123 127 -75 -23 -56 -84 -82 -3 113 98 26 -44 -54 83 -67 -67 49 -56 -127 
45 66 81 -92 52 -127 58 -21 -89 -12 -103 9 -45 -44 34 -36 70 125 -73 -112 -89 57 -19 -61 -101 -75 -101 112 104 -80 -47 -42 
-127 -67 -30 -19 123 2 96 115 88 116 53 -44 -52 118 -5 -62 -50 -112 -118 -9 41 105 -107 77 51 99 42 54 45 -72 125 -106 
-78 -40 -19 -8 62 127 -19 -80 -96 26 -55 -49 9 -91 110 -8 -96 82 -96 82 106 17 58 26 120 0 -66 75 -26 2 -64 66 
127 115 4 127 -12 31 -37 -59 -115 100 53 -51 -123 96 -1 6 55 15 106 75 75 -57 27 -10 77 -84 84 -28 59 -34 30 -13 
25 -70 47 -50 -102 -9 -107 61 -2 15 -109 -109 53 -62 -63 -2 113 23 107 -99 9 -20 10 -64 -112 -124 15 -67 58 73 30 -35 
-90 -49 57 59 -22 -46 95 58 -46 -96 29 -73 16 82 -55 -11 -62 -100 59 -10 -45 61 -40 -120 84 77 89 -66 -36 2 55 -43 
-12 52 98 42 4 -127 87 -70 25 -19 -25 -88 -57 102 104 -108 -50 -27 6 -6 66 -111 13 -17 -49 -53 97 63 -127 77 88 -85 
123 125 -91 -35 75 116 -55 80 42 -40 -77 -57 116 36 -79 -11 4 -41 -2 -118 116 -115 -127 3 -17 -78 -9 -109 30 32 30 -41 
-91 -2 113 -50 -87 7 91 -10 -92 112 -74 -57 -44 -76 117 28 85 -21 85 -60 16 -122 -71 126 27 0 -28 119 -12 96 120 -122 
-123 41 -126 1 43 121 -83 -57 -81 -121 -81 -49 -18 -40 44 46 -113 102 91 115 -15 74 -25 77 -31 113 -31 -114 -90 53 127 -21 
-2 -110 111 -117 -71 27 -29 -14 65 -88 -77 54 -111 118 -10 58 -79 33 109 -27 -41 -64 58 -22 111 58 -125 95 77 -43 -86 123 
-34 -37 -90 -64 53 40 -77 127 103 -16 119 46 -64 -36 57 -91 78 42 -64 -45 -67 -109 1 11 83 56 110 -20 70 127 -4 -35 
121 33 -6 96 -111 73 -37 -47 -64 107 -73 111 98 -127 -119 61 103 -79 123 109 63 85 105 -11 -126 -124 -3 -49 -21 2 -108 -56 
-61 10 -6 92 -83 108 127 -112 117 60 -4 -108 -97 46 -30 -81 -52 39 -81 -31 47 -51 127 61 -67 118 -97 -52 -122 19 29 -35 
-7 20 127 127 125 -112 49 15 -25 100 -69 58 1 -72 7 121 96 -1 -33 -88 111 -80 -72 108 14 -5 61 -89 127 -103 -47 -27 
-92 -66 114 71 109 -41 14 127 -25 -127 -117 83 -17 -108 -10 2 127 -37 -88 31 101 -102 53 -81 83 33 110 96 -59 18 21 14 
-5 46 -15 62 125 15 -124 -107 95 -109 -111 18 103 -66 79 -14 -12 -120 -18 53 33 -88 34 61 124 -55 110 -22 -87 -96 -23 -42 
67 84 -125 -24 -114 46 -114 -99 13 124 93 -105 118 -5 112 34 68 -111 -44 -63 29 -112 -12 65 36 -111 79 -99 39 -70 105 9 
47 -40 -40 114 71 11 115 47 -91 72 -42 -56 -73 -85 -28 114 -59 -6 -115 66 35 -65 91 109 46 -20 66 -121 86 -2 -11 114 
127 5 -70 -98 119 -72 63 127 58 -28 -12 -102 -94 -41 61 -83 -71 2 -48 -65 25 -113 127 115 -83 115 -66 2 27 0 -85 -22 
60 -31 20 85 82 -85 15 -30 -33 92 94 109 -36 117 -14 80 30 -86 -72 -39 -32 -73 13 127 17 -28 -69 -107 62 98 -24 -95 
-2 -56 -57 -109 33 -45 -2 74 80 -123 -3 -90 -7 -102 -84 113 -114 -8 102 -10 86 -8 59 31 108 -125 116 84 88 88 109 68 
-5 127 -109 -73 -123 19 -67 -108 100 -35 15 -81 -119 89 -67 -44 33 -62 -53 59 -77 98 -14 -50 -94 -72 74 12 22 -67 -18 57 
-12 -124 -19 -108 -109 -125 41 121 -67 -107 -77 -38 101 59 65 27 -32 -1 -29 -61 -119 -98 127 60 -62 -61 101 63 -14 25 -124 -121 
7 18 -5 58 -70 19 94 87 -97 91 -124 -27 112 30 15 -20 119 0 -117 -81 79 -32 -4 -47 28 -127 -109 86 60 -53 -27 -101 
127 72 55 -12 122 39 -22 -46 56 -21 112 12 -56 -65 -18 -121 -122 -13 -22 118 -33 33 -82 68 44 94 -63 -78 -65 -78 102 -21 
-4 76 11 37 42 -81 -106 11 -118 27 87 55 -103 -2 -3 104 -80 -65 -23 7 -7 81 -44 -8 76 -50 -37 -54 90 54 -62 77 
-74 -1 59 -105 -30 -41 126 39 -26 20 -41 107 112 27 -64 57 88 -127 -48 -116 -117 -47 -13 -106 -90 7 104 71 59 127 31 74 
-65 -26 62 -82 -127 -83 101 56 96 -121 -84 42 11 -6 83 -19 -112 -64 77 -97 42 125 -33 -41 -65 64 72 5 1 0 -78 -81 
72 -68 59 -119 -81 -127 -60 -62 -31 -63 61 31 -113 13 123 -92 -45 -33 -7 -72 -127 39 -88 127 -100 37 -81 -72 -19 -30 42 -127 
-47 -94 -86 119 -87 91 -93 -49 37 109 4 -114 -105 -115 68 -29 -2 5 123 29 -14 -127 -3 -125 -27 -111 -56 81 -24 42 -71 -12 
33 104 -40 -25 78 120 -24 -108 2 114 75 -117 93 -47 -55 -67 101 -18 -117 -19 54 6 61 -53 -127 6 -35 -8 -127 127 81 -17 
-120 -26 -80 35 101 -117 -6 0 -86 58 -5 14 113 40 97 -20 -91 105 -21 -127 -58 -21 62 -55 104 91 122 -51 25 -66 72 -31 
79 110 0 123 48 -20 -4 106 88 91 -30 88 -30 88 81 83 -126 127 -56 39 -73 66 85 -67 21 -7 26 -56 -81 -123 -52 -30 
119 60 -4 54 94 -96 82 28 21 19 85 -107 119 121 86 -66 -16 120 78 -13 50 36 83 58 3 81 -63 127 -9 67 -93 -66 
-13 -104 -20 25 -74 -29 71 86 103 79 94 -82 -79 127 -7 50 -2 -71 10 -22 25 111 103 47 -18 -103 -25 -90 111 106 115 72 
-111 -29 44 -17 -79 -43 125 58 110 78 46 9 64 -104 -97 80 63 110 -110 -72 -127 7 122 -74 -103 13 -123 50 96 2 -123 -84 
-71 -88 -16 -10 118 44 17 4 80 -111 58 -86 -1 -72 115 110 -44 46 -47 -73 11 35 85 58 5 -85 123 61 -19 46 -113 87 
45 -13 20 -71 -7 -29 83 38 92 -3 -81 27 -85 -62 60 -64 56 40 -19 -10 33 63 -127 -111 -127 -108 -50 124 -108 -28 -47 80 
-17 93 49 -75 -97 39 -4 -55 63 -42 83 60 52 -127 96 -15 104 49 73 -5 84 37 -37 102 28 127 -14 -94 111 127 -34 -28 
-127 37 -69 105 -40 -127 -111 -42 94 -127 -23 -19 -95 97 -35 23 -32 -95 -16 125 102 95 -34 -16 -32 -127 -95 93 40 -64 -102 -35 
112 46 -75 -80 102 -34 40 74 81 -101 -37 92 -41 66 -37 -45 20 16 -15 -37 -51 59 119 73 37 112 -51 87 7 119 1 -26 
4 41 -3 47 64 25 -36 -77 99 -78 -5 61 80 67 -126 -15 -58 -12 -75 -14 -54 15 105 -7 -120 115 13 25 -110 -87 -60 -24 
2 56 -19 77 25 -100 78 96 -69 -25 114 127 -104 -91 -85 -43 -111 105 -68 -98 -116 -10 77 -69 -4 118 -2 52 -33 -68 126 -86 
14 -31 46 25 -62 -27 -7 -124 91 2 -42 94 -2 71 24 -124 45 -48 58 104 -82 89 -104 28 12 -54 -49 51 -54 102 46 -9 
-108 -13 -46 -27 23 -3 -45 -43 -86 -52 -22 90 39 -89 102 119 113 -96 55 -55 3 -11 -6 -28 100 127 -74 63 103 -5 -20 102 
-5 -7 -113 94 120 -80 -5 22 -88 -56 -24 98 25 -119 94 55 101 73 127 7 112 9 -121 -53 127 107 -54 43 52 24 58 -49 
87 121 -94 31 87 78 -33 -77 -94 50 -16 -81 -127 7 43 107 -125 -79 38 28 95 -124 67 39 -34 -87 -20 -99 -120 -3 -62 69 
32 57 -34 -104 56 55 -21 -100 76 -3 -55 -125 -110 66 4 -106 117 127 53 85 -108 -97 -9 -104 121 -21 65 38 108 -71 -39 79 
109 -87 -59 63 16 -82 -79 99 54 121 -106 -97 -17 91 -73 -84 -71 -124 -29 59 72 -84 104 -91 -5 -48 -86 -97 -84 0 -36 -85 
115 19 -98 -126 -110 42 -7 12 -11 12 43 63 33 -50 14 119 111 -96 -73 94 70 -15 -89 5 124 62 -97 78 -1 -41 98 -101 
-88 -114 124 -114 -127 -54 71 -35 -40 -72 -40 -57 -62 100 -91 -59 -51 -113 -52 -93 -91 127 -6 60 5 103 113 57 93 -20 127 6 
-61 -125 54 -66 -50 74 127 -108 22 113 127 -65 71 35 -100 -7 -90 0 -3 -62 65 106 43 84 -53 118 -33 79 -4 -52 111 116 
39 -41 -77 42 -111 -37 59 -43 61 53 -7 -52 -18 -99 -83 -108 -53 110 39 114 8 99 85 -77 127 -59 -35 -54 67 44 118 -72 
-27 -8 80 -62 51 -48 55 59 79 -119 41 32 -113 -87 -61 -44 -81 -117 117 -35 112 58 -85 110 -45 -75 -97 95 15 111 100 -86 
103 16 -85 109 -84 -38 78 39 -35 61 52 -55 26 -127 -12 -39 -79 -76 -29 107 69 -36 13 -120 49 -44 51 28 127 36 126 -61 
7 -42 -7 96 97 -53 104 -113 119 28 -52 -81 16 -31 -124 52 -104 -97 -92 -116 114 -8 95 -37 122 56 121 94 -46 6 -85 88 
79 111 62 49 -62 -76 -18 -109 103 -56 -86 -80 -91 -33 -25 -67 29 2 93 13 4 80 -77 87 -75 103 2 80 -40 -3 -80 -82 
-95 76 -21 -72 -76 3 -41 -82 58 120 -32 -121 -45 -127 -42 -113 -110 6 -6 -107 -34 126 -71 -67 -110 71 79 116 -41 23 114 126 
-121 126 31 126 -92 -69 16 72 50 0 -98 115 -20 -108 -71 34 19 -24 82 127 -73 -82 66 -32 -122 -35 -11 -46 -127 68 116 127 
-47 -115 -91 66 53 -37 -70 -15 79 123 -27 -121 -110 16 -53 -7 -117 -50 44 127 -16 -5 39 126 90 -65 88 -1 28 13 -127 109 
-127 100 45 -25 -108 -118 122 69 17 26 -30 -55 53 34 -6 -54 67 127 -74 103 5 -111 2 109 -88 127 6 104 -50 9 124 -99 
74 108 -119 -51 -96 -105 42 -49 -110 63 -83 -45 -84 -73 -104 -74 -18 99 -124 110 -26 -43 117 43 36 -116 -97 -102 96 -10 59 63 
-6 104 -85 -111 -119 -22 -51 -43 55 35 68 -25 79 105 -37 56 -49 -82 -33 -112 54 -33 -29 94 -88 127 4 88 -102 -26 -90 74 
-122 -62 116 -97 -119 -28 48 57 74 99 -110 123 46 -42 -34 51 -32 -32 -19 -76 -67 -35 104 -88 -48 -113 125 -75 52 -127 23 -4 
-125 -106 -1 64 -6 -16 50 -15 -6 105 70 127 -20 27 42 -54 16 -77 -42 123 6 -117 118 82 -122 1 -6 -114 -107 123 -99 -31 
26 32 96 -43 17 39 127 50 51 51 -36 -56 -76 2 122 -94 102 25 -109 0 70 116 -19 -115 118 19 -110 -123 108 -10 96 66 
-7 -118 -6 -31 106 -34 90 -36 -98 21 83 3 -24 -28 86 -41 -48 -106 15 -10 84 -51 -23 73 -42 1 76 9 -11 -4 -19 99 
-32 94 -104 109 116 -49 110 -105 8 26 -98 55 -78 42 38 119 88 89 35 -9 -23 36 -121 -47 -106 56 47 -8 -13 -81 -117 -118 
-110 -75 112 -3 -75 -4 -51 110 77 -68 97 -76 45 48 -100 -86 123 87 -60 -34 22 -105 98 -33 -95 72 7 -46 127 -18 30 -15 
56 35 -18 -47 94 -52 5 84 127 75 -98 -124 13 -71 -46 -13 -106 -55 90 -13 127 106 -74 -111 45 -86 94 -90 89 1 23 -19 
-37 -104 88 -32 -71 42 -98 39 123 93 47 -57 -127 112 -57 68 -96 -9 44 -34 104 -111 -65 127 96 -83 -97 108 -53 64 76 107 
98 -112 77 -94 94 117 -97 -93 30 17 26 48 88 57 116 -127 109 83 4 -94 -17 -118 125 -58 70 -58 -70 109 46 90 -106 50 
5 7 -98 61 12 16 -115 118 -90 95 113 46 64 55 -46 -69 48 12 -60 -9 48 -114 -126 -72 -67 -33 105 20 91 -89 -4 -102 
48 -24 2 42 86 -88 -32 89 -112 -107 -82 47 49 -9 -15 99 63 108 27 -60 -48 35 13 127 26 -14 -13 120 126 72 43 -33 
-27 -116 -17 -73 -13 8 -25 -87 -119 55 -93 -118 -32 40 83 103 25 36 30 -61 57 -9 -88 -5 53 -48 -96 -81 -114 49 67 71 
-99 -25 -19 57 -67 -127 92 -110 61 -36 84 -127 93 55 33 -1 -92 -44 -76 126 127 -88 116 -3 -66 117 -115 22 -75 20 -7 -84 
-48 -91 -27 37 -89 -84 -120 -120 34 85 125 -100 -28 -70 14 69 -44 47 84 -9 -2 -121 -93 -17 22 86 94 -15 19 -20 42 -95 
69 102 -19 -25 -79 7 60 -49 -107 -10 -16 13 79 94 -111 -53 -36 -53 -23 93 -111 7 121 -23 -106 58 36 5 21 -59 49 43 
116 -62 23 -73 -93 17 56 -28 -37 11 55 -95 -77 -114 116 125 -55 -63 -21 54 -30 -67 54 62 -83 -8 40 62 73 11 -50 -38 
-1 -73 37 111 -118 -76 -89 -127 91 -115 -37 -91 -28 19 -88 124 -67 35 -61 -29 -106 15 68 4 -102 -27 117 107 24 10 91 47 
-87 30 -89 -6 -43 -108 -71 -113 -25 15 -15 127 127 30 79 119 -2 -14 -105 24 -78 81 -81 105 19 3 102 54 -32 39 -71 100 
-127 83 -20 -105 -45 42 116 -92 35 93 -107 14 -34 119 102 126 -126 -37 -74 -12 43 46 -110 -17 75 -45 33 -28 67 77 -42 55 
100 -73 -55 72 -5 49 -49 26 101 -12 118 47 59 -48 15 95 26 2 -40 59 45 -2 -127 59 -50 119 61 103 -55 -28 -2 92 
121 70 106 -24 36 -8 -73 -91 -4 91 117 77 -113 101 -31 -67 18 -58 75 -17 -37 58 -1 66 126 -47 91 -85 -12 121 124 -16 
-116 13 -66 -44 3 -74 -6 -106 119 15 116 12 100 -101 93 -74 -93 -97 -66 45 20 -21 113 -79 -80 -40 -28 39 -3 -47 -81 -40 
-82 75 2 78 -125 103 -90 -77 -13 -75 61 -99 -13 85 -100 4 -74 -52 -93 20 6 -13 -23 40 127 -27 93 87 -63 -71 10 -127 
-93 -127 47 -71 -90 -94 -29 -85 -51 25 71 -12 -48 -42 15 53 75 -110 74 -38 -91 -98 55 115 69 10 -12 -25 -127 -47 45 38 
51 -30 -118 127 -88 -68 77 -30 -113 -75 69 69 23 -69 -49 58 10 -80 -53 110 23 97 88 91 -41 120 104 -43 -22 77 52 -5 
63 -14 -65 29 60 87 27 77 66 78 -74 -12 -36 -57 21 61 7 118 -109 127 34 105 -72 -23 118 48 119 92 -73 -47 25 -43 
89 -87 -71 -29 -5 -103 125 -16 101 35 -127 62 -31 80 -98 -37 -14 -90 -38 20 0 -75 -34 -117 -90 -25 94 58 -104 56 -119 120 
125 -90 -67 -58 82 87 -93 -108 15 95 5 60 58 65 118 -50 127 -71 -15 -42 17 -34 108 -47 80 -60 34 -41 -125 -7 -25 29 
-19 -105 101 -78 120 12 -9 -127 -59 -68 66 -1 -89 11 127 49 39 -75 -26 -11 -22 17 82 75 -62 91 87 -15 -63 -27 -103 -17 
57 -10 31 -81 -48 -91 -21 58 -107 9 -7 -127 53 -62 -37 17 -85 66 -110 -34 -127 74 60 -49 -61 -56 22 -86 97 -102 102 119 
-112 75 123 102 -47 45 33 49 -1 25 -122 121 122 19 -125 -3 63 22 -72 -11 -31 -20 70 96 -127 -97 -126 -74 -83 0 -6 -87 
-87 10 -17 -39 -72 -87 -81 -99 -115 -39 109 -15 -66 -49 112 18 -22 -123 47 -67 77 -65 -33 -68 -126 14 -10 30 -21 28 -24 127 
-67 -20 115 15 -38 -43 -24 -41 -58 82 -7 -25 -53 -73 19 -51 122 26 -2 78 36 -2 123 45 17 99 -9 57 -13 -21 -119 70 
-44 95 -9 -80 54 -65 49 120 26 -3 35 113 29 55 -83 -74 -39 9 44 -33 -99 -79 -115 127 -40 -13 127 -13 -2 114 53 -73 
113 14 -47 -37 -83 -61 -57 52 -106 -67 -105 103 -54 -49 42 -88 -63 72 51 -98 90 111 -13 -45 51 120 63 116 -71 41 43 125 
-60 12 99 -127 70 -112 62 47 -68 113 -48 35 107 3 -10 78 -117 100 -79 -127 -84 -53 -65 69 -58 64 3 33 53 5 124 -57 
73 -15 -9 44 126 -122 50 -92 -81 81 127 -45 -70 -7 -97 -103 -127 14 -99 -51 9 86 20 74 37 124 127 29 58 88 -46 -66 
26 -55 9 79 49 -30 118 79 -15 -18 94 -27 92 -108 17 -119 -19 -24 48 -63 -108 127 77 -24 117 6 -38 118 -16 119 -83 127 
108 -45 5 61 29 -31 89 -10 102 115 -76 66 -76 -99 -104 23 60 -92 -97 -35 -96 31 -28 -97 -116 -31 104 72 63 -111 -102 -5 
65 17 -11 53 88 -35 -71 -126 3 52 62 127 -39 -100 -70 117 -18 84 118 47 -2 3 -41 101 43 2 119 -35 11 102 111 -78 
4 -93 116 80 2 45 -74 115 15 -55 -82 -83 -54 -105 -25 38 76 23 81 -15 -39 -82 -38 -77 2 75 -23 94 -106 -31 83 33 
87 25 -48 32 32 35 116 -97 12 -62 63 -46 6 47 -121 51 -43 33 100 109 -60 -55 -70 110 75 -28 -31 -109 62 8 77 -50 
66 122 -121 -13 42 82 93 -100 22 -1 -55 118 -127 -79 83 -11 65 62 125 -121 69 -79 111 -120 99 78 -34 -37 -9 14 -10 51 
74 127 126 -62 127 99 -125 52 -53 104 109 -15 -120 88 -56 115 -94 -44 -82 22 -96 -112 27 127 85 127 105 -35 52 -42 -85 -97 
-113 -38 127 123 -117 -35 -4 -30 -71 91 4 -23 -2 84 -10 21 127 -53 -55 107 -6 -17 -46 -25 -101 30 111 2 127 49 63 -29 
61 -58 -110 -2 -12 -77 -105 21 127 -115 -119 46 19 -105 -29 62 -127 110 122 -26 -47 119 -99 -40 -81 -3 115 124 -117 -5 -26 -77 
67 99 118 -61 -22 -77 -7 -97 -63 -66 -19 -47 -29 97 100 49 24 -75 -117 120 -32 42 -56 -116 127 -48 -121 -7 45 -51 -111 14 
-73 -64 -124 20 -127 96 63 -114 -49 -29 -77 -16 72 4 -26 100 -83 32 -105 5 126 71 13 -65 -68 -44 120 36 29 22 3 -126 
28 -102 81 -33 -12 -30 -73 -98 -45 122 -118 -18 35 -30 73 -17 -78 -101 -36 -89 -37 -80 -99 -10 -72 -119 -53 -95 -127 -7 91 47 
40 81 16 -94 4 -127 -55 82 101 -28 -85 -70 20 123 -91 125 -4 -110 -49 -64 88 -103 -77 100 -21 58 -30 -7 -94 -72 113 109 
-91 -125 19 35 -29 46 -71 -83 30 38 115 -88 -61 71 34 -2 127 -127 -120 86 38 99 47 -105 -50 19 -37 94 -108 28 -17 -127 
7 97 95 -47 108 -75 -101 -110 -109 102 -28 -85 -113 10 -102 -13 31 -7 -105 47 -24 9 72 -127 21 -69 -83 5 102 100 60 123 
-121 65 -116 -32 52 2 -18 63 105 21 -51 117 -116 90 17 -33 27 6 -36 -23 85 14 -116 96 63 -4 -118 -3 10 120 -55 57 
93 -58 76 93 -35 127 126 116 -27 30 -10 27 87 21 102 9 3 -41 114 -42 88 -110 -15 117 -76 -62 -64 70 80 -60 82 -38 
-41 -86 -114 -35 -77 -58 123 25 93 87 -38 -35 -123 21 -49 -93 58 88 -97 29 -80 104 77 -7 -6 32 -23 -43 -98 92 92 -69 
-120 83 116 -92 -29 70 -61 105 -105 49 -26 -77 -85 -30 -33 -112 127 -65 -69 -70 115 32 53 31 -109 29 -26 122 87 -81 -32 -112 
74 70 -44 87 -127 44 -70 -53 124 8 -127 -106 84 91 17 -122 -25 98 16 29 -25 106 93 94 64 25 121 -127 -29 -57 -16 120 
57 57 31 109 -115 -65 25 -127 -6 -80 -124 -7 115 -122 -43 91 0 0 -4 -93 14 -52 73 47 -4 90 -89 89 34 127 56 -3 
103 56 -2 -2 48 -36 -66 -102 -27 -29 -4 -78 -35 95 -4 38 58 32 23 39 -127 25 127 -7 -85 10 55 87 -103 57 -120 73 
-48 7 -37 121 -97 109 117 -23 7 104 91 76 93 -44 -28 124 52 -86 73 -65 88 43 -6 51 -57 -13 46 2 103 127 34 -114 
-20 122 -121 -11 -63 -127 -124 22 29 -85 92 83 -15 3 -101 -99 30 47 -53 109 20 38 -97 93 88 35 -109 -8 -93 -41 40 -1 
-32 11 -105 -127 -100 -42 -39 116 -93 104 -54 125 71 98 14 66 102 -92 78 17 34 -114 68 -96 -71 -56 -75 -45 19 79 127 -11 
29 -65 -75 -97 42 -22 -69 -107 -22 120 15 -43 124 80 109 -7 37 27 95 54 -108 -29 -46 -66 -2 2 -13 -127 -10 104 -127 -5 
35 -124 -37 57 -92 -26 38 127 -127 91 15 -127 -56 -72 29 -35 101 -127 -34 105 80 -59 121 86 -72 -77 37 99 -70 4 45 -37 
-31 -127 84 -91 -87 84 52 -43 -67 0 -75 -22 -91 -44 -9 -43 -1 -66 -52 -3 35 5 80 -112 -101 -101 -58 -19 93 108 127 -27 
117 -74 -2 -33 -127 103 -3 69 79 95 92 -88 81 37 -99 -102 81 -96 81 -57 22 -112 109 59 -88 -48 99 -99 76 103 75 7 
-35 -46 117 124 40 4 -44 7 127 121 7 -103 28 -105 115 -74 96 -126 -83 62 108 -63 98 -14 -43 -32 51 -77 33 124 -27 -51 
93 1 -106 -24 102 -22 117 -4 -2 -127 -33 52 -19 -91 94 103 127 49 -7 -114 -58 -87 -114 -108 95 25 -98 -77 12 -79 -110 111 
22 -127 -58 -43 -116 57 115 62 50 65 68 -53 -115 98 127 -29 11 -57 -3 94 50 64 111 30 36 18 -85 -73 -45 89 -6 -127 
17 22 -57 59 -75 5 58 -26 -37 50 -90 -33 101 -115 -25 -28 70 -116 115 -82 56 -24 41 69 -65 -22 6 121 -61 27 89 -7 
-66 94 26 -92 24 -61 -123 12 -28 99 110 -36 -65 -43 -18 105 -40 25 76 60 49 24 -15 79 -3 -14 106 -21 83 25 -105 -114 
92 39 117 -114 75 -9 -69 101 122 11 -118 107 -63 -119 27 -17 -43 -66 -86 6 104 62 -19 -79 115 51 -87 -73 -126 -103 -122 71 
105 -60 105 -13 22 117 -26 -72 -77 -123 85 -9 5 125 -18 -30 13 -113 83 -69 -7 60 -78 -29 127 1 -104 -108 127 -105 -99 -45 
45 -34 -80 -98 -65 10 42 -58 5 -28 90 -6 95 41 -5 4 -68 93 105 -98 96 116 -89 -127 121 118 -106 126 125 43 -105 -39 
59 -33 -47 -33 83 43 -40 -73 -121 -47 34 126 109 58 52 71 -30 26 84 -78 -95 122 -99 121 -34 -67 -13 87 127 117 -125 -91 
4 -4 123 83 77 18 79 36 10 -106 103 59 75 0 -89 -113 -13 89 -9 84 -90 -42 78 105 2 -112 36 113 110 36 37 -2 
-52 43 -1 127 -127 -65 14 -113 92 38 83 -97 -74 -126 -58 -51 -56 -96 -43 117 -8 82 -48 -107 99 -112 -21 106 52 111 78 -38 
91 127 -6 -113 -60 -42 123 -76 127 -57 -74 -95 -61 -27 124 118 68 -26 42 1 110 12 58 -18 -120 49 -117 94 -54 71 -73 83 
-103 106 -14 110 101 -1 -85 127 -1 -116 9 -35 48 82 -42 -22 -66 -14 -40 -37 -36 73 -121 -16 -54 -126 18 72 -106 -120 -7 -76 
19 84 -44 119 -20 -114 30 47 -124 -86 -18 114 32 82 23 96 71 25 -84 47 94 20 70 -91 -60 -89 -55 -19 119 4 -49 91 
-44 -98 -104 68 108 -98 43 119 -38 35 109 -13 36 -40 -98 34 -2 78 102 -2 -127 69 -68 -82 -127 121 67 -25 36 7 -33 41 
-33 127 123 -86 -42 -90 56 36 -89 56 -84 92 10 -10 43 126 69 126 93 -36 -53 94 -68 -37 -127 -39 -27 104 16 -81 119 106 
-119 68 -89 89 26 -115 -1 -94 16 31 -75 -82 -22 -98 -115 -27 -90 -47 103 94 -31 31 96 -8 16 -107 -97 113 -23 90 -120 38 
125 -127 119 65 -108 86 75 -4 -44 18 4 23 -79 26 122 -6 -39 8 -127 99 51 -66 -99 -12 -21 -31 -93 -70 99 66 -119 -64 
-109 -14 -19 116 114 -117 69 -127 122 11 -71 6 -68 100 -43 -12 -69 -112 63 -30 59 -109 2 -83 -127 -5 -87 8 69 -108 -81 -84 
-22 -16 -63 96 -104 54 2 -65 79 32 105 -18 -22 91 -36 -122 -29 -59 -63 -17 -76 101 -111 83 -82 -13 31 115 -91 -56 -66 37 
60 -17 -127 18 104 112 -34 39 27 11 -26 81 -85 46 -124 50 -126 -79 93 127 117 -20 118 62 -44 -3 64 109 -108 63 -127 68 
-37 107 99 -73 -91 103 78 -18 -3 -62 -22 118 18 0 -105 117 -123 66 -70 93 54 5 28 1 127 -99 -26 -42 65 118 -70 124 
113 71 79 10 36 31 28 -111 32 11 -6 71 117 126 -99 108 -42 -31 25 -80 -110 14 -11 101 -4 75 -85 -53 -14 -35 6 51 
-16 53 58 38 38 -50 -97 -44 92 61 20 -7 -37 -23 92 -14 -70 127 -107 6 -43 -90 -2 74 -9 -36 99 50 -2 127 123 -69 
12 -22 43 111 13 -34 -69 47 111 124 93 52 -49 -127 -45 -26 -35 122 -13 75 -115 -45 -66 2 63 79 -126 52 -127 -91 -51 -15 
-97 -97 34 -81 9 48 30 -80 100 28 110 -14 70 -29 -44 86 -115 19 -29 87 -69 -127 98 -66 -127 -90 91 -43 127 95 -80 -20 
-56 -121 -115 62 30 57 124 110 -36 -59 -82 -5 22 44 12 -123 62 -125 99 120 122 68 -39 61 12 117 -15 58 -17 56 -120 -103 
-9 -26 -42 -12 44 73 85 -97 -7 -14 88 79 -91 -124 -75 -45 -1 -85 -89 -53 95 119 -86 -127 -65 -47 -113 108 -9 91 -73 -59 
-106 104 35 -75 -5 117 -51 -24 -76 53 61 118 66 -43 -36 -79 127 18 70 54 -23 13 108 -111 48 -65 -71 55 -5 -54 14 19 
99 77 -6 -34 -53 68 15 -37 -81 127 87 -70 -72 -87 -92 127 63 -20 127 -50 75 -76 123 -16 -40 108 -84 -66 -72 122 -38 79 
106 -11 59 -51 18 48 -39 94 51 121 41 12 -8 -59 -6 -90 -96 1 -97 113 -58 -85 -78 -24 66 -89 77 55 -29 -53 -68 -68 
-13 22 -75 -4 -62 31 121 -96 -21 -97 49 -65 -48 116 -33 64 -99 -84 -94 31 -66 125 -45 123 53 -13 -105 -113 -95 112 44 28 
-2 60 35 -108 26 -21 -115 -67 -86 61 59 76 -82 55 -56 -65 -102 127 -127 -93 74 30 -18 114 90 -83 84 127 61 -34 -19 -77 
89 -86 -74 -70 127 66 4 6 127 -35 71 -123 9 125 117 47 -73 -31 95 -46 14 -104 -115 20 -90 23 -73 -41 26 31 126 83 
-123 -49 -75 -30 -92 111 124 2 6 124 -18 113 -127 71 127 -13 120 89 -66 7 65 41 -62 115 102 -84 -67 83 -86 -120 -56 57 
-46 34 81 -122 93 -30 -75 117 -33 -82 120 95 -18 123 12 1 32 86 -32 -127 -38 74 62 -27 118 -60 -67 -12 74 114 33 -36 
-55 -86 -6 -90 68 18 123 5 31 -120 -26 119 99 114 71 63 25 118 118 93 -38 -63 70 -37 126 -124 59 -2 68 -77 -1 17 
-127 -116 127 -113 -29 106 80 89 -3 -79 111 -93 -70 24 63 -126 -126 -34 -118 -121 39 -81 65 -6 -100 62 101 -73 112 21 25 87 
18 -49 -54 -94 -11 78 -71 121 -33 86 18 -89 50 97 -54 -59 127 -125 -61 120 -56 -77 95 51 109 51 -58 -29 -127 33 -50 -56 
-16 -14 -70 -70 -77 127 127 80 -106 -48 -4 -66 42 126 60 -69 83 -1 -30 -10 -81 -59 -115 112 -127 -59 -115 102 1 37 63 -59 
-35 -110 -56 -60 -110 -46 102 -121 -127 18 -84 -7 -117 97 -67 -41 -13 -127 84 -127 17 -127 -115 85 -49 66 -31 -4 -10 -117 -90 94 
53 -85 90 -39 64 -24 110 107 -10 81 86 -26 -109 38 -64 65 -85 73 91 103 -80 52 99 -69 81 71 -74 -91 127 -19 36 0 
-63 -127 87 -83 127 -113 -33 -32 -117 -7 75 98 -41 79 -74 -12 94 96 -18 -61 108 -36 -110 109 70 62 -16 -69 -76 -8 -75 122 
39 -23 -32 5 79 -53 -22 -41 80 9 55 -75 36 96 -96 -58 -127 115 -13 109 -44 -73 1 86 -39 112 -29 -70 -66 114 -6 95 
-67 -50 -7 69 -55 -44 -25 -61 75 -29 -11 83 -29 72 -19 76 -24 114 -7 -27 92 -8 -55 -34 62 -46 -69 -18 25 -41 29 35 
104 52 119 86 -28 101 114 -47 83 97 -34 -79 -110 -109 77 -7 -102 80 -45 -29 -5 66 93 98 -17 44 41 -42 124 8 -97 -121 
24 14 -110 108 -105 92 -115 84 9 -85 54 -34 60 -65 -127 60 20 -37 -109 7 -34 -127 29 107 39 41 -29 -20 -127 81 85 47 
98 -67 -88 30 113 -74 -46 -73 8 60 -84 113 -117 -95 -119 38 3 -109 40 110 114 -30 -11 39 -87 -127 12 78 -68 65 21 -16 
18 -112 61 -22 -46 88 -74 49 27 -80 15 -126 49 -100 61 31 -127 56 -13 45 14 105 -118 120 46 -37 -67 -78 51 65 53 -19 
116 -21 110 26 -18 -10 -44 -114 -118 -47 -91 -37 117 -93 89 -125 -6 75 -45 116 19 36 -34 73 92 41 110 -70 13 -103 -31 -38 
-101 103 11 -48 -98 -4 -89 59 58 86 127 -70 -43 -117 -10 120 121 -6 37 119 63 -73 120 111 114 115 6 48 7 78 92 -78 
-117 48 -6 15 -77 90 -33 92 -24 19 -48 -47 -60 -103 -3 73 44 88 91 -71 121 -87 127 -13 82 -5 -127 14 -10 114 -51 -15 
7 112 -102 -23 -100 115 -30 -109 -58 -57 46 -6 16 -51 -109 -127 60 81 -57 60 -15 77 44 58 -115 -6 -109 -21 -115 92 -13 107 
-124 -127 -121 -83 111 16 -99 -20 -89 97 17 126 -113 -89 32 94 44 18 97 -122 21 -127 -24 -25 -97 1 -114 1 28 -85 125 -43 
49 125 -29 -82 -103 -42 54 -92 68 77 -35 101 76 99 110 121 -41 -51 -3 -88 -54 102 -22 -86 120 -127 -86 83 60 -76 118 -71 
23 121 -88 49 70 -101 -38 110 -61 69 -77 -50 -1 34 -127 -33 -32 47 96 27 -10 49 -22 -16 -114 124 108 -4 70 -52 42 -43 
52 86 -80 -115 -1 -92 -2 98 -21 127 110 -105 -7 127 73 -65 79 -80 16 -111 -67 -119 122 -85 -63 -61 -52 -86 -34 5 53 91 
-51 -127 -50 -89 -127 79 -31 -127 60 -63 84 41 117 -60 -97 -115 96 98 -16 119 -41 127 -119 103 -98 21 58 103 109 55 -15 -74 
-118 -122 43 -9 -30 127 -120 -115 61 -30 -13 -115 -56 -127 14 -45 -34 17 34 97 100 -72 85 41 -122 -104 87 -43 -19 -115 32 125 
-25 -119 -30 39 -1 120 -68 -26 -119 -97 -82 -83 95 -65 -34 -47 -98 -84 -51 101 11 -43 83 -10 -13 38 16 -52 9 64 84 -91 
89 -50 -25 78 -45 -92 56 30 -119 -121 30 -24 -19 -96 -38 -45 97 -22 -75 31 -97 111 81 -51 -48 -52 21 90 -5 -75 94 117 
102 -46 -127 -72 -68 -120 82 62 98 2 86 -13 -14 -23 -39 -104 15 -73 127 -106 -67 53 -33 4 82 105 -12 -15 13 96 -56 34 
-127 -4 -61 41 38 -77 95 99 88 -40 -96 -7 -2 124 95 -61 39 -93 120 2 -25 84 62 -51 120 -7 126 79 119 -94 -45 -109 
1 23 -101 -105 -9 23 9 50 -63 -57 -14 -127 108 102 -10 83 61 37 -36 -36 81 67 -60 49 -14 60 -88 102 -28 21 -51 -98 
-73 -127 61 29 -82 -53 -2 -91 122 110 -13 39 79 -2 94 20 50 -57 91 -70 84 -16 117 115 11 0 -10 -24 -107 13 14 -93 
70 -122 -86 -38 -17 -2 27 -66 119 55 120 77 127 8 59 -74 -69 -81 -80 -9 -122 -48 -5 67 14 73 127 117 38 102 -85 -115 
-127 -22 -29 -74 -43 -11 -123 66 -34 -112 61 -4 -2 -59 -83 115 -73 -61 -3 -118 70 -28 86 1 59 -106 -65 -9 -89 121 -81 113 
101 -54 -36 -106 41 -21 30 -88 42 114 100 -33 -92 -62 108 72 105 -17 -6 -115 -81 57 26 9 38 127 -19 -54 68 -113 48 103 
-72 -92 64 106 -28 -127 -86 -34 54 86 -60 -19 -107 127 24 79 -96 -16 -43 20 -95 -127 -78 -66 71 11 54 -58 -53 3 18 -72 
-44 -62 94 -29 101 58 61 -44 46 -110 64 31 87 -121 -110 -2 36 1 -35 -55 24 -29 -81 -84 5 29 -10 -109 -2 109 -51 94 
-123 41 -26 -108 29 -113 71 127 127 77 60 119 42 -58 12 127 118 -81 -95 -124 127 97 -44 -48 -118 -113 122 -83 -111 35 -58 -43 
77 -46 -18 -127 97 50 -54 -41 -71 -83 116 9 31 -114 63 89 35 -14 126 -3 62 90 -20 91 -127 55 -101 2 -96 23 114 -19 
60 99 95 -93 43 -100 -1 127 38 10 -127 -127 -126 10 41 -5 16 2 -57 93 -126 -127 84 -123 -91 119 96 -96 115 18 77 -11 
8 28 25 42 41 -30 30 55 23 127 -50 -20 63 37 55 12 -53 -36 -127 70 -54 70 -74 -40 57 113 94 -70 30 -127 -32 55 
-9 -89 -57 -7 10 108 -105 -70 9 -119 -40 -77 12 44 -5 17 -43 87 14 -4 -13 -20 114 -81 70 -99 77 -7 -92 82 74 -83 
-42 12 110 -45 87 33 73 7 -91 105 18 127 40 119 92 -13 -125 -99 -113 -45 -86 75 -36 -55 -55 111 -69 30 -86 -15 -42 -27 
-117 56 -119 7 40 68 -24 -24 81 -61 -70 79 113 88 77 -54 -125 18 -2 109 -9 -116 45 44 118 -117 95 -115 42 12 -70 -83 
4 127 86 -127 24 -20 47 -20 -68 54 -41 -98 13 40 36 -28 -6 -98 -38 -62 21 -65 -39 47 74 59 -58 24 -13 37 -21 32 
118 111 99 -97 -57 -44 38 -54 126 -40 94 80 55 15 125 -121 108 -61 45 -66 62 -105 -14 -114 124 6 52 120 -98 -57 -15 -89 
31 23 -62 -71 127 85 -127 -122 28 84 -29 -15 81 41 -70 -83 -98 -111 -66 2 -7 -88 -62 -127 -37 -2 -37 113 -109 -106 -86 29 
52 27 57 -48 -53 -127 -33 -94 -119 -76 -30 4 15 -24 -52 -98 53 -112 -127 70 53 123 -76 -49 114 -50 -18 126 -125 38 30 24 
-124 12 -41 -52 -60 -125 -54 117 -87 78 -46 -127 13 72 90 -25 85 -11 -15 107 -108 62 -126 43 -118 120 6 127 -29 101 -107 -13 
82 -103 -4 7 97 -18 19 -111 54 -11 -8 -99 -34 14 62 116 57 -127 -37 71 -61 -23 -99 -49 35 -88 -22 -89 -118 63 -127 -9 
-42 65 21 -47 -15 57 -113 -71 63 -19 -11 98 -92 -65 31 124 87 -17 -118 -71 2 -115 117 -68 -94 69 -5 97 73 -126 -107 -92 
99 70 -75 79 -119 -29 36 114 -127 4 108 -43 125 -24 110 -70 89 -110 -71 -105 18 82 48 125 -22 -82 -70 -103 -3 -14 -99 -50 
102 78 88 94 -127 -38 102 0 28 -97 -7 23 20 29 1 113 111 75 -31 -103 28 80 88 45 -74 32 -81 -44 -91 -83 -71 -111 
126 118 -118 39 -105 122 126 54 79 40 96 79 66 23 -47 -127 -96 -57 -42 -37 -82 -74 53 95 -5 25 85 44 104 -70 54 57 
-83 59 -72 -6 23 -41 17 74 -125 -36 -127 24 -86 -14 -23 -14 -77 -22 93 -38 -61 -127 119 -46 -84 -108 77 58 0 -67 -52 -35 
35 -37 -97 -127 100 -22 -47 -98 -89 -67 -13 114 -27 -71 5 41 21 -96 1 -21 -126 -45 97 -122 0 -38 -34 -114 -99 -57 57 -52 
-122 14 -72 122 102 -72 -37 -86 63 48 -22 -26 -105 -21 -27 54 -30 -85 23 -55 23 -29 104 -5 -111 -74 74 13 -77 -104 -12 88 
-53 11 -18 53 -99 -20 127 72 123 -39 -70 -59 10 27 62 -26 -25 90 91 -15 57 37 -28 1 -36 -66 110 11 20 -27 -26 103 
1 28 -127 15 12 -66 -125 -73 -1 60 99 -19 13 -33 -125 46 -70 -38 -33 45 -31 -90 -93 -44 -87 126 -75 91 60 -7 -37 -77 
96 -105 -117 -79 77 116 -83 -74 29 -79 82 -116 15 -89 -73 2 12 -12 46 -127 37 120 -16 119 -84 -62 97 -72 -77 -127 -82 -85 
-107 9 -69 -61 -81 30 -86 -111 119 -57 87 -69 -82 38 -78 -13 -45 29 -81 -84 -90 36 -108 -28 -115 -45 -99 0 33 -89 -9 -88 
-97 10 -12 21 -5 -17 16 100 72 -89 50 -33 31 -75 59 -118 19 -48 40 -127 125 127 -5 111 116 99 -11 92 85 22 108 -94 
-104 101 -83 127 109 93 -99 -15 79 -61 20 -74 -8 -18 -97 -26 8 95 112 28 4 30 109 -14 -20 -6 -20 -84 -32 -81 2 -32 
-48 14 -39 59 80 -127 -61 -88 106 5 64 72 97 -96 87 -27 89 68 -6 -47 -124 66 32 -4 53 71 -118 42 -72 -127 110 87 
-77 -55 96 63 -123 78 -104 91 24 -63 -33 -48 12 -102 -5 -66 -122 51 114 78 -79 118 56 12 -127 121 55 93 77 52 90 -48 
17 11 -96 -41 -57 -53 -55 -67 -19 127 32 127 38 80 -30 -68 -63 9 50 -43 -17 -4 105 -11 56 -39 66 75 76 -1 127 31 
106 0 -33 -48 94 120 -10 -10 52 72 62 108 85 -79 -113 110 94 82 -17 -62 -40 61 -4 -54 -55 -38 110 -25 87 -50 -21 71 
27 -11 117 61 -85 27 64 -48 -77 43 63 101 -96 -16 -39 44 40 127 91 15 -94 116 -120 -14 105 -77 -8 -101 -125 -11 18 123 
-117 0 33 -30 -35 59 -2 38 127 67 11 126 -26 126 -98 71 64 127 80 -94 -51 -68 99 -69 -14 7 127 -67 81 -33 -29 -67 
120 -55 -42 -29 -125 114 68 98 106 60 -35 127 -77 94 127 7 -94 -117 107 121 -71 -54 61 101 56 28 12 51 125 14 -19 46 
111 127 72 -96 34 -127 -32 8 117 -9 -78 -49 18 -24 -29 -13 19 96 -26 35 23 4 -127 -39 -124 2 101 -67 95 74 -91 -97 
-23 -100 -90 66 -112 -66 -103 -37 127 -105 -99 30 -88 -91 -3 -78 -42 81 126 -119 98 95 -38 118 -38 -66 36 13 -30 -8 48 38 
-25 -82 -40 -7 89 -44 125 -54 6 -89 87 113 50 69 -8 -39 14 -47 74 -33 65 -76 31 124 -63 -81 8 38 112 -2 -59 -34 
127 -33 -18 -43 105 -87 122 101 47 126 -46 -69 -83 -21 -68 91 99 -44 -1 -127 -127 108 -16 -127 4 112 115 115 -123 14 -113 -110 
-8 -127 -29 127 -64 -66 -69 -93 -70 94 106 -28 95 127 -98 -20 26 -69 94 -105 -28 18 107 115 -49 -42 -73 -13 23 -117 14 3 
-102 109 -69 -115 -64 15 -4 -24 -5 39 -94 22 88 -52 98 -17 61 -39 -2 50 18 62 74 82 85 16 -126 -78 6 82 -57 121 
76 27 70 -1 -14 -114 127 2 15 71 -78 -6 117 62 92 -29 -121 -81 -100 -120 -15 96 -117 -84 -102 72 -79 126 124 -117 -110 39 
-20 -42 -60 112 -21 -36 -26 -89 124 95 -39 -12 42 -95 -127 -29 42 35 -57 17 -80 -122 -83 -20 -66 57 -71 4 -61 66 21 -96 
12 -109 -10 -24 8 -127 64 66 11 -74 82 -11 51 3 108 111 -92 -75 75 -37 108 11 -85 -100 90 -55 -127 -118 10 107 -35 -115 
127 30 55 -55 -31 -127 119 100 91 -80 -44 111 -49 86 -1 38 76 71 54 -61 66 -59 54 19 -71 78 15 -81 127 108 1 29 
81 2 -127 -78 36 -18 -51 -99 -127 -96 92 127 -52 -115 100 -127 -126 -39 28 81 9 123 93 -99 127 -24 -97 -29 -10 -104 -96 -127 
-95 -98 -51 124 -127 -81 -35 -66 -68 -81 -122 77 27 -96 94 -85 -93 -16 -45 -70 -127 -89 15 38 26 -23 -88 -22 112 49 -10 101 
13 29 -75 -70 127 -66 -30 -100 -14 -72 122 124 104 104 54 68 -59 88 7 105 121 -126 39 10 65 -76 107 91 88 -11 -43 -119 
-63 -96 -127 -116 48 -44 -68 -27 51 -66 53 -94 127 40 69 127 66 107 -48 -14 112 95 -69 -84 -16 85 -81 -110 -2 -127 25 127 
93 58 125 120 -9 -5 127 -84 64 -85 35 -11 -115 -34 29 -6 126 76 58 -13 15 -123 -68 -23 127 60 -66 30 -35 87 108 63 
45 81 127 -8 68 -6 14 78 -80 -125 -43 -85 -108 104 -41 -115 -121 8 -52 -98 -72 107 71 -127 22 -61 -71 -39 31 -46 111 64 
-9 51 -3 35 -30 -2 -74 115 32 -1 52 11 56 74 -124 -95 22 -40 20 -124 126 0 -70 -8 -37 75 -101 -35 -30 80 38 -90 
-48 36 -70 -51 -100 68 -101 -127 -41 37 -47 -124 9 5 45 95 -48 -78 -25 -30 -101 15 119 -39 36 58 35 1 -8 83 15 -18 
3 5 -7 115 27 -60 9 82 -24 0 -93 125 104 41 50 87 -6 76 30 -66 3 100 73 124 -36 59 43 -13 11 31 -4 -106 
-64 -77 -107 7 22 -119 59 94 -69 -29 -80 13 21 -24 23 10 -127 92 101 -21 -24 61 -1 18 -20 -17 -73 -109 -110 24 127 9 
13 -4 -18 58 -13 -114 -46 -16 -42 -67 -23 35 3 -78 -41 -86 0 -67 -19 102 -32 -34 -96 47 -26 10 -81 -103 45 0 -78 -4 
-80 -74 51 76 42 -81 -31 -7 95 34 -42 124 120 94 -119 -75 53 78 -58 55 22 57 42 -65 -89 29 55 -70 -13 65 19 104 
22 127 73 1 -16 48 -86 -13 110 10 94 -90 -40 82 -122 76 42 -112 90 116 70 43 117 87 -9 -60 -55 -21 -34 -59 -41 -3 
-108 -51 -34 54 94 59 108 122 -38 2 119 54 -86 39 -49 27 78 55 -25 90 -87 123 71 -26 99 17 -57 4 27 17 -46 -34 
-40 -47 -67 -41 92 127 126 27 -4 1 -101 117 104 26 -31 57 -12 -126 -91 39 52 47 -7 41 -38 119 90 -81 76 61 -91 88 
-84 44 -4 -21 -54 -3 59 -68 58 -26 -68 77 -56 127 37 -17 124 -120 -28 -22 -102 111 122 -36 -20 -110 -34 -124 105 -116 -40 78 
70 59 -3 81 -65 37 85 15 86 -71 -94 118 -126 -90 124 -70 118 45 117 -26 44 43 -9 17 5 80 -127 120 42 -46 55 118 
57 -67 105 29 -119 119 -47 91 -122 36 -109 -69 -40 127 115 4 -49 -1 125 23 -34 -6 41 -3 76 -30 -51 62 111 93 24 54 
87 -98 18 -83 -1 -50 -23 -39 -79 -127 12 73 104 38 57 -118 109 -37 50 -95 -93 43 -71 107 37 -109 -55 68 21 -77 70 112 
72 -127 59 -57 46 65 14 -127 35 67 77 -93 16 -10 -57 103 72 -49 55 -53 -119 80 93 -21 50 -112 38 -127 -127 -127 -30 -6 
101 -86 75 -99 -115 -110 75 -11 126 38 -69 -106 71 -47 -120 -71 -13 49 -89 108 28 -26 5 -11 -49 25 127 44 -10 -116 -50 -46 
32 111 127 26 -122 37 -24 63 -39 124 -42 101 -61 -61 25 -127 -62 111 93 101 111 0 -45 -8 19 88 -126 -92 -22 -96 127 54 
125 39 -3 70 82 -60 100 70 -69 -52 52 74 31 -127 107 31 61 17 111 39 -39 -119 -1 88 -92 -50 102 -99 -9 43 -67 58 
54 4 66 -52 109 -89 80 119 -99 -50 -34 53 45 -72 -79 -43 37 -30 -51 -36 32 9 -5 105 86 -43 -26 -42 -116 -62 -35 90 
42 -19 -41 -95 19 47 -10 -55 42 -126 -97 30 63 -37 76 110 -27 114 16 -103 -86 45 124 -23 -25 -16 -39 121 -76 -7 69 -51 
17 87 -103 -81 -54 30 -88 -67 -3 -82 82 8 -53 -101 28 -2 -30 -98 -19 -76 12 93 -63 7 64 -62 -49 84 81 40 -50 -85 
104 -107 -127 -26 31 -1 81 -44 90 -85 75 63 15 98 84 95 87 71 -1 -4 -59 33 -93 -24 -71 -64 -95 -2 -93 -80 54 -104 
24 127 -92 -59 -105 60 15 -10 -65 -46 20 30 21 55 2 48 -6 -69 6 -36 43 27 -4 -58 76 113 -6 -48 105 -49 23 -2 
-118 -6 -29 -77 15 125 -89 -107 -94 -21 -50 -85 106 -127 94 -20 -37 -86 -14 -83 31 127 -85 80 -51 -69 -7 -22 -7 -31 -22 122 
-103 29 88 39 -107 78 -79 -97 41 -111 -9 7 127 -9 65 -122 103 116 -23 -62 -58 1 -63 -123 83 13 -49 71 -107 -83 110 -34 
-17 86 78 119 33 44 -97 -79 59 -48 121 109 -44 -106 69 108 7 62 -123 68 7 6 -37 15 -62 -1 83 116 -28 66 -29 24 
-105 -40 -57 -71 -85 -29 -84 67 54 -125 81 -105 -28 -112 -39 -45 -81 18 -105 -68 127 -46 4 85 66 80 117 57 86 99 127 7 
127 122 28 100 32 7 44 72 -13 52 -90 125 32 89 -44 39 22 50 -127 -25 50 -13 -127 -40 77 108 -67 99 115 -20 88 -29 
-57 -125 -32 -98 118 -14 94 -23 -127 127 90 -94 23 -52 71 48 118 85 -123 -35 87 33 102 -97 103 -14 -44 -125 -127 -74 48 127 
-23 65 54 -81 -66 -22 -76 -45 -8 52 -80 66 -127 64 -50 -20 -61 1 23 -67 -125 -48 123 -34 68 9 72 99 -118 -9 124 -42 
16 127 46 -73 -83 13 105 -96 22 -118 105 -13 113 21 -105 16 -28 -50 70 -127 117 -33 97 -73 93 27 101 -37 76 80 104 117 
2 117 -3 -103 -108 51 59 115 115 127 123 -21 -118 -121 78 -29 26 5 13 -50 19 61 -53 124 119 -106 -55 -2 -11 -127 -126 5 
93 0 -115 -6 64 12 -103 16 115 52 -72 -108 42 -21 102 -66 34 -106 -116 -2 -94 -31 -93 127 14 -6 -10 -120 -124 -53 23 125 
65 115 -33 52 60 56 93 70 -127 103 -109 -4 104 72 98 -80 27 127 117 94 33 126 -108 -55 28 -51 23 125 -40 -103 -40 -82 
-20 -41 127 -10 33 -35 125 54 -39 126 -29 29 87 -47 43 -19 127 6 -74 3 114 -51 103 -29 -17 53 -106 124 -34 94 -96 -61 
79 -49 91 124 79 1 104 118 -25 -9 50 -21 82 -121 54 -37 -52 -55 122 -75 31 -49 -52 14 93 -90 -23 122 41 -92 -11 -47 
-42 7 -58 114 -102 113 -46 69 -15 -19 117 -36 -84 -122 120 85 -49 92 -87 52 25 -71 -127 -116 54 -41 123 120 124 105 112 -68 
100 -43 54 122 84 117 119 -55 81 -61 112 -53 55 -41 -116 -20 -15 -27 -27 -57 -1 -76 -34 -87 -112 67 23 109 113 -94 72 12 
-112 64 -4 90 13 -87 35 -64 16 107 -1 121 39 -96 -16 -4 17 -118 -18 -72 -5 -105 6 14 95 23 41 -13 127 -71 -27 -23 
-88 -53 -59 56 4 -50 -62 86 127 40 58 -67 100 -109 32 7 -105 -127 -52 73 80 -100 -75 50 106 -87 -119 -3 -126 50 -74 -72 
23 89 77 63 100 52 -73 29 -99 42 21 -116 -66 77 -122 -76 -20 -20 24 -87 -114 98 -59 -4 -115 -68 50 104 10 -70 -97 4 
-18 84 66 -1 94 115 73 -1 -111 -127 -59 126 19 6 59 -89 95 -89 45 -25 24 93 -37 81 -22 123 -20 -54 27 -55 45 119 
103 -106 56 47 79 127 91 -64 36 -6 -11 57 -80 65 77 -64 -110 55 -78 70 -17 115 -18 104 -30 127 -61 119 7 113 104 30 
17 -83 -4 123 3 -28 -97 106 55 -98 -127 24 31 -107 20 109 30 121 2 -49 92 127 -20 -77 -114 -88 92 119 33 13 42 26 
-127 -86 -99 -98 50 -6 -117 127 106 20 28 57 11 35 -75 -75 47 20 39 123 11 -105 -44 -4 -26 -38 -38 58 -91 -71 -36 -70 
-95 -4 31 17 79 78 126 -110 127 -100 103 -74 39 -112 -38 -127 -63 -89 -93 92 -93 114 15 -35 -82 45 -77 87 -38 24 -9 -104 
-70 61 2 -22 -127 11 63 -106 32 -58 -127 34 125 93 -10 44 -73 -45 105 -71 -106 57 -123 -3 17 -101 59 80 82 11 49 -98 
7 -89 93 -20 -99 60 -36 -109 11 -68 -3 127 -3 88 97 -65 -84 -40 -9 11 105 -47 -29 -57 -127 19 93 3 -21 -99 -35 -107 
44 95 -58 -33 118 -49 -87 102 -13 -19 19 -5 -27 -40 59 -96 -82 -32 -90 -86 -35 91 17 80 61 -82 -51 -82 -104 13 -67 7 
-79 -63 60 25 -127 -4 123 102 -112 -102 37 103 127 8 79 48 100 -127 -78 38 36 -46 -101 107 -109 114 -71 50 74 113 -46 -86 
-33 -74 -8 -71 62 -53 -53 84 -33 80 -90 89 -118 -77 -29 61 23 60 53 -81 -121 15 6 38 -127 -88 104 119 -87 -23 -15 117 
120 3 -45 -37 -81 -127 118 13 116 127 124 -83 -41 -90 1 -111 54 -127 34 116 -97 30 73 -14 -49 58 87 -75 36 86 41 97 
-61 -22 -14 48 85 -32 114 125 -16 -61 5 -49 101 -125 12 -47 -9 67 0 124 82 29 -12 -68 -95 -127 -112 -72 86 32 44 73 
16 -81 92 63 -47 104 105 -40 22 -42 -104 38 -81 127 -15 -68 121 86 -23 -26 -116 107 -27 -126 -81 -115 113 50 51 -86 78 -73 
55 18 -25 -76 -127 45 -84 60 -72 14 101 -67 104 9 -19 74 -27 -127 70 -111 64 -118 42 5 -93 101 50 127 99 -73 -53 6 
98 90 67 126 69 118 -75 -70 -2 94 -7 -84 -45 94 -111 117 23 23 -58 107 -15 -10 -99 121 -15 55 -1 45 -60 8 122 66 
72 -117 -21 -84 87 37 4 -92 111 -23 -58 109 111 5 -49 113 127 -50 87 -98 -87 -9 -88 -57 -100 -15 -88 68 55 -50 -72 -11 
82 28 -106 -82 -122 -113 39 -28 -116 127 -25 -103 89 91 45 122 -79 -22 -45 -38 5 13 104 55 -20 -35 -57 -20 93 -127 -36 1 
30 -108 0 -92 112 98 -6 15 -117 -127 36 122 -92 -97 -117 -83 99 -127 106 -127 82 37 -57 -50 -126 -40 -64 -60 76 -49 -101 107 
-80 -127 -38 -74 -123 -20 -35 2 -127 107 -112 -72 -91 24 -1 -120 -38 -4 122 107 91 -33 -76 -65 -75 50 77 9 77 126 -11 43 
-30 -108 95 -42 -127 -105 127 115 111 90 115 79 -127 41 -60 -71 14 35 91 18 32 -111 -51 33 -11 100 85 123 71 -127 127 56 
21 127 127 101 44 -103 125 51 67 -34 -127 -50 -14 96 101 -95 -29 58 -93 111 -25 -127 -84 -49 32 92 -98 -119 123 -64 -47 66 
109 102 50 -17 109 -118 80 32 -98 -104 -114 125 127 82 119 113 67 -13 -29 -85 6 -126 -73 -54 -14 83 -127 -55 -49 -35 -76 -67 
15 -127 28 -65 -26 -34 -78 -86 -1 50 -15 -89 -96 -40 91 107 -127 -123 115 123 -127 58 -45 48 87 7 -6 -109 97 84 48 -100 
58 49 -59 -79 120 47 -45 -105 87 -83 -44 -74 3 99 95 88 -39 13 -79 -42 83 2 111 23 -116 -112 113 5 -102 -127 47 -65 
-118 -126 53 63 94 -14 -1 -28 121 -125 -48 122 -33 -102 94 -68 -55 -70 -3 35 -32 60 -87 -42 83 -66 105 -86 23 -26 118 109 
-13 -45 60 88 -86 85 -52 -82 45 50 -81 45 80 -115 -52 -57 -42 -36 82 62 17 23 -65 -11 127 39 95 57 91 82 122 -5 
-1 -112 -76 13 -41 15 119 15 -99 -47 -4 127 49 101 -115 -11 -94 87 37 -125 78 -121 -2 -48 -33 104 45 -47 67 -112 -120 37 
20 22 -10 99 -89 117 13 -118 -52 -110 -23 -123 -45 -113 107 -45 -76 12 -68 91 -91 20 14 61 57 50 127 -28 114 -118 75 -37 
-11 22 -28 -32 -17 -10 33 54 -127 -87 -74 -29 91 49 -53 -45 26 -52 46 -70 92 -111 113 26 28 -119 123 78 -73 -9 54 4 
-107 60 -17 15 33 -15 -42 -98 47 20 81 -127 -96 -67 120 -45 -8 104 123 9 103 109 104 127 111 105 127 111 102 63 -102 -71 
38 16 126 -31 17 -127 1 -103 -119 -87 -24 93 69 -115 -65 67 -93 127 109 -14 88 59 8 -112 85 -25 -68 -12 94 105 -11 -107 
103 69 -50 -126 -65 112 -6 -4 6 -127 -81 108 127 -39 -30 -28 122 7 -9 126 127 3 32 107 -33 47 -42 -53 120 127 84 35 
69 -76 43 -117 8 -90 -7 53 -117 -26 -27 -116 88 51 -125 -113 84 39 -4 104 99 101 -36 87 -81 -125 82 -104 -85 -63 -71 96 
108 -106 -81 120 -79 -40 -62 55 -95 29 -5 -103 127 50 94 122 109 71 -12 110 116 -29 -19 96 -92 102 82 1 15 96 67 -2 
-117 107 21 -16 -127 -74 -66 41 49 88 62 94 -118 -72 -65 -86 23 111 29 69 -31 23 -60 -88 43 -22 -67 114 -64 -87 68 -127 
90 70 91 34 120 -43 107 117 -99 63 9 -84 -1 71 84 -87 127 -96 38 13 -9 117 -1 40 73 15 -16 23 90 3 2 113 
79 61 -86 111 -127 113 -122 -26 -21 4 -47 125 86 21 89 -97 61 26 -86 -97 82 -9 124 127 110 40 -17 9 -86 17 -33 44 
-85 -127 -116 49 37 71 89 -90 78 9 127 98 -39 -117 -1 -69 63 -91 25 -37 78 37 -57 22 -76 127 23 -10 -116 -118 113 31 
-121 80 5 -99 13 59 118 -53 -122 112 -95 -22 48 18 127 -105 7 6 -79 120 124 87 86 -13 -19 -3 35 -59 -18 -23 120 127 
-98 -47 -61 -34 123 -48 71 -41 119 -35 -3 46 -83 -54 111 -30 -52 -9 118 -82 -127 -124 64 39 -20 -73 104 -113 -39 57 109 117 
71 -52 70 -78 -99 -123 57 64 6 -66 -11 -55 -36 7 -12 118 16 -77 -19 -42 -26 -23 53 -24 127 -123 -34 85 -10 1 -50 81 
-51 17 -24 4 62 37 -66 -107 27 35 79 -55 -79 109 8 -39 -111 -84 127 99 -69 84 -27 -83 46 -123 49 84 -113 47 28 96 
-7 -22 -59 -34 -8 -25 -26 -109 42 -13 121 18 18 43 29 -18 -45 66 -1 -124 36 37 73 89 -30 24 90 -127 -10 -127 -67 -87 
-70 58 44 26 8 44 -14 -91 69 -100 -57 87 35 20 122 30 44 -91 -88 -107 -69 -85 -78 15 -122 -122 -41 -40 -117 -8 -57 52 
-21 -86 -119 -53 116 91 -81 -16 -104 -127 44 -57 -99 -119 69 21 -127 68 124 102 -26 18 -33 73 16 12 71 32 -34 66 110 -69 
-22 -80 83 119 67 -7 -118 -61 -33 -120 27 -15 57 17 -18 -55 14 -2 118 -105 -62 -29 114 59 29 3 89 -14 -42 127 -68 -36 
-1 -33 -2 -59 57 19 -104 18 -118 -99 -27 -45 51 7 -42 32 25 62 4 37 -94 75 34 37 44 44 -114 -21 -126 -114 68 -26 
-92 78 -124 -56 0 -73 -41 92 -78 -60 -38 70 -88 -113 25 -65 -6 -98 84 58 -127 86 -17 7 33 127 2 -55 -127 -16 56 -92 
3 -88 -2 81 -102 121 -69 103 18 108 127 42 18 -108 -57 -113 27 127 -52 -6 -13 -66 -53 -93 105 -10 9 9 -93 -64 -113 -12 
115 62 -24 34 -98 58 12 127 27 124 -34 85 77 -51 -21 -98 77 61 -54 67 52 -40 -18 -58 -4 -68 -59 123 -101 90 7 79 
-96 -123 -55 -108 -31 -69 -98 93 28 69 -9 85 5 -95 -124 -24 29 -17 -116 12 24 7 93 -82 -18 -123 95 -103 -21 124 -115 -33 
-92 -124 -105 31 46 -63 58 -21 -15 32 51 127 -20 0 -6 57 -102 -41 39 -19 13 78 127 -57 -58 43 -1 118 -127 -48 -67 106 
-25 -123 -44 -122 31 102 22 -31 -65 -117 -17 69 102 100 95 -127 53 -101 -68 -91 57 -58 -46 -121 0 121 -22 117 -67 -94 -127 -66 
-102 -31 51 81 -76 -112 -89 59 -65 103 -125 101 65 -123 29 39 68 -43 -74 -99 -101 68 -101 -43 -47 -45 -69 -56 33 -46 -24 52 
127 125 -22 -20 -68 -4 -81 -76 -85 -127 77 75 42 30 -41 -61 -117 34 111 105 32 -84 2 -46 52 -63 -65 -84 -126 81 124 -98 
-59 1 -120 -100 -11 79 127 104 -61 103 71 -4 37 111 111 77 15 -51 27 19 84 37 41 -115 -17 -110 -41 92 -77 -5 65 -62 
84 13 89 108 31 -70 69 -5 -6 112 127 34 -55 -19 -43 89 -48 -57 -127 -105 127 -24 -85 -99 5 -71 123 -108 -13 -18 120 -67 
-39 -82 -17 81 11 -102 -79 56 25 -108 -28 -66 33 68 -3 100 -62 25 -27 -14 66 -9 110 -78 69 -127 53 -107 -127 39 122 -14 
-109 76 -120 87 -46 -79 -127 -47 -79 -73 58 -66 48 7 -100 -82 -42 -22 -75 -28 49 -51 107 -72 -61 106 113 63 -90 -56 -42 71 
117 -93 -96 114 -103 91 -52 -19 -71 54 66 -90 -30 -106 -127 -63 116 -90 -41 -32 59 114 94 91 97 -8 -122 -62 66 110 95 -36 
-42 -43 94 -8 108 67 99 44 -104 127 105 -46 94 -116 -52 -66 52 -106 -23 -51 -6 19 89 -12 -70 -112 -98 32 -87 -1 -39 93 
-14 -6 -56 115 44 98 8 113 114 20 -89 -101 -69 122 -104 36 113 -37 -40 -112 121 -103 -90 -34 -6 -63 85 -73 89 34 125 20 
-10 -54 87 46 -116 -81 103 94 17 106 70 63 -69 82 -38 -40 100 59 -85 113 98 127 115 110 91 -127 -72 -69 42 -83 127 1 
-75 -73 43 -73 -9 60 34 -29 11 120 -74 -28 51 0 -53 79 -83 -88 -83 -38 -31 16 110 94 -66 90 53 -49 117 4 82 127 
52 69 -80 -32 78 97 -41 -92 -88 108 -86 -73 -37 21 49 -125 -111 -48 -30 -46 -117 -64 -54 -38 90 92 54 -66 2 -108 127 -72 
7 100 -16 -63 -79 -43 -35 116 23 127 -111 56 -124 -66 -76 66 119 112 -44 76 -42 -70 -70 -27 66 73 -35 -20 111 -40 109 -126 
125 123 -29 122 -96 68 -4 -48 -1 104 -24 74 62 91 -3 104 72 -40 -39 103 86 56 65 -4 -4 -87 -69 70 -2 28 -83 93 
-5 -71 -54 102 -118 -39 -68 -80 -127 123 -36 117 -20 -51 -56 -27 14 106 -47 -71 77 -1 90 -119 39 -22 84 -33 -6 22 -5 -124 
28 126 -71 -100 -37 -107 63 -103 45 -34 53 37 -92 38 127 -10 108 103 -83 -49 -127 38 -58 -4 -65 -82 -82 98 39 41 -76 -27 
-91 -60 -41 -58 -27 32 81 79 -75 16 -109 56 -29 -42 -113 93 -74 4 -44 -69 -57 -12 -36 44 40 109 95 -63 127 10 -61 -35 
14 -39 -125 94 127 -39 98 -21 98 7 94 59 109 74 54 -73 -97 20 -123 -59 -127 112 -33 64 -113 -74 -89 -53 -5 43 -127 -17 
22 -43 -43 24 -82 -6 -77 -57 -49 43 95 111 102 69 19 54 38 -87 -110 -80 5 -114 -114 -25 -15 -100 -30 -38 23 124 32 -45 
-99 -75 -50 -23 78 44 -120 121 44 2 -33 0 127 104 -18 -72 -127 -127 -73 75 -99 13 69 -71 -63 111 61 96 34 -16 -25 54 
19 125 93 61 84 65 -119 5 50 89 -55 -4 -68 -55 -103 94 15 -36 -93 -78 -88 121 -95 103 -58 -68 -43 -26 -41 8 -39 -100 
56 10 -95 0 48 -38 -20 61 -75 -127 8 115 120 121 49 51 -47 117 17 -68 -9 -112 -46 63 -112 3 26 29 -84 118 88 127 
119 -124 27 -7 3 -127 85 -21 119 85 -114 127 -100 54 -71 107 -51 36 93 -53 -6 -104 -103 94 -80 -112 -31 -32 127 25 -10 102 
-93 -29 -63 15 -81 80 -127 -71 87 -63 -124 -1 88 65 -56 127 51 98 -14 68 62 20 -38 33 111 33 117 -101 -22 44 -99 94 
-117 -6 113 10 -90 -32 -105 61 -26 -108 99 -100 47 -81 102 -50 -73 10 -9 -85 127 113 -30 -73 -15 120 -94 78 -79 73 14 106 
-106 -17 -53 -83 127 -37 -97 46 50 83 75 38 29 103 -49 -90 -50 16 -37 -61 78 -58 94 -124 -55 76 -119 97 -88 97 115 -50 
42 13 126 107 -80 -108 -62 85 124 31 -11 -90 -41 -25 101 123 109 -37 97 -122 -69 25 -16 -90 -62 48 -24 -35 -34 -20 -37 25 
-86 -103 -42 -83 -64 58 116 -19 101 -31 -58 71 -24 16 12 108 -82 38 -88 -74 -69 0 -82 -98 -127 -101 -23 122 126 -67 -86 -15 
-80 -10 -101 91 25 -50 -24 63 127 18 82 64 -75 -22 61 118 73 -59 -92 -2 -127 -94 -71 -43 127 -114 46 55 84 25 -86 -69 
-127 114 -46 7 93 61 115 -14 -94 0 -50 -12 67 -109 127 125 39 13 100 120 118 -75 -126 32 113 122 -11 83 67 -26 -110 -98 
-58 -116 -43 -9 -50 -58 -11 -115 51 -48 31 -112 -45 38 -17 -93 -97 20 3 106 19 -103 -26 79 100 114 122 66 69 -127 123 127 
43 -37 -36 94 -99 -71 4 -90 -69 93 -16 107 103 59 -41 45 0 -107 -57 -101 -36 -69 51 86 -30 127 -99 127 103 -57 -27 -27 
-30 63 -98 -24 82 127 -2 101 87 -39 -75 -53 38 89 59 109 -36 65 9 -113 11 -72 -8 8 60 -77 -82 -27 121 -112 -22 13 
47 -92 94 83 127 -9 119 85 -42 34 24 -41 -89 -56 60 12 -71 -80 67 -121 -127 -2 -7 -40 -118 28 -44 122 1 -25 84 94 
0 124 -28 125 23 -94 -98 -127 -83 -79 28 112 11 -22 -6 58 97 -92 -45 -77 19 121 60 -64 127 121 -44 -55 -23 58 -21 71 
-127 -10 123 118 107 -98 -116 -49 -106 66 75 -35 -19 -125 -69 -88 78 127 55 -5 111 -79 33 88 46 -56 -10 -47 15 12 -36 10 
-46 -39 -118 -30 -93 100 119 116 -77 50 127 -23 -10 -77 124 102 46 -76 112 -126 26 -52 -18 54 -22 53 82 -91 -35 118 9 103 
22 -22 -59 -19 127 -119 29 50 7 28 -88 97 -70 -76 -52 119 -91 -62 77 126 62 -41 107 -9 -38 118 -108 -33 -61 -87 -12 94 
20 32 23 82 82 -89 -79 9 127 -52 -84 -10 82 -78 -84 -127 -83 -75 120 -126 76 -55 -88 73 -26 -68 -121 -66 -2 -92 -79 43 
66 122 83 117 120 -48 -27 115 3 57 117 -67 45 -69 95 -66 -44 -44 19 -113 7 78 -24 -10 -5 127 63 -48 14 51 30 36 
-115 5 -55 -35 127 85 -114 113 71 51 -78 99 -107 39 -19 -76 107 -51 91 -53 3 -95 -66 -100 115 -127 107 79 87 -78 124 121 
-51 49 47 122 42 69 55 58 127 -58 -26 -27 25 120 42 81 126 111 52 126 11 -88 -119 31 111 -23 -97 77 -89 -30 7 -87 
-74 -108 12 -9 76 69 -74 -75 69 -38 110 72 -32 -119 -19 -78 118 125 6 57 -119 -85 109 115 -117 -3 114 -91 59 -96 -48 -108 
-76 -62 -78 -21 -86 -101 -97 111 -65 60 122 63 73 11 60 -34 64 -59 -53 -36 -54 -5 -127 55 -98 -111 -40 -122 -98 -43 -8 -50 
18 1 88 120 127 -17 -19 -99 -36 -107 67 -65 -52 -17 98 -74 -16 -87 79 93 -66 32 -13 -88 127 47 121 -68 30 41 117 84 
-72 -85 -15 115 -27 4 -67 51 57 -95 97 124 74 -32 56 62 25 66 -104 -4 -31 9 -2 -32 12 22 121 -115 -50 110 102 -17 
-71 89 -53 -8 24 -42 -127 65 -64 -19 114 47 116 63 -35 -100 57 76 59 -113 -117 -73 83 -95 -46 6 -104 121 -118 -75 -91 111 
-63 79 -23 -19 54 -108 16 -127 58 -55 126 120 127 63 95 -85 -40 48 82 -24 54 38 -30 -17 -29 39 78 -13 94 98 4 -118 
42 -115 -55 69 16 4 -101 94 -59 -11 -25 23 -97 -104 -56 -80 -36 13 3 22 91 -127 -110 -65 -73 -80 -119 119 114 81 -32 -63 
8 102 -21 -55 98 56 -48 -85 -62 -122 -34 48 2 0 -53 -113 94 127 73 -17 -21 36 127 7 -22 22 89 -56 0 97 -51 -8 
-7 -42 -17 36 -125 124 -121 108 82 -104 87 117 -57 54 -43 -18 -104 86 -69 43 123 -107 107 -63 -109 -55 -121 -97 -105 117 107 106 
36 -91 39 87 -84 -123 -42 121 32 73 16 -54 67 56 35 2 5 -13 -111 53 99 95 -12 -12 20 -91 -29 81 63 -5 107 -69 
-59 -17 -100 -4 -85 31 121 -55 -72 -22 106 123 53 -68 -98 -26 -90 77 93 107 -70 -22 127 -53 9 3 91 44 127 68 -73 116 
127 85 -18 -30 90 106 62 90 -122 -23 -33 104 -31 -9 -42 17 116 -59 80 101 -68 -127 -16 -77 123 28 78 -19 95 -51 2 17 
-99 66 71 99 -47 -101 118 -83 -120 47 -78 102 68 68 -122 -84 126 24 120 61 -116 -12 -1 18 -56 116 -5 -42 -47 97 -16 92 
9 -127 112 -3 17 -92 67 -16 -118 -43 -127 -95 -127 -19 122 107 -24 69 118 62 123 -15 2 -39 105 29 -122 -26 -99 -77 -9 -48 
76 57 90 30 -112 116 -7 -47 93 94 110 -29 68 127 -127 93 -65 -17 -33 76 127 26 -93 -105 -127 -102 -97 71 65 -116 -53 10 
-51 113 94 61 107 -74 -51 91 -59 75 -124 108 104 95 1 -127 39 -52 -105 -11 -90 121 -74 61 -89 60 -96 -33 -42 -108 -28 -24 
-34 114 -85 62 80 -123 -36 10 115 102 -16 101 -95 -116 -114 -19 -19 108 -8 -101 1 -37 106 105 -15 -96 -30 29 -63 -121 24 -1 
-13 -45 4 25 125 111 -66 38 54 -3 -10 -30 -30 -73 -100 127 48 5 23 92 35 112 59 -111 107 -63 -42 107 -49 108 72 36 
-26 -42 63 -65 -106 -102 -6 23 80 51 -127 56 -57 -91 -121 -23 -96 21 10 102 -67 15 -41 102 -19 -101 -127 -6 9 -18 57 -100 
-111 -120 46 -10 -120 21 121 -26 -87 81 -53 28 47 19 123 27 121 108 -66 29 123 -49 -10 59 -117 -116 -45 -22 -111 14 -35 -78 
34 -5 74 -97 68 -101 -68 -33 -84 -12 -37 83 -121 90 -80 -78 61 -15 32 88 -102 80 -107 88 62 -67 -50 -45 -15 64 -28 1 
-75 94 121 86 -99 -105 -17 28 -60 42 -101 88 -64 -9 -43 -10 -122 110 91 -110 127 85 105 -37 -96 -7 -52 -45 34 -6 -109 109 
-1 -105 120 -10 32 32 -2 -75 -117 121 -49 -127 -12 -99 -34 86 -66 -126 -47 -11 58 118 15 -118 -29 103 -93 -61 67 127 103 -42 
-32 -11 -123 29 -124 -13 -86 20 40 -86 -116 -17 65 -87 127 -61 19 -104 -126 125 -53 -32 59 -123 45 -61 79 118 -65 -64 33 32 
127 -89 124 44 -59 115 -50 -8 11 127 -12 -22 -117 20 -91 127 68 -18 69 5 32 -51 -103 -13 -27 40 -56 70 -36 -86 -9 98 
-123 -40 -50 -74 121 121 90 -118 22 -120 -108 64 68 -19 -19 92 -83 126 -27 -36 -60 58 -86 44 -78 105 -104 127 -20 -115 77 -34 
96 -48 -13 98 -127 -99 -99 0 108 -32 -22 -20 -83 34 -110 -115 -64 -45 -70 28 46 -37 -34 -17 14 -10 123 -30 -79 122 17 127 
111 -113 -109 20 121 -52 -8 -20 70 126 -115 37 58 52 58 -22 127 96 -17 21 -36 -8 -73 -30 65 96 50 -7 -31 -110 -10 -21 
17 115 95 23 18 112 76 -119 -95 -17 111 -81 -30 -13 -73 -16 -45 115 83 -7 -90 -127 26 -127 -70 106 112 -50 -52 14 -72 -10 
-36 -57 -70 -19 -87 82 33 88 -47 -116 -38 93 -12 -92 -89 96 -47 -62 -23 124 126 94 34 115 90 50 -57 -20 -127 -127 -80 60 
97 68 3 83 -20 104 116 -25 127 126 -71 22 19 31 -42 4 121 -83 -71 -93 0 -119 -41 -59 -73 66 127 -8 -114 42 11 16 
118 -112 110 -20 -127 34 -107 -86 99 93 -11 88 -33 -74 -29 124 -110 92 -69 -93 -67 -14 112 110 -83 -27 -4 4 118 -52 -104 -17 
127 20 88 100 18 39 -92 -127 -96 -23 -17 -118 44 90 -121 45 90 32 32 36 -53 -85 -50 -49 -94 -52 59 61 122 127 120 -55 
56 107 -39 16 29 -41 62 -38 -2 -69 51 -55 -19 -67 75 34 -67 127 -72 58 73 -7 -6 -86 -79 -4 -127 127 10 -18 -66 -52 
109 20 47 -29 -106 -79 111 91 -3 57 54 0 43 24 -19 -40 25 106 -36 -89 127 95 71 -94 35 13 109 -53 95 41 110 109 
75 -127 -122 -6 -56 39 -57 85 115 117 122 47 2 -27 -102 -71 -34 -3 -125 -81 88 -25 -79 114 6 -6 -117 -21 36 -68 -117 -79 
-61 -97 16 -89 -29 -11 -40 -97 121 127 -109 100 59 -63 2 -101 17 113 79 74 72 -88 74 127 60 10 95 -70 -32 -9 -45 -102 
113 35 -106 -41 -110 59 56 -52 -127 -25 -78 -26 46 -26 -69 -52 127 109 127 112 -41 -6 47 -78 85 -120 -28 -14 -17 -8 -22 -101 
-12 56 -9 35 -122 66 -62 48 38 -39 58 -67 -52 11 -104 31 -75 98 105 47 19 -17 -56 100 87 -65 -33 82 -32 112 36 39 
127 95 9 -90 -56 -104 58 -41 -84 -75 127 16 69 85 -24 -39 -127 60 64 -97 -31 -47 -6 -24 48 95 -104 7 65 61 -37 1 
10 -60 83 126 -39 123 57 78 18 -41 -63 16 -66 93 -105 55 79 -83 -43 -98 -127 -121 -4 88 116 102 40 -28 -113 -126 126 -44 
61 -83 -116 -120 -39 -42 81 -72 74 -15 -100 -35 33 47 102 42 63 110 90 -41 -30 54 -80 -10 58 26 -90 123 -116 104 53 -34 
-98 -50 60 -107 63 -86 -7 -117 -60 -43 107 -37 -114 -44 -115 15 70 -105 -112 114 5 88 -81 -24 -6 -45 -17 20 -23 41 40 -38 
-42 -9 95 -115 -41 6 -127 -69 -105 116 2 -29 14 -21 -69 -47 127 -20 -102 -69 -66 19 -22 -54 -28 -100 122 50 -56 -5 -3 104 
84 -42 101 95 14 75 -33 -84 102 -15 -35 89 -15 22 88 10 -116 37 -108 -91 127 -14 60 -11 -90 -34 -44 -81 -124 66 -49 102 
-58 -39 4 109 27 127 63 27 61 -53 -70 89 89 -8 -91 95 67 -101 -57 119 92 -30 86 -66 -23 93 92 43 -30 -10 77 -56 
59 -96 110 -74 -18 79 118 -66 -46 61 75 86 120 -14 95 -47 -52 -81 -42 117 -49 16 -100 105 82 -14 60 -102 -78 -125 -72 -11 
-49 -54 -4 88 -4 -64 112 -110 -100 -24 -37 -100 -122 -86 -120 -54 45 84 39 -119 30 -118 -41 69 12 58 107 -8 31 27 123 -53 
38 -94 -96 -43 -81 -88 -41 101 70 89 -5 -97 -127 26 22 32 -65 -127 23 -64 60 109 -113 -71 -76 -73 -51 111 -120 -92 45 -57 
123 -110 118 -101 -23 47 99 96 25 -6 70 -19 109 16 -68 109 -104 59 -53 55 -28 -115 -37 -119 68 74 -28 -79 127 106 -51 -77 
-81 35 127 -4 31 118 -86 -23 -100 -96 46 126 -19 -56 -37 -108 47 117 11 46 14 122 -73 -84 41 -80 29 -97 62 -116 -27 57 
58 89 127 -83 25 123 -117 -41 -60 -123 -7 -33 81 -92 5 -10 106 -105 -86 -3 90 47 -12 -75 126 127 63 -37 -85 -20 97 114 
-127 75 -35 113 86 45 28 -65 -32 -111 -31 -1 110 87 -44 -13 94 -67 119 -59 -73 63 28 105 -87 -106 115 99 109 -120 -117 -13 
-100 -13 -96 32 -92 89 115 -13 -61 -63 -40 -41 -91 2 22 112 121 -99 45 -99 -18 75 -69 -51 56 -89 -85 -23 127 108 96 9 
9 90 117 27 -100 -123 126 -30 22 -4 84 -29 93 104 -85 119 -99 -32 18 -93 -82 36 107 122 84 45 -41 -97 -3 -56 5 -58 
83 25 127 82 -17 25 67 121 42 -99 -25 -71 -72 66 98 -33 92 116 -10 -47 -57 -40 1 -87 74 -78 -88 -43 -72 117 -85 79 
71 48 57 5 -63 80 -2 -127 23 68 126 102 -78 -90 109 91 116 60 101 127 -32 125 40 14 -45 -119 31 -43 -1 127 -7 -26 
-92 11 97 -1 89 3 11 -2 -88 -93 68 -63 43 -72 -48 122 -69 18 -127 -13 -88 127 69 -3 5 23 6 -93 67 87 39 49 
-11 72 85 111 -75 -125 102 -87 -16 55 -24 120 117 -23 95 108 106 -111 -68 55 80 -65 1 91 -43 40 -72 -18 -25 73 79 79 
24 -49 -64 19 -31 -127 127 94 7 26 -29 31 107 -5 122 22 -85 -28 15 7 112 -104 105 -29 0 -92 -15 -74 -40 -73 -59 -66 
-90 -94 -107 -105 107 47 83 125 36 120 -64 -5 55 126 22 59 -12 -10 43 -45 -97 127 -97 116 102 78 124 -127 -104 76 -17 -11 
114 18 -39 103 -117 -53 -33 18 122 36 -19 -104 91 -59 95 78 -2 14 -45 -71 121 -9 -14 62 11 -14 -46 -50 -107 111 -86 -81 
-86 -32 -120 -60 -86 40 87 -10 -28 25 31 103 -107 -9 127 -68 38 111 13 81 16 127 -60 -117 -8 33 -10 105 43 -86 72 106 
-86 21 10 72 -82 121 -3 21 91 -118 -95 -55 114 60 47 61 124 110 -30 87 97 34 -36 -45 -95 113 -98 -20 25 114 -98 -26 
-127 -112 108 123 90 -70 -73 -60 -105 49 -66 70 83 105 55 121 -112 -77 -27 61 -57 -18 64 -113 2 -84 66 15 117 27 -97 -47 
-69 -108 -108 9 -110 -94 -73 -85 -84 92 -114 126 4 -47 59 15 -127 79 95 90 14 85 -46 -36 91 40 -83 -74 35 26 -1 93 
-127 -72 73 56 -100 6 -57 -8 -100 89 -41 -80 32 -125 127 33 2 -84 -54 -90 -51 -127 -12 -29 44 -6 16 -6 -10 35 -96 -10 
-80 127 23 -97 120 -105 -79 -5 92 45 -48 121 25 1 -97 -44 -54 -81 13 -65 -81 90 -5 -119 -44 62 -124 16 84 76 -68 103 
-97 -52 3 -15 -117 113 14 -58 19 63 109 93 69 122 -127 -86 -92 -53 -78 -28 76 -120 -20 89 51 -127 21 127 -119 -28 -127 127 
-63 -124 -44 2 85 43 -26 93 -126 -69 67 117 -35 13 -58 -31 121 50 122 85 108 -84 43 -19 112 -34 -76 102 -72 1 -11 102 
95 -127 -91 -49 52 45 20 -76 -70 9 38 -8 -24 5 105 -81 -63 42 123 30 43 18 -8 -91 3 93 -45 85 61 61 -39 93 
-72 -19 110 127 78 -44 89 115 54 -127 71 -37 126 -123 112 -19 58 3 -126 10 -30 -15 84 7 33 -23 -113 -74 -49 -7 4 -81 
-127 -65 31 -51 -108 -68 -1 65 -11 -62 104 -46 -20 28 -29 -54 98 10 22 -44 127 -67 -65 41 -12 -108 -21 120 -29 -78 -95 -127 
-78 123 53 -49 11 89 -77 -21 82 8 -44 85 -54 41 -35 -86 -45 -17 103 -45 117 43 -13 -31 -121 -34 -20 -19 87 -67 -106 -25 
-21 118 49 -120 -114 13 70 122 68 -4 -101 -105 -89 78 90 -117 -102 -69 -43 52 -14 125 41 127 -63 -72 106 -13 120 43 -59 -40 
-4 -41 -93 -43 -35 -55 -36 31 22 2 -68 11 -69 41 120 -58 -48 126 -70 -104 53 -98 -45 -27 -66 68 -67 -10 -1 -52 -8 -100 
116 -9 119 -102 4 -14 -42 -85 -70 121 -24 89 72 72 104 -33 -31 -1 -7 -28 -80 106 49 99 -30 -112 107 -103 -91 95 -4 -46 
22 -14 -18 98 97 16 -24 35 106 -43 102 -11 64 -90 -6 127 -71 64 -20 27 125 59 43 118 -66 -58 -83 -36 -52 -91 80 -67 
-55 127 44 -125 -108 -1 -29 -12 -37 -34 -127 53 -56 -19 -37 -2 -1 -20 72 16 -58 66 -25 57 -38 -32 -127 102 20 -44 32 80 
-15 19 -6 -109 -40 -65 3 -46 36 41 -52 -72 60 -66 -67 -31 -87 -59 -43 93 127 -54 116 9 -122 -72 -127 -102 75 29 126 -40 
-127 -61 -34 -70 20 72 2 -14 -74 127 -69 57 -97 -118 15 -109 104 -85 23 126 40 111 78 115 38 21 -11 -46 -125 -95 70 -38 
-33 34 28 110 53 -43 -68 62 73 -53 90 -32 17 -85 31 -47 -102 -111 -41 -117 79 -47 115 124 -88 42 -1 9 16 -18 57 -100 
-98 80 -36 -12 26 49 4 -42 -17 -99 83 64 35 118 -67 99 50 109 109 -68 9 88 -44 -56 45 4 -53 -121 -78 17 119 -121 
94 52 -37 100 42 65 61 60 -56 -63 107 -68 -98 100 116 -80 -102 95 52 -28 -3 40 -25 62 -113 -118 -70 91 -99 -62 123 -111 
-4 -127 107 -121 85 12 -34 54 14 -14 79 35 -75 122 59 28 -24 26 -28 -11 54 -113 62 -45 -45 24 123 81 -113 -111 44 -50 
-40 -93 -76 123 -60 95 -95 -89 -32 -86 -59 115 -127 -115 59 -89 -15 13 54 123 119 -33 -90 -123 -101 -92 8 49 30 13 -57 124 
-25 -117 54 -108 0 -84 -47 -41 95 7 -1 -64 -62 127 89 -27 127 115 120 110 -18 91 55 127 4 108 -26 -75 -38 -97 -47 -22 
-74 -96 91 85 -19 -70 55 -14 -86 115 -64 -8 -61 68 -43 -80 -72 -27 -53 97 34 -115 43 126 -22 6 29 119 49 32 73 91 
37 -114 -117 -10 67 -91 36 -127 -24 56 75 -35 80 57 85 -37 81 -58 21 -3 55 -117 110 -1 123 -47 -39 7 54 69 -61 -69 
71 9 -24 -115 -85 97 -39 108 -95 -85 -73 83 103 79 -95 23 -77 84 84 -45 94 -2 58 -111 5 89 -22 -23 71 -7 25 89 
-104 93 127 -37 -32 -18 -20 122 -127 102 -108 21 -82 -97 102 -117 32 75 -33 27 23 -53 101 -81 4 -127 -112 -19 -53 -59 -2 122 
-71 -81 -44 -81 -116 -46 10 87 -127 11 127 31 70 78 61 94 -125 -99 -38 121 90 -28 93 -112 -75 38 -36 -101 53 11 -105 -50 
121 4 -26 122 -50 -21 28 96 -28 44 -37 -44 78 64 104 -34 13 -24 125 117 -4 -108 117 70 25 127 -22 -77 -96 105 91 26 
-75 82 96 31 14 44 -20 103 14 -127 97 25 -10 10 18 109 -65 16 -12 109 -42 -101 47 47 22 42 -54 -11 60 -87 -72 -15 
44 31 -74 94 -27 70 102 -101 -39 -108 25 68 112 18 71 95 -9 -18 111 -78 -119 -41 77 -83 94 58 13 -39 -109 40 91 -29 
69 20 51 104 6 101 74 -21 -16 -9 -103 -97 51 15 -110 -122 38 -73 122 -49 -48 -85 83 80 -80 62 -97 -31 -39 117 5 -64 
21 -39 -44 -25 69 17 92 -67 114 113 -45 -95 -37 -29 -112 -87 19 -57 86 -51 -18 -122 -33 25 -55 98 -12 49 -118 59 -27 92 
18 -105 92 119 49 -74 -113 -44 -73 88 52 -47 13 5 -105 -43 -35 -87 -85 -26 63 -45 -63 82 -94 11 19 101 -60 19 126 120 
98 97 -50 102 100 84 -84 -24 -55 106 -61 -21 -68 39 -98 -55 68 69 68 -119 -124 -41 103 -89 -50 -20 -12 61 -58 127 -70 -43 
93 94 -22 118 -104 8 110 117 1 -46 -30 -5 -84 91 31 51 93 40 -62 82 -47 -116 -74 -43 -9 -127 -71 80 -66 58 127 -108 
2 81 -11 46 126 123 -8 38 55 33 17 68 111 63 99 -97 52 94 111 105 11 -2 115 100 -117 4 15 105 60 -93 -73 30 
-43 54 -98 63 -23 -119 -72 127 32 -84 106 -66 -28 100 -71 28 54 21 95 -49 14 114 -97 68 -52 95 -23 -85 -37 -16 105 23 
30 104 61 -76 -13 -102 105 126 29 -24 127 -103 55 -127 127 -7 50 48 -107 -47 -127 -15 87 124 -89 71 -53 127 77 113 127 45 
-51 95 -73 -93 -4 -77 106 -94 -61 105 37 -52 -8 72 -30 -11 -82 61 109 94 -64 -89 -105 27 68 -89 -24 79 -21 6 -16 -97 
-40 89 -84 -101 48 -50 -55 -16 -42 -57 92 95 93 10 98 79 -70 -8 127 -122 -99 -90 -43 13 -20 -80 111 -40 52 -124 -103 -113 
-42 -105 -123 62 -59 80 -10 -107 16 103 62 21 -70 8 27 -91 91 -120 -109 16 79 80 -72 -35 -15 -101 -30 -30 62 108 -31 -45 
-17 -127 79 -42 -83 4 30 -80 -76 80 83 -70 -53 -73 126 -30 -4 -34 -37 114 106 18 54 -127 86 26 54 -83 -57 -53 75 -69 
90 60 8 -22 45 -76 43 -68 -32 -127 90 119 -102 -8 -88 105 -121 -94 49 -118 38 -103 -91 42 -107 37 -67 -84 45 15 -74 56 
91 37 -86 -127 -65 -87 -99 -12 100 112 -5 -120 14 -64 -107 127 75 -25 120 -45 -31 127 -30 -10 2 -92 -26 -46 101 33 24 -15 
-18 96 -42 -12 116 118 -33 9 -127 120 42 63 69 100 46 -6 47 19 125 83 -64 98 -77 78 41 -28 -55 102 30 -87 53 -11 
78 -69 -43 108 -64 -18 34 23 127 12 -90 -41 94 -97 21 112 -85 31 44 44 39 22 -15 -28 -9 -56 -57 121 -123 114 -98 126 
56 6 127 23 27 48 -59 -73 22 -115 50 -31 107 23 -86 -105 -74 -84 117 -35 -121 -48 91 -82 -114 -10 -127 16 -50 127 78 64 
0 -116 -2 -60 16 58 26 68 127 -97 52 -10 21 110 30 -18 89 -105 127 81 -69 109 35 81 47 -55 77 102 -22 -69 93 -26 
-105 24 7 25 35 -114 -72 -55 -100 -70 63 -46 -36 -16 -75 -95 -16 -82 -92 108 -108 94 -93 127 85 -121 111 -79 39 -69 110 -49 
18 -13 69 -28 34 -47 122 -26 76 52 -30 103 -34 -41 127 102 85 11 -105 117 109 28 -34 -100 74 -106 -127 -32 127 -103 -27 -101 
41 61 -20 -27 116 -66 127 -83 -83 -13 36 -43 74 106 125 39 -86 85 -97 86 -48 68 -73 -88 -113 80 -10 -3 -121 108 -114 -37 
-9 127 -118 68 -56 55 10 65 -51 29 -42 55 -38 62 -42 -38 127 36 -82 62 -73 -108 127 81 97 95 -7 -31 120 80 -104 67 
123 26 -39 -53 -127 -114 77 -67 74 79 18 -80 -34 -117 63 -103 29 -49 -81 -76 71 115 -27 -113 89 -62 127 96 -104 -113 28 67 
-106 127 -23 -101 -93 127 76 -99 -116 -32 124 12 -4 20 57 119 -6 1 -49 -87 1 -104 33 41 -121 75 13 117 -117 -83 -24 -73 
-89 16 116 -108 108 -108 -125 -66 110 -22 125 78 -79 -114 -43 106 -60 -127 7 -93 -79 -68 50 23 -104 -127 -57 -57 -18 31 21 -118 
-40 127 110 -79 121 -43 -11 106 22 -3 -82 -127 -100 -84 -54 -117 105 121 -82 46 109 -113 -109 -66 39 -56 66 25 3 -52 -108 102 
0 99 -18 -31 -122 90 -35 -125 -101 53 -65 101 -36 -51 -73 -52 -48 75 55 -39 13 12 -25 -75 23 115 -41 -50 -125 126 78 -7 
67 79 -32 58 -10 35 -18 87 -40 -81 -16 -10 -83 -72 -53 -124 -79 110 -55 96 -127 93 65 127 -18 -89 -17 81 15 11 74 115 
58 2 58 -94 68 94 55 -23 118 20 42 -86 -37 62 2 -18 29 -48 67 67 23 125 -11 -103 66 -106 115 -64 -81 124 60 -70 
-127 81 -57 -105 -86 25 -85 -40 -63 127 84 -1 -42 -81 98 -33 22 39 45 63 -78 -101 -64 5 91 57 -50 -69 104 44 117 124 
116 21 119 51 37 46 47 3 126 37 -13 -46 -35 -7 96 78 -125 103 -122 9 -75 97 -119 25 -12 39 -39 -12 -15 -28 7 113 
-126 -116 34 -126 97 -42 115 31 35 40 -116 -83 88 -72 -107 -126 22 -5 -57 86 -18 33 110 -43 120 105 -86 -10 100 117 74 -107 
-8 127 -75 -15 90 109 127 84 -72 18 62 88 48 -23 -92 -3 -95 -36 122 55 59 -117 16 -16 31 55 47 -36 -126 60 111 39 
115 124 -77 116 -46 -87 -80 -45 -26 50 -36 -45 17 58 65 60 -14 87 -68 57 -32 -82 -27 -104 25 -62 91 -71 83 -43 104 10 
-127 117 -9 -121 61 127 108 -73 -92 -95 -62 -36 115 88 107 -93 -101 -11 -106 25 116 120 -19 -54 -35 -35 -47 -127 72 -60 -19 31 
7 15 -44 -19 9 -9 -94 -81 56 99 -7 -89 -127 -13 79 -22 -9 35 -22 79 119 25 -52 -11 111 -72 58 72 -82 -114 -113 -36 
24 -52 114 -25 -99 -95 -122 -12 -48 -87 -22 31 -43 -56 83 44 -80 97 65 -88 -86 -77 -111 -95 123 86 -41 -90 127 112 -21 30 
-3 -33 -8 62 -58 10 -18 -117 -99 -72 112 -127 76 -127 -50 115 -50 81 72 -31 -86 73 60 125 36 80 121 17 114 81 -72 59 
-77 -64 -98 79 53 8 90 -127 -27 -14 73 32 118 -102 119 -107 -127 -94 97 -17 -59 -32 127 99 -89 -27 45 51 120 -74 115 -89 
-57 -122 101 74 -5 -127 -108 20 -35 -69 -34 30 48 -117 72 -12 -29 -49 68 -2 62 -5 97 -103 -61 58 -41 -102 -85 -9 -106 66 
13 45 62 -69 104 0 -68 122 -116 41 -78 97 -89 127 -25 -14 -122 -94 22 73 96 106 -53 117 -74 -17 -56 66 24 68 -15 43 
0 -4 -12 -36 -25 -88 -117 -84 77 94 97 -96 -28 37 -8 -68 -58 47 -5 35 -58 29 95 -32 -94 32 -64 -30 59 25 -105 117 
3 112 16 101 21 105 38 38 51 120 85 126 86 -87 -72 -15 -127 -66 30 70 -122 25 -86 -83 -84 103 -121 -41 -127 -44 -61 -127 
100 101 109 36 -102 57 -57 -83 -101 -99 -102 -96 50 127 -60 -11 40 -119 76 -15 -55 -45 -47 -13 25 65 24 119 69 -118 22 13 
127 -39 -67 -86 -50 -25 -15 -83 76 -54 50 -77 20 53 -83 91 -111 41 -39 122 114 -7 84 85 21 -127 105 4 -97 127 -5 -118 
98 -98 88 3 124 92 -127 -122 124 33 -107 -35 -109 -21 67 44 -3 102 -40 -23 -57 49 -77 -53 -123 64 106 -66 21 86 32 -95 
-77 -126 -64 85 49 127 -117 -35 123 -103 77 69 -100 114 127 67 -116 43 77 26 -23 -114 -18 15 112 31 -66 -96 -94 94 -57 -32 
-102 112 119 -102 -88 -18 24 -52 -127 -98 -118 -110 -115 81 -36 115 -36 -109 118 -82 -54 -115 31 30 12 -101 -43 6 20 -55 -31 -18 
127 12 -41 90 -67 -62 113 102 98 2 -114 95 -121 8 55 111 -78 125 32 123 -11 74 -19 -119 14 30 -70 107 27 -70 102 -70 
74 -37 -53 18 16 -107 63 -24 -83 -55 -29 -93 10 96 -73 -13 1 127 -107 -115 -99 127 -2 -92 76 -19 -58 -99 -102 -60 -127 -83 
-55 -12 22 -5 -123 49 127 125 -23 94 0 118 0 119 -13 116 -54 62 79 110 -100 -65 66 22 -34 -17 99 -109 69 -112 -73 71 
-89 -84 100 127 -66 69 -46 -19 84 -119 -27 59 -1 25 7 -87 -103 -5 59 42 -7 -88 -40 113 -116 -108 -97 85 91 -7 -95 21 
127 37 18 -40 22 -40 -12 -50 12 -114 -116 -123 -41 62 111 101 -3 -52 125 -73 -56 116 -7 -72 -116 -41 9 94 116 -46 -76 14 
71 58 -3 -111 64 -110 -67 -107 -81 112 -27 73 -109 -54 -27 -15 -112 104 -34 -30 110 -37 -127 -10 -10 72 -77 -25 101 -87 123 114 
55 16 40 -57 -41 26 -68 -80 -71 -48 51 -6 103 -127 -68 116 -76 85 91 -88 26 40 -107 60 -127 -112 31 -26 -125 81 127 100 
-94 7 110 -1 -20 -7 42 127 -127 16 -13 -80 -25 -95 112 83 102 127 36 119 57 -100 -37 27 96 -53 14 3 -107 -107 12 -105 
-88 -16 62 -89 -47 127 -91 -68 29 -104 -99 69 -45 -65 116 95 117 -37 125 -103 -112 72 84 1 -50 26 -64 100 -127 63 -74 93 
83 59 82 -70 83 47 112 54 -25 83 113 -18 -48 -106 21 -94 -55 -110 68 -55 57 30 -74 -26 -5 91 98 -65 -80 104 27 75 
-82 94 49 -32 14 98 -16 126 15 78 92 -97 -35 53 42 77 127 123 127 82 -20 -49 -13 71 127 -99 124 -46 18 -106 -20 86 
118 -37 -89 -12 -65 94 91 67 -10 98 15 -76 44 -48 -61 -49 -120 -74 -21 -55 78 56 10 46 127 -57 127 18 39 -78 -98 -39 
55 -75 -57 51 -102 59 -117 71 -108 127 61 -20 -77 15 80 7 -94 -83 64 94 127 29 -99 71 -52 -33 119 92 1 116 -65 -58 
-87 74 -58 89 113 117 103 -68 -70 57 44 65 -10 -2 88 -69 -107 99 38 -80 111 86 -85 122 5 107 -25 100 122 -13 -70 -42 
28 15 -97 85 25 59 -49 -82 90 -38 -59 -29 36 -98 92 -4 -95 55 19 127 73 103 116 79 94 73 -101 127 124 -23 -19 53 
127 -59 -34 3 -127 54 48 -31 75 115 -37 90 -127 78 -36 75 -117 -23 60 61 -84 40 -71 95 -52 -98 -42 -38 37 127 -95 55 
71 -25 -74 -70 125 -70 -33 -108 -16 -46 127 -127 32 80 -27 -122 -48 -53 127 -37 59 26 -57 47 98 -127 127 108 30 -67 1 -47 
49 1 123 -115 49 5 -98 35 31 -118 3 -44 -80 -101 -8 79 -97 94 -10 -46 -84 -46 -41 66 -53 -120 -23 -96 -75 82 -77 -70 
14 -104 17 15 -92 1 -101 -8 72 -55 94 -57 112 127 127 -55 -19 110 -15 -67 55 -93 -44 -46 123 -111 -66 60 -81 -5 21 -8 
110 -6 119 127 88 84 -77 110 -32 -15 -74 23 85 74 -5 42 -127 -36 127 116 -71 60 122 -57 74 35 55 -84 86 2 0 71 
-101 -70 -1 9 -105 60 -13 61 65 117 53 101 48 -60 -12 110 0 122 -13 -109 -119 -62 -122 57 -107 127 102 -75 91 -28 -9 52 
3 73 -97 -26 117 -88 -23 -44 -5 -52 -76 111 -56 123 -24 74 -67 -52 63 91 33 -98 58 -103 -46 119 -12 91 93 48 -121 -117 
-127 -13 -62 103 -90 127 -88 -33 96 -96 -85 120 66 30 -56 27 93 -87 -37 53 124 121 -33 28 22 14 31 -38 68 -39 43 69 
53 -67 -2 56 -64 -50 93 -124 82 -22 -59 71 -91 -75 -86 -35 -73 -64 -45 109 45 -82 -108 4 82 -108 27 12 127 -59 121 118 
75 -46 127 -42 63 -92 -127 -95 96 -28 123 57 94 -90 -78 123 127 -78 -43 -31 -69 -18 126 -36 -55 -101 -59 123 102 -111 65 -70 
58 -70 -27 -35 -48 -106 127 28 42 -38 48 47 25 89 -15 33 80 3 4 39 81 92 -6 -78 -4 6 53 -39 5 65 90 88 
-84 -26 -58 -66 -127 67 116 104 18 7 -75 -6 63 69 90 -10 -110 -32 -105 -82 41 -30 -39 120 -111 83 74 23 46 -1 -63 -65 
38 88 23 -84 56 54 69 25 -127 50 -97 -44 80 -13 126 -52 -12 37 -61 60 47 -68 108 99 -68 -99 121 -75 -102 -90 -109 68 
-21 70 -59 79 -39 -59 -23 -98 -22 -109 81 82 -27 8 -53 -127 -31 35 -11 -26 -72 -41 79 -14 16 -69 -106 -12 -117 56 -87 96 
77 3 -54 119 71 110 37 102 -127 -87 22 -107 -72 -5 93 59 -86 29 -4 -16 40 -75 33 -36 -4 -114 75 124 -6 57 -69 57 
124 37 -35 -87 17 -23 -75 -55 -41 96 -46 -35 -111 -91 108 76 -7 -16 -24 -74 83 78 -119 30 28 -112 55 -75 84 82 32 65 
-127 -124 78 -21 31 -126 -24 -69 -46 93 -38 94 84 56 -31 97 91 -110 96 16 127 33 31 -14 -94 -16 65 -52 55 100 49 102 
110 -10 -102 -67 121 -82 -20 36 -67 107 -32 40 -9 123 110 -74 37 112 31 94 -93 118 47 89 -50 -75 -102 -36 7 -108 -49 -103 
43 69 67 -18 11 71 -1 -118 111 -50 -115 -25 10 3 71 36 100 58 30 77 -43 127 111 111 2 -69 -55 -18 -53 17 -29 -45 
69 -93 -120 -69 0 -36 -23 -89 92 -84 -19 38 0 -118 -57 -28 -119 64 -24 52 101 -122 -121 123 -127 65 -80 -127 -49 66 -33 -127 
0 -84 -4 -102 127 -105 49 -115 55 -96 48 -108 32 -6 -66 39 -65 -43 83 -49 127 -92 -80 -104 117 -34 -127 -56 72 100 -113 55 
24 90 106 -85 56 -18 -41 27 57 56 -17 -110 7 -49 41 -87 -116 83 -66 -56 22 -33 12 57 107 -32 86 -49 -125 -34 -94 95 
48 66 79 -44 96 3 -47 -18 -32 60 -6 -117 12 -2 127 -92 -114 -81 -92 -45 -119 -103 -5 112 -116 69 12 -26 -32 102 -68 -82 
71 100 60 -67 48 -104 -71 -121 -40 111 94 2 62 7 -75 -89 -26 2 -6 -109 106 78 20 97 -64 88 -65 -127 4 9 -75 55 
-118 1 85 94 -114 101 102 -121 -33 -76 -75 91 -45 -22 113 -17 28 -82 94 27 -1 -2 -108 -127 13 12 -43 -75 -83 -63 29 92 
-69 2 -26 -10 -40 -90 123 -59 72 -55 3 -60 -39 127 63 125 -33 95 -38 -104 127 -95 -85 -53 31 111 95 66 110 -12 -51 -76 
-35 -47 86 -21 55 -124 -120 -37 122 -19 -106 19 -127 22 -4 30 -100 -64 -65 -118 -72 -16 -6 -24 -4 51 -52 41 82 -23 -98 47 
41 17 -87 2 -58 13 3 -97 -123 -94 -34 -87 127 82 -98 -65 65 17 114 -44 -33 -111 -59 45 -95 39 -73 -109 -76 31 67 19 
-23 52 54 38 83 -72 -41 23 -71 109 -93 14 -60 -76 58 127 38 -33 -90 -108 105 64 -25 -86 115 15 40 -110 4 -36 -68 52 
-96 -101 -82 -51 -57 -105 40 117 30 80 -35 -86 94 103 107 110 86 48 -4 -28 122 86 1 97 83 45 104 2 28 -5 109 -113 
-82 -127 -51 -41 -19 -98 72 -79 -15 13 93 -51 84 106 111 82 -114 46 77 120 127 127 -115 -108 -69 -25 -35 -72 -125 3 -114 -119 
58 -100 84 -32 -89 -127 55 -14 76 103 -127 -5 -102 -5 16 64 68 -72 12 17 16 -116 45 -81 41 -120 111 50 103 -53 45 -44 
-19 81 105 95 27 -127 -116 -44 13 -101 -29 -38 44 -26 101 -37 -94 111 60 -13 57 36 124 25 82 51 9 -105 107 -56 -113 110 
-112 117 -119 -3 -88 -17 -63 64 -60 44 -90 -6 -57 -85 113 33 109 -98 -10 90 79 -52 124 -57 -81 -7 -28 -49 87 117 -94 -53 
58 124 93 45 66 -36 -23 -43 -96 88 -91 100 -110 -60 20 33 125 -65 114 -46 -77 -114 115 110 -83 40 80 97 -76 -94 -27 -18 
-57 -65 -12 -101 -127 107 10 -90 127 51 -89 84 28 63 -22 107 6 -41 110 -29 -80 127 86 -122 7 -20 68 46 83 37 43 -35 
-127 12 52 -40 -111 32 123 -63 109 -11 116 -13 40 -69 -42 -100 66 -121 42 46 115 2 -91 102 -38 -28 55 -14 16 110 -121 -67 
-12 -103 -61 102 -55 49 -45 -89 -22 -84 114 -127 -52 -12 74 65 26 77 103 81 -123 -77 -67 58 -18 65 50 97 -28 108 -30 25 
-54 42 -89 -51 50 47 -39 5 127 96 -84 -71 13 -21 -39 110 -106 -9 91 -15 -30 -32 62 111 -71 -108 -45 -6 69 5 -121 125 
-31 116 5 117 -2 37 26 -121 -50 57 111 -79 -47 -41 -64 -12 -47 -50 -125 -67 -116 52 -21 110 -47 -45 91 -23 -3 -34 112 -20 
-58 -31 -97 92 -127 -100 -59 -81 61 1 48 59 -80 -7 112 106 46 125 -24 -52 42 111 -69 -55 75 46 -6 -47 37 -45 -55 5 
-37 44 -21 101 101 53 41 123 40 87 -7 47 35 40 -117 -10 -99 -101 -127 -1 -38 -92 117 -105 -29 59 -112 13 -92 127 -23 -38 
11 -1 57 -43 -7 -114 -62 99 -49 114 -55 -35 125 18 73 100 -75 77 -17 5 127 120 28 -23 -18 33 -37 -121 -89 -127 62 13 
-76 -116 61 66 -113 73 92 -18 122 109 2 -106 -112 -14 96 55 31 114 -69 30 7 -19 107 47 36 -82 30 65 -127 -97 126 84 
-24 -93 115 62 81 -15 11 60 -30 -60 114 60 -36 61 -78 -11 -87 -78 123 -91 54 -52 61 -52 57 -88 69 60 -25 -104 -85 91 
25 -35 -72 -23 1 11 6 37 103 -102 81 -5 -98 -41 37 106 62 13 -11 29 104 117 67 -57 16 82 -42 62 -85 33 48 31 
127 -127 -115 12 -124 -127 54 -73 126 15 91 -52 21 103 110 -69 4 33 44 -127 -127 3 -86 95 108 119 18 -127 -34 61 -105 -38 
127 36 -5 26 -52 -32 41 14 -2 -107 33 -125 115 61 -87 95 126 60 -69 -31 -37 -127 -80 -123 113 54 -15 -57 -109 33 -26 -39 
-76 -60 31 69 -111 48 -49 -62 -60 113 119 30 126 -63 -30 76 -15 -43 -127 77 -65 -52 116 -107 115 37 -115 123 -53 -9 100 -55 
21 -4 127 -87 60 -127 100 -5 12 127 96 -18 127 113 101 -46 92 24 58 -118 -51 11 51 -10 14 86 64 61 71 -55 78 -39 
-63 101 78 126 -70 12 -103 -45 -58 -31 68 -67 -93 -44 -37 -91 -76 -126 -57 -75 7 99 -118 75 53 -39 -17 -12 30 -68 -55 -4 
-52 -61 55 122 106 65 106 -69 -117 91 63 -54 71 -61 78 87 114 -72 -90 -32 -36 109 82 54 -33 75 -10 30 -81 -19 -81 -30 
-85 13 31 -104 -79 52 114 125 126 23 -105 39 -78 30 -81 -127 93 -36 36 121 102 -108 -27 107 -116 82 56 -10 8 -92 15 116 
-50 -120 -18 -40 -72 -18 -39 7 22 -75 -109 14 0 -2 -61 -41 84 110 -24 -37 59 -42 -108 82 6 -11 -122 -118 -33 80 83 -35 
-10 91 -3 23 -118 88 -4 -35 26 -37 -3 56 -107 28 -78 -92 -117 58 43 -81 -101 -104 47 51 -13 -45 -113 -27 56 73 92 50 
-88 -91 -113 -84 -13 11 109 -20 -67 96 -48 54 81 -117 -127 -120 -1 50 -126 -87 66 -127 -38 -45 8 27 -23 -99 3 23 44 0 
123 81 87 31 55 -23 91 -91 -67 83 -20 121 116 -98 -23 107 27 10 -21 -28 2 54 -43 -11 36 -4 15 3 -44 114 -49 -55 
-91 -125 8 -61 118 82 22 114 -49 -21 105 123 95 -65 72 107 43 -35 -127 2 51 -85 -13 -45 -118 -63 95 85 86 127 35 -64 
-67 -61 84 71 -2 0 -30 -35 84 68 41 -109 91 -127 -20 105 56 35 67 43 76 -39 -84 119 -60 -74 6 122 -62 88 -96 1 
34 -3 -23 -70 -99 -24 -62 103 -9 -11 72 -62 -127 -80 -75 -20 -14 2 -19 114 54 127 41 127 21 23 112 41 -124 -110 125 108 
-41 -21 1 73 -32 -74 22 8 39 92 111 51 -6 34 -31 -38 89 -11 65 41 -127 83 9 -65 16 -1 -33 -104 59 -82 54 -98 
113 -51 -18 -92 78 -70 -70 103 -30 121 51 -13 -7 84 -114 -24 -117 -81 90 -96 22 58 -44 -34 91 -53 -119 -67 -4 7 10 -37 
-16 29 110 107 9 101 -18 23 22 -123 -73 -79 -19 116 -75 -70 -48 -13 -97 99 -97 117 112 -127 -24 -68 113 -5 31 105 110 79 
55 -88 -127 116 127 -38 -54 -19 -90 -63 59 118 120 -73 -69 -59 107 64 -1 35 91 -64 -89 -17 99 9 -39 -39 -36 105 74 11 
69 -49 106 108 5 31 -15 -75 -86 33 35 44 -103 -119 -46 -23 12 21 102 -43 -5 30 85 -73 60 -122 -81 13 45 -87 -60 -101 
-16 -83 125 -86 104 -24 40 115 19 -7 27 -49 -117 -112 107 -43 101 -7 -109 -11 -17 -95 60 -60 -81 -25 12 -113 -20 -108 -91 -35 
86 -32 -88 107 40 39 -85 -107 -93 108 -7 -40 35 -98 -107 109 89 -108 -114 98 100 6 121 -25 107 42 94 117 5 -70 6 94 
-5 22 31 37 47 15 -33 98 100 -93 115 127 67 63 28 97 10 -22 -13 104 76 -10 94 -27 27 -48 13 67 35 -29 -96 113 
-74 116 -21 -46 85 -112 122 65 -86 -112 -90 -99 -120 -60 126 120 -102 -125 -115 -97 76 2 -66 -127 29 50 -38 -71 56 -16 115 -45 
72 -106 121 -103 71 -65 117 -106 -112 -82 55 -14 -5 -79 -121 -96 87 -23 48 120 -63 13 51 -2 -54 -91 86 -66 -108 -113 -31 -38 
127 13 29 -8 106 99 -8 -15 47 -50 -127 -118 -103 -69 -109 42 56 101 15 1 -6 59 57 -49 96 116 -25 4 -12 -21 50 12 
42 -113 62 -27 63 -11 117 56 109 -30 -123 82 -111 36 123 -106 95 119 -61 123 -15 112 -86 117 31 38 58 -76 104 -29 43 -19 
121 -110 118 17 82 75 -114 64 107 -24 -38 109 122 -102 -93 -12 -13 18 -127 -91 39 -9 102 5 -59 -111 105 95 106 82 113 100 
90 127 37 -19 -40 -74 14 -65 -121 -60 -3 -73 -3 -81 -125 47 45 75 88 57 -99 85 123 53 96 -115 -126 -69 8 42 55 10 
-49 23 -22 -50 81 29 44 123 -37 14 -87 -87 92 111 -67 -24 121 -125 -113 107 -45 54 95 15 90 98 72 -93 -65 -6 -75 107 
20 -99 64 -15 -127 -95 -35 119 82 127 93 -15 127 113 15 -28 65 -89 -84 82 -114 -16 -78 120 -54 -26 110 -82 52 102 -33 78 
-21 -62 95 74 -12 15 -18 -72 127 127 -75 -105 -126 20 68 -11 79 -11 127 13 -1 -67 99 126 105 58 -28 -37 108 35 88 113 
101 24 -84 -81 -50 -23 37 37 120 112 -88 22 93 -14 -124 -1 58 88 -49 -16 99 -127 127 -127 86 -32 -34 33 109 -123 -74 61 
-11 76 -107 5 -117 -32 109 96 -62 124 -19 -86 21 71 -91 -28 -100 23 -127 19 -104 -127 -127 61 102 -103 -51 -36 -1 -48 -22 37 
90 -118 -71 16 45 -23 -45 -12 17 -3 125 -106 -56 119 10 -109 80 97 21 -26 -1 109 85 95 33 80 12 95 30 39 111 -41 
13 -69 -25 -103 -68 -36 -62 52 -63 -74 57 -73 103 32 -76 -18 116 105 -29 -45 -59 -36 56 47 -1 -127 124 -117 29 -21 127 69 
127 73 -14 124 87 61 -54 -33 -51 -63 -39 55 119 104 -45 93 127 -52 -12 122 -30 108 -92 -66 -1 10 71 111 119 -117 96 23 
61 47 63 23 106 95 55 -77 -15 -75 -45 125 114 50 101 -68 -102 59 53 108 -18 -104 -13 -54 -42 9 -46 -112 -76 23 -61 -118 
-86 76 6 -1 -30 114 108 72 57 94 -49 -127 47 113 -117 -67 -84 95 -58 -11 122 25 16 71 110 73 -52 40 21 -27 -49 46 
-105 127 75 92 -115 127 -55 26 -60 17 115 121 -62 -73 110 123 91 -97 -100 98 114 -84 -124 117 -105 -117 -65 19 3 22 -17 -127 
-106 -95 16 -16 -93 62 -91 -69 -39 -21 -55 88 -21 93 5 17 12 -105 -116 -9 -16 102 107 -14 -67 -121 23 79 -11 -27 8 -101 
105 -85 -73 46 64 104 -73 2 127 119 -23 -2 -56 60 -31 125 127 -110 -9 -94 16 127 108 -99 -56 -43 -66 -92 8 -104 46 -4 
37 -2 -78 -127 -15 -99 37 76 -13 64 -53 -57 -127 30 -88 94 -37 92 -123 120 -126 33 -24 -39 -127 96 -89 109 -119 26 9 106 
-13 -44 -33 -40 -36 -125 127 73 -4 83 -9 -74 -73 49 52 37 -123 0 -65 127 -21 97 -5 14 -25 48 45 -126 68 98 119 -78 
-126 116 93 121 93 -93 -88 20 81 127 -113 26 -90 -127 -41 116 -100 1 7 -3 5 -127 -40 57 -12 -47 74 68 -90 119 -7 -106 
9 73 -28 -57 124 -127 18 14 52 33 -7 15 98 -15 18 -4 -13 -80 121 116 96 35 -106 -127 -41 0 -7 -61 -53 96 -100 117 
40 -56 8 -18 98 -48 -105 -99 44 -121 110 -76 -71 -86 -67 58 -16 35 -124 126 -95 -120 -9 7 57 82 64 84 -92 -112 33 -70 
-32 -51 118 -51 55 -23 -79 20 29 63 -39 12 66 -30 -22 55 90 -19 -41 23 -14 -25 50 -114 -16 -108 124 124 127 6 -80 -17 
111 -75 -115 36 -48 -60 -127 -35 117 44 -100 -35 -23 -33 107 -79 60 37 -45 107 -9 86 8 97 6 59 -83 124 -12 -11 -34 -45 
-100 -4 35 126 127 -110 -69 -46 -101 101 -101 -115 69 -99 -12 84 -34 82 69 -127 52 -84 -53 93 118 122 -50 -1 -127 80 64 -23 
114 -5 -35 86 24 40 57 -75 -124 -37 7 -78 -20 0 -33 -123 121 -17 -39 -20 85 -30 95 11 -23 -48 -37 56 127 -82 -13 23 
-105 126 -127 -15 -127 -10 107 -71 77 74 -10 -46 -66 11 23 -70 -58 -86 53 59 -46 106 44 65 34 118 59 93 -127 -125 4 -122 
-92 104 1 56 -50 83 -56 -2 61 -102 6 -95 63 -118 -50 -107 -127 43 -119 -127 -30 -45 115 -22 -98 114 127 -92 43 -70 65 95 
127 123 -17 41 34 -5 -112 -23 115 71 22 -62 26 21 -51 -113 -45 -67 -9 41 -80 15 -33 8 112 -32 -93 -105 39 -85 -25 -93 
-27 30 118 55 -61 -18 102 98 -36 9 -57 -12 -65 -59 73 -3 -50 -3 -57 -41 44 -34 -81 -91 -127 59 31 -98 -106 -120 91 22 
-65 8 13 -52 120 -99 -31 -7 -107 127 123 120 66 -102 -1 -118 68 -56 -111 116 12 -27 127 -32 77 64 -46 101 120 13 -27 -99 
-106 90 123 43 -111 -71 77 -92 -24 -127 80 20 74 -61 69 -9 -91 3 -77 -83 -21 20 -101 -127 -106 100 102 88 98 72 -14 55 
71 -121 -99 99 -42 -127 -109 18 -22 12 -82 -113 115 -119 100 72 -69 -127 -75 -47 -27 -4 -68 -110 75 -95 -76 -49 39 20 8 -95 
94 124 -32 -108 125 34 -11 -46 2 -71 43 66 -15 -13 -106 -65 -64 104 -27 -93 -63 72 -14 -12 -71 69 -40 51 40 31 -116 -126 
-68 -39 -99 79 -43 32 28 50 -100 90 51 -63 46 -31 99 -25 67 -29 103 -8 -17 -73 99 -76 -63 -12 -51 10 -106 -94 -53 103 
-82 16 -71 77 11 -61 36 -1 22 -92 45 -25 127 104 126 -33 115 1 75 -82 55 -37 -122 -85 -13 37 -97 105 16 -85 98 -103 
-23 -4 89 -80 127 -6 -85 122 -105 -35 19 -33 107 127 120 11 -42 93 -57 -87 -47 29 28 -5 49 -23 67 -69 -127 -122 -38 61 
0 -111 -2 -123 -50 10 25 121 19 -119 117 -95 -52 75 -123 -3 40 -6 56 127 127 -4 -66 -63 -93 -59 12 -127 -127 109 -117 123 
122 80 4 23 -10 -113 81 127 -38 -34 -40 -25 -43 75 37 123 -2 -13 28 -59 21 38 46 126 -108 24 27 125 83 127 50 -50 
57 -84 117 6 127 -94 -100 -73 82 85 108 76 105 -44 -90 106 -120 112 103 54 96 21 -25 75 127 -34 -90 57 24 -120 -13 -112 
78 58 91 -22 12 -113 -17 -109 115 -30 84 102 -77 -74 103 -89 98 -107 106 -69 -18 -6 -21 -86 44 -3 127 91 117 127 -103 119 
75 12 27 -83 42 -60 -52 87 25 21 61 87 33 115 86 64 -34 -1 68 -47 -41 -73 -14 122 -79 -113 -66 -117 55 36 -41 -123 
-83 -95 -115 -98 15 -100 104 127 127 -83 98 -88 -113 104 -30 -39 -71 -76 -28 -121 109 69 -18 -24 106 -40 109 76 107 -64 -10 20 
92 122 47 -39 -60 83 -72 122 44 100 -41 3 19 77 -33 -108 -125 -105 -61 -49 -111 95 -79 -127 118 -15 50 108 -119 127 59 -14 
-121 37 107 12 48 -58 -127 -101 82 -113 -68 -89 -53 -5 -118 39 115 -72 15 -59 -86 -56 -112 57 1 -86 -103 -6 -127 -120 125 125 
81 81 -83 105 -121 98 -82 62 49 88 83 113 50 93 -124 43 9 -47 -46 124 -122 65 -36 -39 21 -38 49 67 104 -124 -125 -49 
28 59 115 -8 100 -57 102 100 -17 113 41 39 71 42 115 91 -90 -107 102 -66 14 29 4 -127 96 18 115 -124 -59 103 -99 -113 
-114 -119 -66 -41 67 -8 -71 -86 -127 -127 123 114 57 115 -56 -105 -82 -84 -114 15 -112 40 -118 110 -120 127 -10 -46 64 -48 -56 -26 
127 7 98 -44 11 -127 13 127 -83 -104 -108 91 101 47 -54 -124 -122 127 127 17 -65 34 -86 -13 126 89 -127 -124 -21 -22 -34 -53 
-40 -127 -99 -39 -82 -10 57 20 -127 -88 -37 -63 -61 -97 -57 -105 5 -105 -82 -45 93 127 -55 11 114 34 -69 -9 0 127 -29 117 
-51 126 21 4 44 77 30 70 -81 -54 -82 -39 80 -98 53 -71 93 75 -113 -22 -94 -109 -50 115 85 91 -66 75 -44 70 84 -102 
-21 69 69 74 -62 96 -7 -93 21 70 69 105 33 -17 -122 -37 -56 12 -127 113 -125 3 -37 -115 103 45 98 4 -30 97 32 127 
-8 74 103 -38 -14 72 48 -47 -117 -114 86 12 16 -69 -66 -107 73 32 -100 -18 30 -48 -22 22 -127 67 -104 110 -116 -49 -18 105 
17 28 -27 -81 127 2 -111 -88 38 32 -25 -103 -124 58 -45 72 -127 -104 -91 85 -110 32 1 -37 -45 80 -27 -38 10 -45 -127 80 
57 -28 -123 -111 -21 -101 125 -58 -35 -39 -127 101 29 114 -77 75 -94 -65 74 7 22 25 -85 103 67 -127 -127 -19 -19 -13 -84 57 
-105 122 -68 -8 -43 118 100 -17 8 -127 93 37 -127 -89 -12 -26 10 28 -12 -98 -127 17 -49 112 89 1 -97 57 110 100 124 -12 
-70 9 -84 -88 -86 -122 -61 -98 -36 78 -72 -37 -56 22 -56 28 124 -19 -63 37 -109 113 -118 -33 44 65 -55 -66 -1 -58 28 7 
-23 -108 104 -94 -7 -10 -25 -107 8 -5 -125 32 -38 -71 62 58 -109 21 27 89 0 67 -12 124 118 -118 63 127 32 -121 -33 111 
-54 0 -10 58 -12 55 45 116 -69 37 127 -34 22 101 99 -7 -112 -32 -11 -121 18 -66 -63 102 107 -22 79 -62 -55 -127 -32 -9 
-8 71 42 -107 -52 49 86 -124 -45 -35 92 119 -127 76 -101 -20 -59 14 -127 -54 -127 59 -127 36 115 118 -6 102 83 -59 -96 81 
45 93 -114 19 27 36 99 -37 -16 -96 45 -127 -65 30 -14 -4 -89 -116 61 68 -97 47 -14 91 85 92 65 -66 14 -116 -112 127 
127 -81 -51 117 -107 44 127 11 -32 -11 -75 -20 -27 -4 -113 -38 120 127 76 -5 81 33 87 -74 -29 100 -93 76 17 108 -81 15 
35 127 55 103 106 -60 127 49 -2 -20 61 93 -75 -24 125 27 104 -95 92 -68 -24 -22 127 32 -65 44 -34 105 -19 -100 -102 59 
22 80 -100 55 -11 81 -83 -68 -118 -96 -36 -79 89 110 127 -106 -12 -103 -114 20 106 97 -68 -57 -54 -72 73 75 -22 100 18 105 
55 -127 -97 -40 20 81 -6 44 -8 -50 21 -102 123 -9 -11 -61 -121 -36 -4 53 81 6 112 -125 -2 -77 105 -111 -112 -22 33 -1 
-123 13 100 -115 38 -90 -106 111 -59 96 123 108 -127 123 98 69 90 14 34 115 -59 -39 70 -5 -86 119 -41 -107 -94 -30 -7 127 
69 63 -105 -127 83 22 -83 -51 -89 4 -113 -127 -3 121 113 -81 76 -82 99 -26 127 75 -67 -44 -58 28 117 108 -105 -45 -33 -119 
57 -40 -5 42 -106 -24 -59 -118 -77 75 -20 -87 7 93 -21 57 73 65 -113 -98 -41 -119 -123 87 -4 -19 -14 -68 105 97 75 63 
-29 -52 -40 -27 -5 -57 11 50 20 -127 -71 -53 53 -11 48 -32 40 124 42 114 -85 87 -66 60 11 -91 -7 92 -50 108 -109 -3 
93 102 -103 -123 127 -51 -73 58 62 27 -11 -18 -112 75 -46 -127 -120 -11 -18 -27 -127 -30 -36 -77 -16 -63 -41 9 15 -120 -125 49 
-85 -101 79 -75 122 -28 104 96 39 -58 -24 -91 55 -112 -13 77 35 30 -43 -29 49 28 19 -93 -102 0 -104 70 -63 57 -1 -120 
93 94 46 -9 119 28 56 38 81 -57 98 -33 -106 -9 -13 -39 50 -64 -19 9 127 93 99 -126 -103 88 -67 -31 -11 63 50 -105 
-90 105 -6 -61 -127 63 94 -105 14 35 21 92 36 49 -3 -107 36 -56 -44 -83 126 66 55 -99 115 10 119 -100 25 84 28 -48 
18 -26 36 -1 -110 -22 -72 -20 127 24 38 3 46 -80 110 -50 127 13 103 31 -80 28 107 71 87 14 21 121 65 86 -61 -21 
-26 -12 -75 67 -53 1 -121 8 106 -39 -10 75 -77 -20 118 114 96 79 53 -116 57 -13 19 55 -34 87 -97 -109 -107 9 -50 83 
48 120 35 -6 103 -27 102 -11 -79 -109 -18 7 29 -35 51 7 66 -19 24 -120 61 69 29 -6 -53 30 -127 -71 -50 -19 51 -46 
-127 -105 -67 102 93 114 -64 56 -51 -126 4 -127 -86 64 -25 -106 -58 -14 -35 -106 19 26 107 -8 -108 -38 -127 15 -58 98 61 -74 
50 -81 72 -102 104 -21 -119 -35 30 -109 115 -36 -114 117 -48 -70 -123 1 -29 73 -33 -97 119 -127 -47 0 -77 110 116 -38 99 111 
-46 22 108 35 -38 -101 -20 107 -39 -12 90 98 -43 23 62 -23 15 -114 -126 92 124 4 -4 15 77 127 -78 -120 29 -123 -16 -15 
51 91 71 111 121 124 35 -95 87 -63 -14 -38 -98 -33 -53 47 -18 127 43 119 -127 -19 110 56 35 9 125 -72 124 65 61 93 
39 -94 -105 3 76 -12 127 115 -46 18 -70 55 -18 -23 53 -68 50 -65 127 64 80 17 -20 44 -7 68 -8 -99 49 -86 -7 -71 
-55 -47 -74 -124 68 37 -1 -124 114 42 85 64 -56 -76 102 -98 -107 117 107 -1 -46 -95 -42 -39 -123 87 -86 -118 -73 60 -34 105 
21 -99 46 -11 83 29 -58 10 14 107 94 43 40 -39 95 -30 70 89 -122 -17 12 -43 118 64 -86 -105 30 84 -60 65 94 -77 
-83 39 120 32 -90 61 -76 126 -55 -109 -33 -123 106 -56 82 110 -20 96 -74 -26 -61 -126 14 85 -32 0 -19 58 56 -24 27 -79 
7 59 99 -2 48 127 -49 -87 88 -33 48 22 96 -116 -108 14 75 56 84 -127 -105 64 -51 -36 114 66 -26 -62 3 -85 109 36 
101 -20 -10 39 -59 124 67 46 118 51 78 114 27 -65 58 -21 102 87 -53 -38 -12 -53 -15 -46 21 30 -73 51 -70 24 -17 26 
107 67 1 35 -74 119 78 -120 -29 57 -82 -51 91 65 103 -127 -61 35 -68 87 5 -118 39 -123 107 -5 89 -69 29 108 -16 127 
-27 -19 -115 80 -38 -88 86 126 60 21 -106 53 -72 20 102 60 -125 127 52 -88 51 48 -122 -33 -96 70 -96 -71 -45 120 57 -29 
95 -57 109 62 -120 4 -63 -117 77 5 -4 127 108 -70 -74 -53 122 -42 -89 -12 90 -32 93 -17 32 120 -11 46 -125 13 79 79 
-30 24 -8 48 -87 125 77 60 16 58 -69 85 98 -45 57 -106 -14 119 101 -65 36 -26 -80 106 -127 -64 -39 -85 -125 -42 27 112 
-39 -68 -15 -11 77 -19 115 -57 -22 70 12 -41 -96 50 -79 -50 -88 -61 -116 -85 98 -123 -82 -85 -113 99 -102 -35 54 44 -45 104 
126 -112 88 -17 103 85 -109 122 -1 74 -50 -39 -113 -83 79 109 -2 46 70 -2 -19 50 -42 -122 -34 34 -14 -56 127 73 -71 -22 
89 -50 25 -35 -80 11 -124 -89 23 25 -15 -77 -89 66 127 127 -84 39 126 120 108 74 47 -60 -63 75 -54 123 46 6 75 29 
