0 -29 0 127 0 0 -127 -28 0 -82 -63 0 95 60 14 41 0 -67 9 0 0 112 0 56 80 12 0 -31 17 -21 0 -19 
42 0 0 -40 -121 0 106 100 -95 1 0 -61 -17 33 0 0 104 -82 -41 0 -18 -62 15 0 29 0 0 -12 83 0 1 0 
-69 0 -114 72 0 0 -69 0 0 62 -11 -122 120 0 6 88 18 -123 37 41 0 94 64 0 0 -41 -110 50 0 0 0 110 
-83 7 -106 50 0 0 -28 -95 0 -39 -49 0 1 8 0 0 0 -112 0 -127 0 43 0 -19 -10 -9 49 -7 96 0 -20 0 
0 31 -127 0 63 -126 105 -11 43 -32 35 0 114 0 0 0 0 0 36 -114 6 0 -97 127 -48 0 0 -37 0 -80 61 -101 
0 2 -77 34 0 -11 0 -26 12 -17 0 0 -22 127 0 -3 41 0 -9 0 122 0 -23 0 0 88 16 32 53 61 -50 0 
84 118 -127 0 0 110 0 50 0 52 0 19 -32 -110 -96 0 0 11 0 18 0 56 0 -45 82 -120 -35 37 0 0 -55 -1 
-68 124 -101 -47 0 31 110 0 -110 -76 -29 0 -54 0 0 0 71 0 -93 -15 -72 0 0 -61 44 -112 -28 0 0 0 117 -65 
65 0 47 0 0 -14 -120 -18 0 -42 72 39 82 0 -7 0 -94 0 -84 43 125 112 0 0 11 36 115 -62 -33 0 0 0 
0 17 0 -118 -127 0 0 7 -127 0 110 -79 41 0 0 24 -31 62 0 0 65 -82 0 0 98 -3 -122 0 -6 0 36 -69 
0 13 0 -39 -87 80 42 -56 0 -68 -11 0 43 81 0 0 0 73 0 -64 0 0 122 70 81 120 -80 90 0 0 54 -3 
41 0 0 -44 0 -61 -81 90 -42 0 79 127 103 0 0 -127 27 -58 0 0 37 -56 -37 0 0 -92 0 9 0 126 92 -59 
127 0 0 -1 0 0 106 107 96 0 -107 0 -81 6 0 58 0 125 -86 0 0 0 -100 78 0 0 -15 74 -21 0 -80 117 
-35 0 0 0 0 -31 -57 26 114 0 108 57 92 93 -85 0 -53 0 0 0 34 99 -64 0 -24 65 0 25 0 -63 -21 9 
-16 0 113 121 98 0 0 0 -102 0 -90 84 -29 124 109 0 -127 0 -42 112 -77 0 -33 -74 0 -118 0 87 120 4 0 0 
109 -75 4 12 27 -40 -23 0 0 0 -30 0 16 0 0 -51 -25 0 -53 119 0 -59 -8 -105 79 14 -118 121 0 0 0 0 
0 -53 -114 97 101 73 9 -80 -106 0 0 0 0 101 -107 0 72 0 10 0 0 -74 -10 0 10 54 0 -91 -127 91 -79 0 
0 -25 -4 0 -117 0 -109 0 80 0 -67 74 16 -127 0 -6 -45 44 0 114 65 0 -25 29 76 0 0 0 0 127 -51 -122 
0 -83 87 0 0 2 0 -102 0 0 112 99 34 -18 -85 61 -121 0 0 0 0 -97 0 -44 -18 -13 59 -62 0 39 48 0 
-36 59 0 16 -127 11 0 98 0 -62 0 0 -105 0 -51 -18 -110 0 0 84 127 90 -109 0 73 76 33 108 0 0 -81 0 
-84 124 0 38 86 27 -102 0 -127 44 0 -97 0 -127 0 0 0 0 -61 76 0 0 44 116 0 0 105 -31 -46 112 -84 -113 
0 -103 -33 -35 0 23 0 -64 -24 -90 16 127 0 98 0 0 127 0 80 0 29 -112 78 0 90 0 0 -87 61 0 29 127 
94 0 0 -71 0 -105 -125 121 103 -5 -75 0 0 0 68 -122 0 73 -85 -122 0 0 106 69 92 -34 -127 80 -27 0 0 0 
65 36 0 -82 57 0 30 5 127 0 18 0 8 -127 0 0 -114 64 47 -38 0 -44 0 -74 0 12 4 -113 0 0 23 0 
0 1 60 93 -16 0 1 74 22 121 109 0 0 -127 0 0 0 -39 0 0 -29 -30 -83 0 -77 81 0 -29 39 0 124 -87 
73 -57 0 35 24 42 0 0 -39 0 74 14 34 52 0 0 47 0 27 67 0 77 116 0 -22 33 30 0 -49 0 127 0 
-106 0 0 -35 106 64 -79 0 114 -58 0 -46 -38 19 0 0 -31 -63 0 0 -73 -127 -48 -7 -42 49 64 0 0 0 -30 0 
111 30 -87 0 -51 68 36 -68 0 9 0 0 0 103 46 0 -91 0 0 95 115 19 0 0 27 0 0 -94 -23 127 62 -30 
0 0 -5 -121 5 0 0 -116 0 0 -77 13 -7 -113 99 57 0 2 -94 0 -82 124 21 1 0 49 103 0 0 -21 0 110 
87 32 -109 34 0 0 55 -25 -46 80 0 0 0 -86 0 -23 0 58 -110 0 0 -22 26 -70 127 0 12 -90 0 46 105 0 
-105 -100 88 41 -123 -87 87 -29 0 0 0 0 0 -65 0 84 0 0 114 74 0 68 -99 94 72 0 -97 56 -127 -37 0 0 
-122 0 64 -78 0 46 -122 103 0 -55 -76 0 0 127 0 24 -15 0 -91 0 107 0 -27 19 -109 0 127 54 0 74 0 60 
-41 0 0 -4 0 0 -40 -121 -30 110 0 -54 -102 0 55 86 53 -6 18 0 -4 0 96 0 -17 20 -2 0 -106 0 23 0 
0 -98 116 -12 0 77 58 -110 43 95 -96 0 0 0 32 0 -127 29 0 0 -61 -80 -88 0 0 72 0 18 0 37 -96 -127 
-76 32 0 0 0 0 51 -50 0 17 -81 -68 0 -1 124 35 0 18 -127 -22 37 -109 37 0 0 0 127 0 -25 0 -43 -3 
86 -101 35 115 -59 0 119 0 0 0 -42 104 0 0 18 -25 0 0 0 0 0 0 60 78 75 12 127 44 -109 127 -113 7 
0 13 0 37 91 -52 68 0 0 69 35 -22 40 110 0 0 32 -57 68 0 124 -59 0 0 89 -13 0 0 116 -13 67 0 
-117 0 0 -78 -1 0 20 0 -65 79 0 -5 0 108 113 -90 5 0 -102 75 0 0 0 36 -125 -60 34 -33 0 0 -107 6 
63 40 0 -85 0 33 0 10 24 0 -81 28 0 0 -109 -123 -100 0 45 64 0 0 -48 0 0 98 69 -82 -55 36 -96 0 
97 76 0 127 0 -17 -127 119 -26 -54 -2 0 0 -127 0 0 101 0 -19 0 83 106 97 0 0 0 -70 -8 0 3 -12 -109 
24 0 0 0 0 0 99 0 -89 -36 116 4 54 -103 58 4 0 -65 -8 -74 0 0 118 -33 0 -127 0 66 53 109 -104 0 
-119 0 29 0 -89 0 -110 59 120 78 0 57 0 -37 -51 0 101 -126 0 0 22 0 -77 28 0 -23 107 -52 0 -60 -60 0 
0 0 -15 -1 -11 0 40 0 -44 65 -70 -112 59 119 0 0 -6 67 20 0 0 -72 10 -37 -33 -62 0 -5 0 0 0 16 
112 29 0 -108 0 0 0 0 125 -71 119 34 96 43 -83 0 30 102 107 0 -96 0 32 0 25 -38 0 0 0 77 -59 0 
0 127 75 21 0 -123 -39 0 0 124 126 83 87 0 6 0 57 7 -88 5 -117 115 -122 -79 57 0 81 0 0 0 0 0 
0 0 0 102 0 -80 0 63 0 33 -95 73 13 95 -91 -118 -13 100 -122 -52 0 -110 58 -106 0 -127 0 -97 22 0 0 0 
-60 16 0 0 124 71 -116 0 87 -57 0 20 23 87 0 0 17 -41 0 42 -9 0 74 0 0 -17 14 46 -70 -107 0 0 
25 79 0 0 0 95 -100 10 -115 108 0 -50 127 0 0 127 56 45 51 60 0 0 -63 -52 0 0 0 41 117 0 -127 -22 
51 82 0 0 94 -112 53 0 -114 0 83 -40 -102 -104 0 0 0 0 -49 0 -127 1 0 -14 0 89 18 0 -62 37 -86 30 
49 34 2 121 0 106 0 96 0 0 46 0 -127 0 -6 -1 0 7 0 -110 0 0 -105 0 -69 0 -121 63 -124 127 127 -61 
0 87 -119 0 -10 0 77 -66 0 -123 116 0 75 -88 -62 0 0 0 0 62 123 0 11 -127 -45 77 0 10 -20 115 54 0 
0 -102 0 96 66 -71 0 -108 -55 0 -76 -53 0 0 89 39 69 0 126 55 0 50 73 0 0 118 -40 0 69 -30 0 -125 
-61 -58 -127 -40 -31 0 0 52 -98 -2 108 0 0 0 0 -64 -19 0 0 105 125 47 0 4 0 87 0 0 63 90 127 11 
0 44 62 0 96 -89 0 0 -38 -41 -43 -56 33 0 84 0 -49 -31 0 -5 0 0 0 115 0 -66 0 0 -102 -102 -42 -12 
4 0 74 70 0 -71 115 0 3 0 -87 0 -49 0 -2 17 127 64 -122 125 -73 22 0 0 91 -59 0 0 0 104 -51 0 
71 47 5 0 0 68 -39 0 0 -66 -49 106 -68 0 0 111 0 0 0 42 56 22 18 12 51 47 -64 0 -127 0 0 75 
8 0 -84 78 0 65 34 0 77 10 0 61 0 0 66 -37 127 0 88 0 33 0 52 -57 0 -127 -51 0 36 0 -75 89 
-11 0 46 -127 0 0 -94 0 16 0 -112 0 3 -30 0 127 0 -21 56 2 31 90 22 0 0 0 -56 127 -68 -1 0 0 
-56 -25 112 101 0 8 0 0 0 -6 0 -37 110 0 -53 -8 -44 0 0 -87 76 0 0 0 -121 -20 87 -108 117 -41 0 0 
6 80 -101 57 0 0 -35 0 -65 77 56 114 0 -10 0 0 -4 -6 126 0 78 0 0 36 68 100 -15 0 0 0 -37 14 
0 -5 0 31 0 77 18 -123 -17 -61 -80 0 59 34 0 0 0 0 -110 -1 0 0 -5 127 26 0 -124 -52 0 107 -127 127 
0 0 14 -21 0 -18 127 119 116 0 0 127 21 0 -52 10 93 0 -96 0 61 81 0 -20 20 -107 -10 47 1 0 0 0 
-48 -54 0 -31 0 0 93 108 51 0 -52 0 0 -47 -4 -90 118 0 116 0 0 35 0 -14 42 -47 46 0 0 21 11 -50 
-78 65 -37 110 -11 127 93 0 0 53 0 0 125 0 72 0 -120 0 -127 -93 46 0 -92 -88 0 -57 0 116 0 -74 0 74 
-71 -73 60 0 74 77 125 -54 -54 0 0 0 -7 -5 0 0 43 -69 -51 0 0 0 93 0 0 125 -16 -118 -76 119 -88 0 
14 0 -127 97 92 0 -24 0 -127 -34 0 0 49 -4 0 127 114 0 47 -81 51 0 0 0 -112 18 -38 0 -64 -10 -99 0 
-119 0 -92 0 106 0 91 -79 -96 41 -70 -47 0 0 -78 0 -114 0 0 0 0 -88 -73 -62 120 -123 41 0 47 -5 -74 0 
0 0 0 -3 -87 121 126 88 -107 25 -67 0 0 103 0 -40 70 79 -101 52 0 0 0 77 0 -43 0 -127 -127 -32 -80 0 
-127 -40 0 37 0 28 -56 -44 0 71 0 0 0 -75 -116 23 114 -6 0 0 -124 0 -89 16 0 16 -8 84 0 27 24 0 
0 0 -127 0 16 108 102 0 0 -61 67 -38 -100 -18 0 33 100 -89 0 -95 -14 33 0 20 72 68 0 0 0 4 96 0 
101 93 -105 0 74 0 0 8 0 0 -23 -10 0 -106 70 -40 0 0 -79 -107 4 0 -126 0 0 127 107 126 -109 -120 0 -35 
-31 40 -69 -45 0 41 0 113 50 0 -85 83 0 0 0 -84 0 0 -18 20 0 -8 0 18 50 84 0 0 -23 116 95 -124 
0 0 -103 0 83 0 127 -82 39 -99 0 -96 58 0 -88 -88 -118 -111 0 30 0 80 0 0 123 4 46 104 55 -91 0 0 
0 -70 60 -64 0 -12 0 0 -47 0 0 -52 -127 -36 119 110 77 -4 0 35 0 52 0 34 0 -17 0 -16 0 -82 40 75 
0 0 123 0 -108 -107 -4 0 56 64 0 -36 0 108 8 88 0 53 -43 0 0 27 -2 -40 0 26 107 -37 0 -98 -13 0 
0 -86 -5 0 57 0 -34 54 -55 -28 0 8 -26 0 -119 0 -60 0 110 0 0 -59 0 0 -127 -14 -5 -2 50 -106 0 21 
0 36 21 -18 106 0 -80 46 -58 0 57 0 0 7 17 0 -91 0 14 0 -34 0 0 -24 0 113 94 92 126 107 0 68 
0 0 -93 0 -58 -34 124 113 15 0 70 -27 0 75 -4 0 0 52 -2 -17 113 0 42 -7 0 41 -49 21 95 0 0 0 
0 0 0 -127 -53 0 22 0 -77 -87 -51 -95 41 0 77 61 0 -93 0 41 -96 -38 0 -101 49 -3 52 0 -6 0 -14 0 
-18 127 -75 94 20 0 0 0 21 106 91 0 0 0 -105 -77 0 0 0 70 80 0 36 -71 -123 0 10 53 -83 0 56 -96 
0 0 0 -124 -123 33 -62 110 126 -52 0 0 86 126 0 -34 0 0 31 -64 94 0 127 0 -7 -39 10 0 80 -42 -96 0 
104 0 -41 0 -102 34 -126 0 -38 -88 83 -9 0 0 69 0 0 127 18 5 8 96 0 0 -9 0 -26 1 -74 -98 0 0 
0 21 0 -12 -105 -127 -88 0 -37 0 0 -71 57 0 -77 110 0 -87 26 -77 0 11 -113 0 65 -34 99 0 0 0 -9 107 
0 0 0 6 113 -97 22 66 41 17 0 108 0 0 -104 -70 -127 99 0 0 70 -98 -76 87 0 0 0 127 91 0 111 -120 
-54 9 0 0 43 54 114 0 80 83 -48 37 0 0 0 39 0 0 110 -12 114 0 -73 79 36 0 75 98 0 63 0 -9 
-102 -116 1 0 0 -35 -78 -35 0 18 23 13 0 0 0 57 0 0 28 0 116 0 47 37 -39 0 0 61 -56 51 -65 -96 
45 -24 0 99 0 105 54 -24 -100 22 52 0 0 0 55 0 114 0 38 0 -74 -117 0 48 0 -63 70 -117 -42 0 0 -81 
106 -106 30 78 -30 0 -127 0 0 76 -102 0 -4 0 0 33 -43 -71 0 -33 -66 0 0 119 -39 0 -8 29 0 -55 0 -121 
-12 -120 -4 -69 118 -45 0 0 -38 0 44 -84 0 -9 0 0 72 0 -127 7 -75 0 0 62 -121 89 0 13 0 81 0 -79 
-113 -65 0 0 116 76 -61 0 -5 0 -5 -20 0 -31 100 0 0 115 88 21 79 -31 86 0 0 -76 17 0 -43 0 -122 0 
0 120 16 62 0 0 0 113 76 -109 -79 -117 0 -86 0 92 116 0 -67 -97 -43 0 16 0 -94 127 85 0 -66 0 0 22 
-84 0 109 -98 0 -71 0 -28 -106 0 0 25 0 -113 52 -31 -21 -118 50 -32 0 0 107 0 -51 26 125 27 0 0 -70 0 
0 -54 0 0 -69 -48 33 0 0 40 0 -44 120 2 127 -82 0 0 0 71 89 0 65 0 -2 0 16 45 23 0 124 -92 
127 38 0 -22 0 -43 -122 -86 0 -92 0 96 -37 0 0 -28 0 0 22 -68 -18 0 118 40 85 -79 4 0 68 0 81 0 
15 32 0 -70 55 -29 0 -45 0 0 -2 0 0 -105 -42 -16 0 86 0 -119 -52 0 -28 -29 0 0 0 -78 -55 -59 127 -127 
0 55 120 63 -103 0 -28 0 0 -115 -97 0 -115 0 -29 -34 -42 0 -113 101 0 0 16 0 40 4 -10 18 54 72 0 0 
55 126 0 -88 0 -82 86 108 0 0 0 0 7 -121 73 101 -35 70 -26 0 -33 31 0 0 -127 0 -66 0 77 0 4 -117 
-84 0 19 0 -85 -48 -2 64 10 0 -85 0 0 52 1 0 -53 0 0 -80 0 0 127 49 39 -93 -65 38 0 -57 0 17 
54 0 0 -28 0 28 82 0 -59 35 34 46 71 0 0 75 120 -20 0 -8 0 -86 62 0 -71 0 -71 59 0 -112 0 22 
19 -74 0 0 -65 0 -81 -85 0 -65 0 15 -69 -127 0 107 0 0 0 -127 -58 -104 0 0 97 70 -86 127 -36 53 -89 0 
75 54 23 0 0 -57 -111 19 0 0 11 0 -109 -5 -12 0 0 123 -43 -100 69 32 0 -104 39 0 0 62 0 -46 0 -121 
-34 105 0 53 -4 0 -23 27 0 73 75 32 0 -102 0 0 0 0 -5 0 -30 18 125 0 -19 85 -11 95 -59 -39 0 0 
76 -53 0 0 0 -36 -102 89 -127 59 -51 108 0 -4 0 0 55 78 -21 0 -14 -117 119 0 36 56 36 0 0 0 21 0 
0 0 126 -127 0 92 -75 0 76 -127 0 0 -49 16 64 77 0 -127 115 30 -51 0 35 0 53 -106 0 126 41 0 -56 0 
0 0 0 40 -117 -2 0 -125 59 14 0 -42 0 1 -19 -81 -25 0 -95 40 121 93 58 79 0 0 127 -102 0 -33 0 0 
97 0 47 -127 0 63 -101 -27 0 31 -117 0 0 0 -123 -106 -127 0 0 0 42 -127 -114 -127 0 -121 0 100 0 32 -93 114 
-54 0 0 0 29 -76 -103 -127 0 0 -94 0 31 67 104 19 0 -47 0 40 0 -12 -122 78 35 0 0 63 114 25 0 60 
0 -29 -32 0 0 0 0 -44 13 47 40 121 0 57 -102 -68 0 84 -56 0 67 0 24 61 0 -27 0 46 0 88 127 25 
25 104 0 0 0 49 104 -90 -127 0 -18 -127 -117 0 0 -67 0 0 -78 0 0 -56 -34 84 18 84 0 -70 -46 0 65 52 
-29 0 -26 75 -87 -54 -26 0 110 16 0 0 -56 0 -21 0 -45 0 0 -68 24 33 0 -35 0 -42 -80 0 -9 -51 111 0 
-91 0 -4 -82 -3 47 -118 85 80 0 0 0 16 0 0 123 20 -62 0 112 -94 -79 9 0 34 0 15 -60 0 0 -74 0 
19 -14 -23 0 0 0 89 109 -77 -38 0 112 0 -4 -103 0 0 50 -71 0 0 0 101 0 -18 -13 -92 -80 0 -125 123 -115 
29 99 0 0 -67 108 -70 65 0 -3 -5 -49 0 -105 0 0 -67 101 58 -20 -37 0 -55 0 0 82 -74 -55 0 0 0 -127 
52 0 -118 15 24 -113 39 0 0 -27 0 0 -96 0 -78 -86 0 -75 21 27 -109 55 0 102 -31 12 0 0 -74 0 0 -98 
14 0 -22 0 -102 0 0 -126 0 35 0 -61 5 0 -33 31 -127 0 -46 91 0 94 81 0 0 -31 38 5 0 116 -109 0 
-92 62 0 -26 -4 -37 0 -34 0 19 55 0 -40 0 0 -29 -52 -75 -58 0 105 120 0 0 0 -7 95 -70 -23 0 0 127 
101 -127 0 -127 103 -55 -113 0 63 0 0 0 0 11 51 51 0 0 0 95 30 -20 39 -20 -14 0 0 0 -11 -72 -6 62 
104 -19 -124 -63 -48 17 0 101 0 -2 -116 0 0 0 90 0 -21 -59 41 0 10 0 0 -121 60 0 -46 0 -126 38 -19 0 
-69 0 29 0 -15 10 103 0 0 -65 0 -70 107 93 13 0 0 -18 0 103 0 0 0 55 0 -22 -16 23 -127 100 -125 107 
-67 0 71 0 66 59 -126 0 0 0 122 94 -112 -67 -65 0 -99 70 -54 0 -112 0 30 0 -112 -94 0 -85 14 -1 0 0 
79 0 31 40 0 -124 0 0 117 -102 0 0 -96 -24 -37 94 -120 44 -66 -81 0 0 0 47 127 4 75 0 51 0 -114 0 
-8 -35 110 0 120 0 14 -47 0 -23 0 -36 127 0 -91 0 0 0 96 127 77 90 0 0 0 -107 105 14 37 -73 -29 0 
0 31 0 -127 0 54 51 48 0 46 30 0 0 53 8 -101 -101 -78 0 -122 0 -88 0 81 14 0 0 126 -54 -72 -57 0 
-68 -93 0 0 -106 51 58 84 -73 0 0 0 41 -24 65 0 0 0 0 0 -18 0 0 -50 -122 75 25 -127 -114 -91 -87 -114 
0 62 0 0 -93 -49 -97 0 -17 0 0 93 0 3 -29 63 -3 0 58 0 0 15 -69 -115 0 0 127 88 -28 2 -109 0 
0 0 0 -127 0 98 37 45 105 62 0 0 -22 10 -98 60 -95 -85 -72 0 61 -85 0 0 0 0 -127 19 -90 16 87 0 
100 0 0 100 -71 0 -32 0 -5 119 0 0 -58 -115 100 0 127 62 105 0 0 0 16 116 0 20 92 -100 0 -47 56 0 
103 -2 0 -88 -115 0 -41 0 0 -127 76 -106 22 18 0 0 52 -21 0 29 49 0 -28 0 112 -50 110 0 -80 112 0 0 
0 0 0 62 63 0 108 -33 45 31 107 0 -108 93 0 53 0 0 119 -13 97 0 89 0 41 0 0 0 -110 -118 87 21 
0 -56 -84 0 0 -64 0 93 75 -11 -43 0 0 -116 -7 82 110 0 76 0 -33 0 -36 66 0 -89 -59 0 -36 114 0 98 
0 0 46 111 0 -86 0 -120 22 -15 -26 -74 0 110 0 -115 0 116 0 0 -21 -97 -59 -51 0 102 0 89 0 13 -94 118 
-31 83 0 -127 15 0 23 0 0 -2 -15 -88 112 123 0 0 0 -111 -81 -57 48 -54 83 89 0 63 0 11 -91 0 0 0 
127 -36 -113 -38 59 0 0 0 0 -93 0 -5 -106 -91 0 42 0 0 0 0 79 70 -58 21 -49 -123 -17 27 48 56 0 0 
0 0 0 0 -57 -59 0 -66 5 -45 0 -22 6 -52 18 83 -23 -123 0 0 -68 54 0 -10 0 60 -106 58 -23 -73 0 0 
-21 0 57 9 -127 0 0 51 102 55 -105 0 85 51 0 0 60 0 -127 0 23 59 80 0 0 0 11 24 -120 -102 0 -8 
-127 0 5 -24 0 -66 55 0 -95 0 104 0 -57 17 0 -127 4 30 -127 0 -126 -11 -54 76 0 0 0 0 74 39 0 0 
0 102 0 89 127 0 10 47 -82 0 103 0 -103 0 -45 -100 -4 -39 0 0 0 36 0 51 15 -89 0 38 -70 57 -39 0 
0 0 18 61 -66 -127 49 80 0 6 0 43 15 0 -52 0 -112 -64 115 -77 0 0 -14 76 -75 0 -62 0 0 41 0 -48 
-103 0 0 124 0 -9 0 0 94 113 60 -71 0 -6 96 14 0 0 4 0 48 -58 -57 -60 0 0 -49 -110 0 -82 116 -109 
-50 0 9 -8 0 1 70 -37 -105 0 3 0 -52 0 66 0 57 -87 -44 0 -119 61 0 0 87 -9 0 77 -75 0 0 -122 
73 39 0 100 75 79 0 -16 0 0 0 0 -22 113 -47 -98 0 -92 30 0 -64 8 -112 65 -83 0 45 6 0 0 -87 0 
0 118 -95 -121 -65 0 65 0 -127 0 -41 0 0 -71 67 30 -122 0 0 9 0 0 -60 55 -113 77 -46 -65 127 0 -82 0 
0 0 39 -103 89 -99 0 0 -65 0 93 0 87 79 116 59 0 16 -117 0 0 0 20 -90 -97 -79 43 -10 -100 0 0 8 
-38 -100 0 -110 0 13 0 -29 -90 -61 0 -64 -87 0 -127 0 0 -87 3 -59 16 111 0 0 -18 102 0 0 0 114 70 -57 
98 -127 0 0 0 101 56 46 0 0 65 -30 0 -41 127 -38 -19 -28 -14 0 83 0 0 66 34 -38 19 0 0 0 70 -23 
0 0 0 0 117 0 -82 40 89 -56 -26 -123 127 0 -17 -114 -127 -88 0 124 0 -57 0 32 70 -41 0 -29 0 0 -56 -102 
0 -110 -42 -10 0 0 0 -91 25 -22 31 68 116 0 76 0 -12 -127 0 0 73 0 95 20 60 0 0 93 -58 0 73 18 
-124 68 0 35 45 107 86 6 0 0 -113 73 0 92 0 0 0 -45 -97 0 83 32 0 59 120 66 -96 127 0 0 0 -87 
-101 7 114 25 0 0 67 0 66 0 0 -55 -118 -85 0 111 56 -105 -127 -1 127 0 0 4 0 0 57 0 22 0 2 66 
0 125 52 0 0 -110 -75 0 106 23 -9 0 82 0 46 45 0 0 -47 0 -16 11 -58 59 0 -3 44 107 0 0 27 -67 
-46 103 0 0 0 0 81 0 -90 85 -30 -27 127 127 30 0 0 122 -115 0 0 127 -52 0 0 34 79 -2 -32 0 -107 -40 
-2 -19 0 21 53 0 126 -72 0 0 26 -32 19 0 -113 0 -127 120 33 0 86 -78 0 0 0 40 0 -81 59 114 71 0 
116 0 0 87 -107 0 0 -97 1 107 41 -88 -112 99 0 0 -110 0 0 -33 0 0 0 17 -127 -116 0 -3 108 98 -3 30 
0 0 81 0 -78 -65 -127 85 -64 -127 0 -83 23 0 -49 0 30 0 -127 22 0 -61 0 9 0 118 0 0 -101 -1 83 84 
0 -9 0 -69 39 0 -121 76 0 126 -120 -126 0 0 -17 -53 8 87 0 108 90 29 -127 0 -73 0 97 0 0 2 0 104 
0 42 0 0 67 91 -21 -23 35 0 127 0 0 34 48 -83 0 63 91 0 0 0 0 -99 88 30 47 -36 -79 -73 35 0 
0 -18 126 0 108 0 0 91 99 -111 -15 -33 0 -55 0 117 -27 70 0 0 -126 -113 0 86 -35 -127 6 54 0 83 0 0 
-118 0 0 127 0 -72 51 -56 0 0 -112 115 -127 81 0 92 0 10 -75 -95 0 0 55 0 0 -116 95 0 48 -21 100 40 
0 37 -122 -94 24 -26 -96 -15 0 0 30 -59 0 0 55 0 -42 114 0 96 -127 -90 0 0 0 78 -49 112 0 0 -110 -88 
0 -66 0 24 -85 0 -115 8 0 5 125 4 0 99 115 0 0 62 -80 97 -56 0 -48 125 0 25 0 0 -103 -120 0 -3 
-95 3 0 15 0 111 95 99 -4 0 -127 0 0 -1 0 -37 -23 0 -56 -84 -82 -3 0 113 98 26 0 0 -44 0 -54 0 
-89 0 -12 -103 0 9 -45 -44 0 34 0 0 0 -36 -127 -67 -101 -75 -101 0 112 104 -80 -47 0 -42 0 -50 0 0 0 -112 
-78 -40 -19 -8 0 0 62 127 -19 0 0 -80 0 0 -96 26 -96 82 0 -96 0 0 82 0 0 106 17 58 26 120 0 0 
0 -115 100 53 0 0 -51 -123 96 -1 6 25 0 -70 0 0 77 0 -84 84 -28 0 0 59 -34 30 0 -13 0 113 23 0 
-90 -49 57 0 59 -22 0 -46 95 0 58 -46 -96 0 0 0 0 -62 -100 59 -10 -45 0 61 -40 0 0 -120 84 0 77 0 
25 0 -19 -25 -88 0 -57 102 104 0 -108 0 0 123 0 125 0 -49 0 -53 0 0 0 97 0 63 -127 77 88 -85 4 -41 
-91 -2 113 0 0 0 -50 -87 0 7 91 0 -10 -92 0 112 85 -21 85 0 -60 16 -122 0 0 0 -71 0 0 126 27 0 
-81 -121 0 -81 0 0 0 -49 -18 -40 44 46 0 -2 -110 0 -31 0 113 0 0 -31 -114 -90 53 0 127 -21 0 -79 33 0 
0 -34 -37 -90 0 -64 0 0 53 40 -77 0 127 103 -16 0 0 0 78 42 0 -64 -45 -67 0 -109 1 11 0 83 56 0 
0 0 -64 107 -73 0 111 0 0 98 0 -127 -119 61 -61 10 -126 0 0 0 0 -124 -3 -49 -21 2 -108 -56 0 -52 0 39 
0 -7 0 20 127 127 0 0 125 -112 0 49 15 -25 0 100 96 -1 -33 0 0 -88 0 111 -80 0 -72 108 14 -5 0 0 
0 -25 -127 -117 83 -17 0 0 -108 0 0 0 -10 2 -5 46 83 0 33 0 110 96 0 0 0 -59 18 21 0 14 -12 -120 
67 84 -125 0 -24 0 0 -114 46 0 -114 -99 13 0 124 0 68 0 -111 -44 -63 0 0 29 -112 -12 65 36 0 0 -111 0 
0 -91 72 -42 -56 0 0 -73 0 -85 0 -28 114 127 0 5 46 -20 66 -121 86 -2 0 -11 0 0 0 0 114 0 -71 2 
60 0 -31 20 0 85 82 0 0 -85 15 -30 -33 0 92 0 30 0 -86 0 -72 0 0 -39 -32 -73 0 13 127 17 0 -28 
80 -123 -3 0 -90 -7 0 -102 -84 113 0 0 -5 0 0 127 108 -125 0 116 84 88 0 0 88 109 0 68 0 0 33 -62 
0 -12 0 -124 -19 0 -108 -109 -125 41 0 0 121 -67 0 -107 -32 -1 -29 -61 -119 -98 0 0 127 0 60 0 0 -62 -61 0 
0 0 -97 0 91 -124 -27 112 30 15 -20 0 127 72 0 0 0 28 -127 0 -109 86 60 0 0 -53 0 -27 0 -101 -122 -13 
-4 76 11 0 37 42 0 0 -81 -106 11 0 -118 0 27 0 0 -80 0 -65 0 0 -23 7 -7 81 0 -44 -8 0 76 -50 
0 -26 20 -41 0 107 0 112 0 27 -64 57 -65 -26 0 0 -90 7 104 71 59 0 0 127 31 0 74 -112 0 0 -64 0 
72 -68 59 -119 -81 0 0 0 -127 0 -60 -62 -31 -63 0 0 0 0 0 -45 -33 -7 0 -72 -127 39 -88 127 0 -100 0 37 
37 109 4 0 0 -114 -105 -115 0 0 0 68 -29 0 33 104 -27 0 -111 -56 0 81 -24 42 -71 -12 0 101 0 0 0 -18 
0 -120 -26 -80 0 0 0 0 35 101 0 -117 -6 0 -86 58 -91 0 105 -21 0 0 -127 -58 0 -21 0 62 -55 104 91 0 
0 88 91 0 -30 88 0 0 0 0 -30 88 81 83 119 60 21 -7 0 0 26 -56 -81 -123 0 -52 -30 -16 0 0 120 0 
0 -13 -104 -20 0 25 0 -74 0 -29 71 86 103 0 79 0 0 -2 -71 0 0 10 0 -22 25 111 103 0 0 47 -18 -103 
0 110 78 0 46 9 64 -104 0 0 0 0 -97 80 -71 -88 -103 13 -123 0 50 96 0 2 -123 0 0 0 -84 0 -44 46 
45 -13 0 20 -71 0 0 0 -7 -29 83 38 0 92 0 -3 0 0 56 40 -19 -10 33 0 0 63 -127 -111 0 0 -127 -108 
63 0 0 -42 0 83 60 0 52 -127 0 96 -15 -127 0 37 28 0 127 -14 -94 111 127 0 0 0 0 0 -34 -28 -32 -95 
0 0 112 46 -75 0 -80 0 102 -34 0 40 74 0 81 -101 20 16 -15 0 -37 0 -51 0 59 0 119 73 0 0 37 112 
99 0 -78 -5 0 0 61 0 80 0 67 -126 0 -15 2 56 0 -120 115 13 25 0 0 -110 0 0 -87 -60 -24 -111 0 105 
0 14 -31 46 25 0 -62 0 0 -27 -7 0 -124 0 91 2 45 -48 0 0 58 104 0 0 -82 89 -104 28 0 0 12 -54 
0 -86 -52 -22 90 0 39 0 -89 102 119 -5 0 0 0 -7 100 127 -74 0 0 0 0 0 63 103 -5 -20 102 101 73 0 
87 121 -94 31 0 87 0 78 0 0 0 0 -33 -77 -94 50 -125 0 -79 38 28 0 0 95 0 0 -124 67 0 39 -34 -87 
76 -3 -55 -125 -110 66 0 0 4 0 -106 0 0 0 109 -87 121 -21 0 65 38 108 0 0 -71 -39 0 0 0 79 -71 -124 
115 19 -98 -126 -110 42 0 0 -7 12 0 -11 0 12 0 0 0 111 -96 -73 0 0 94 0 70 -15 -89 5 124 0 0 62 
0 -40 -72 -40 -57 -62 0 100 0 -91 -59 0 -61 -125 0 0 0 5 0 0 0 0 103 113 57 0 93 -20 127 6 -90 0 
0 0 39 -41 0 0 -77 42 -111 0 0 -37 59 -43 61 53 0 -53 0 110 0 0 39 114 8 0 99 85 -77 0 127 -59 
79 0 -119 41 0 32 -113 0 -87 -61 0 -44 0 103 0 16 -45 -75 0 -97 0 95 15 0 111 100 0 0 0 -86 -79 -76 
7 -42 -7 96 0 97 0 -53 0 0 104 -113 0 0 119 28 0 -104 -97 -92 -116 0 114 0 -8 0 0 95 -37 122 56 0 
0 0 0 103 -56 -86 0 -80 -91 -33 0 -25 0 -67 -95 76 -75 0 103 0 2 0 0 80 0 -40 0 -3 -80 -82 -110 6 
-121 126 0 0 31 126 -92 0 0 -69 16 72 50 0 0 0 0 19 0 0 -24 0 82 127 -73 0 -82 0 66 -32 -122 -35 
79 123 -27 0 0 -121 -110 16 -53 0 -7 -127 0 100 0 0 90 -65 88 0 0 -1 28 0 0 13 -127 0 109 67 0 127 
74 108 0 0 -119 0 -51 -96 -105 0 42 -49 0 -110 0 63 0 -18 0 99 -124 0 0 110 -26 -43 117 43 36 0 0 -116 
55 35 68 -25 79 0 0 105 0 0 -37 0 56 -122 -62 0 0 0 -88 0 127 4 0 88 -102 0 -26 -90 0 74 -32 -32 
-125 -106 -1 64 -6 -16 50 0 0 -15 -6 0 0 0 105 0 0 16 -77 -42 0 0 0 123 0 6 0 -117 118 82 -122 1 
51 0 0 0 0 51 -36 -56 0 -76 0 2 122 -94 -7 -118 0 118 19 0 -110 -123 108 -10 96 66 -48 -106 0 0 0 0 
-32 94 -104 0 109 116 0 0 0 -49 110 -105 8 0 0 26 0 0 0 88 89 35 -9 -23 36 -121 -47 -106 0 56 0 0 
77 0 0 0 -68 0 97 -76 0 45 48 -100 0 -86 56 35 -95 72 0 0 7 -46 127 -18 0 30 0 -15 -106 0 -55 0 
-37 -104 88 0 0 0 -32 -71 42 -98 39 123 0 93 0 0 0 0 -96 -9 0 44 -34 0 104 -111 -65 127 96 0 0 -83 
30 0 17 26 48 88 0 0 0 57 116 -127 5 0 0 7 70 -58 -70 0 109 46 90 -106 0 0 50 0 0 0 48 12 
48 -24 2 42 0 86 0 0 0 -88 -32 89 0 -112 0 -107 0 0 0 63 108 27 -60 0 -48 35 0 0 13 127 26 -14 
-119 0 0 55 -93 -118 0 0 -32 0 40 83 0 103 -99 -25 0 53 -48 -96 -81 -114 49 0 0 0 67 0 71 -92 0 -44 
0 0 -48 -91 -27 0 0 37 -89 0 -84 -120 -120 34 85 0 -44 0 0 0 47 84 -9 -2 0 -121 -93 -17 22 0 86 0 
-107 -10 -16 0 13 79 0 94 -111 -53 116 0 -62 0 0 0 0 -106 58 0 36 5 0 0 21 -59 0 49 0 43 -55 -63 
-1 0 -73 0 0 37 0 111 -118 -76 0 -89 -127 0 91 -115 -67 35 0 -61 0 -29 -106 0 15 0 68 0 4 -102 -27 0 
-25 15 -15 0 127 0 0 127 0 0 30 79 0 119 -127 83 0 0 19 0 3 102 54 -32 0 39 -71 0 100 -126 0 -37 
0 47 -13 -66 -7 0 -111 54 0 73 47 -117 0 0 0 42 11 0 -108 0 0 -29 89 0 0 25 -20 -107 -23 -118 0 81 
0 3 -124 -11 0 0 0 0 52 0 65 -97 -21 -30 -74 -58 0 -43 28 0 0 -25 0 121 0 0 111 -19 -93 98 -37 27 
118 97 0 -31 34 -118 0 0 0 -73 33 -56 0 12 0 -78 38 0 93 -17 -28 0 88 0 0 0 -127 -42 0 -27 22 14 
-41 0 115 63 0 -89 -127 0 -41 -125 -57 0 104 84 0 0 123 0 0 0 48 56 -47 0 127 60 -118 -127 0 49 71 0 
0 0 -97 -67 97 -18 0 0 0 0 -55 15 26 89 -111 -98 0 72 -43 -81 -90 0 -51 0 127 74 0 0 -6 0 -24 91 
76 -58 0 0 13 -91 0 0 0 0 62 -8 66 -119 -44 32 0 86 0 104 -60 0 88 0 0 0 -117 120 -76 -127 107 -45 
69 122 -93 0 0 0 67 0 39 -16 -127 0 71 0 94 120 -98 -23 0 -95 -78 34 0 0 -98 0 0 106 -20 73 0 42 
0 106 -12 0 0 127 0 2 0 93 51 -65 39 -98 -127 0 -89 -108 34 0 0 -73 0 0 6 84 -7 -13 0 -25 112 0 
-61 -123 -94 0 -117 90 0 52 34 0 -57 0 0 0 -81 90 -16 -102 0 -110 -90 0 -35 0 113 0 -32 0 12 0 -127 71 
0 94 0 59 -67 0 49 86 0 -19 0 0 -9 -122 18 -63 0 -46 -74 53 0 -20 0 -88 -5 0 -47 -108 0 64 -11 0 
112 -47 0 -3 -5 13 0 61 0 -104 0 -31 40 0 -65 0 2 -52 59 0 124 0 -48 0 -77 86 0 -26 -11 0 100 0 
-8 -116 67 24 0 -116 -67 0 26 0 0 25 105 -70 0 0 0 83 37 0 88 25 -4 50 0 0 -127 0 98 0 -108 13 
127 72 0 0 0 0 -5 0 44 -74 -127 -37 0 -68 127 -53 0 12 58 0 3 0 36 -64 102 49 -56 0 0 0 -100 127 
0 0 0 -52 -124 0 0 0 -47 -96 -19 39 122 83 -66 93 0 -106 0 0 124 -97 -19 0 84 0 114 38 0 -122 -120 96 
0 -59 -120 0 0 61 -1 0 0 111 -124 -85 119 0 -109 27 0 107 127 26 -19 123 0 0 0 -122 -74 73 0 65 104 0 
0 111 -53 0 5 0 0 -104 0 -90 17 0 -47 61 -124 -113 0 0 102 0 -126 0 86 0 83 -5 -120 -18 127 111 -100 0 
-127 -123 0 127 0 -75 45 66 0 81 0 -92 52 -127 0 0 -67 49 0 0 0 0 -56 -127 70 0 125 -73 0 -112 -89 57 
0 123 0 0 0 0 2 96 115 88 0 116 53 -44 -52 118 0 41 105 0 -107 0 0 77 51 0 99 42 54 45 -72 0 
9 0 -91 0 0 0 110 -8 127 115 0 4 127 0 -12 31 0 -26 2 0 -64 66 55 15 106 75 0 75 -57 0 0 0 
0 -102 -9 -107 61 -2 15 -109 -109 0 0 0 0 0 53 -62 9 0 -20 10 -64 0 -112 -124 0 15 -67 58 73 0 0 0 
0 16 0 82 -55 -11 0 -12 52 98 42 0 4 0 -127 0 -36 2 55 -43 0 -50 -27 6 -6 0 66 -111 0 0 0 0 
75 0 116 0 -55 80 42 -40 -77 0 0 0 -57 116 0 36 116 -115 -127 0 3 0 -17 -78 0 -9 -109 30 32 0 0 0 
-44 -76 117 0 0 0 28 -123 41 0 -126 1 0 43 0 121 -12 0 96 120 0 0 -122 0 -113 102 91 0 0 115 -15 74 
0 -71 0 27 -29 -14 0 0 0 65 -88 0 -77 54 -111 118 -41 -64 0 58 -22 111 58 0 0 -125 0 95 0 77 0 -43 
-64 0 0 0 -36 0 57 -91 121 33 0 -6 96 0 -111 73 70 0 127 0 -4 -35 103 -79 123 0 0 109 0 63 85 0 
-83 108 127 -112 0 117 0 60 0 -4 0 0 0 -108 -97 46 47 0 -51 127 61 0 -67 118 -97 0 -52 -122 19 0 0 0 
1 -72 7 121 -92 -66 114 0 0 71 109 -41 0 0 0 0 127 -103 -47 -27 0 127 0 -37 -88 0 31 0 101 -102 0 0 
0 125 0 0 15 -124 -107 95 -109 -111 18 103 0 0 -66 0 0 33 -88 0 34 0 61 124 -55 0 0 110 0 -22 -87 -96 
118 -5 112 34 0 47 0 0 -40 -40 0 0 114 71 11 0 39 0 -70 105 0 9 -59 0 -6 -115 0 66 35 0 -65 0 
119 0 -72 63 0 127 0 58 -28 0 -12 -102 -94 -41 0 0 0 25 0 -113 0 127 115 -83 115 -66 0 2 0 27 0 0 
0 -36 0 117 0 0 -14 0 0 80 -2 -56 -57 -109 33 -45 62 98 -24 -95 -114 0 0 0 -8 102 0 -10 86 -8 0 0 
0 0 -123 0 19 0 -67 -108 100 0 -35 15 -81 -119 0 89 -77 0 0 98 -14 -50 0 0 0 -94 -72 74 0 12 22 -67 
101 59 65 0 27 0 7 0 0 18 -5 58 -70 0 19 0 -14 0 0 0 25 0 -124 -121 0 0 119 0 -117 -81 79 -32 
122 39 -22 0 0 0 0 -46 0 56 -21 112 0 12 -56 -65 -33 33 0 -82 0 68 44 94 0 -63 -78 0 0 -65 -78 0 
-103 -2 -3 0 0 104 0 0 0 -74 -1 59 -105 -30 -41 0 0 90 54 0 -62 0 0 77 88 -127 0 0 -48 -116 -117 -47 
-127 0 -83 101 0 56 96 -121 -84 42 0 0 11 0 -6 0 42 125 -33 -41 0 -65 0 64 0 72 0 0 5 1 0 0 
-113 13 123 -92 0 0 -47 -94 -86 119 0 0 0 -87 0 91 -19 -30 0 0 0 0 0 42 -127 0 -2 5 123 29 -14 -127 
78 0 120 -24 -108 2 0 114 75 0 0 -117 0 0 93 -47 54 6 61 -53 0 -127 6 -35 -8 0 0 0 -127 0 127 0 
0 113 0 40 0 97 -20 0 0 0 79 110 0 123 48 -20 25 0 -66 72 -31 -126 0 127 -56 0 39 0 -73 0 66 0 
0 94 -96 82 28 21 0 19 0 85 -107 0 119 0 121 0 0 50 36 83 58 3 0 81 -63 127 0 0 0 -9 0 67 
0 -79 0 127 -7 50 0 0 -111 0 -29 44 -17 -79 -43 0 0 111 106 0 115 72 0 63 0 110 0 -110 -72 -127 7 0 
0 118 44 17 0 4 80 0 -111 58 0 0 -86 -1 -72 0 11 35 85 0 58 0 5 0 -85 123 61 -19 0 0 0 46 
-85 0 0 -62 0 0 60 -64 0 0 -17 93 49 -75 -97 39 0 -108 -28 0 0 -47 80 0 104 49 0 73 -5 0 84 37 
-40 -127 -111 0 -42 0 0 0 94 0 -127 -23 -19 0 -95 97 102 0 95 -34 -16 0 -32 -127 0 -95 0 93 40 0 0 -64 
-41 66 0 0 -37 -45 0 4 0 0 41 -3 47 0 64 25 7 0 0 119 1 -26 -58 -12 -75 0 0 -14 0 -54 15 0 
25 0 -100 0 78 0 96 -69 -25 114 0 127 0 -104 0 -91 0 -116 0 -10 0 77 0 -69 0 -4 118 -2 52 -33 -68 0 
-2 0 71 0 24 0 -124 -108 -13 -46 0 0 -27 0 23 -3 0 0 -54 0 0 102 46 -9 0 113 0 -96 55 -55 3 -11 
120 -80 -5 0 22 -88 0 0 0 -56 -24 98 25 0 -119 0 112 9 -121 -53 0 0 127 107 0 -54 0 43 52 24 0 0 
0 0 -127 7 43 0 0 107 32 57 0 -34 0 -104 56 55 0 0 0 -120 -3 0 0 -62 69 117 127 0 53 85 -108 -97 
0 0 16 -82 0 -79 0 99 54 121 -106 0 -97 -17 0 91 72 -84 0 104 0 -91 0 -5 0 0 -48 -86 -97 0 -84 0 
33 0 -50 14 119 0 -88 -114 124 -114 -127 0 0 0 -54 0 0 0 -1 -41 98 -101 0 0 0 -51 0 -113 -52 -93 -91 127 
-50 0 0 74 127 -108 22 113 0 0 127 -65 71 0 0 35 0 0 65 0 106 43 84 0 -53 118 -33 79 0 -4 -52 0 
-18 -99 0 -83 -108 -27 0 0 -8 80 -62 0 51 -48 0 0 0 67 44 118 0 -72 -81 0 -117 117 0 -35 0 112 0 58 
-84 0 0 -38 78 0 39 -35 0 0 61 0 52 -55 26 -127 69 -36 0 0 0 0 13 -120 0 49 -44 51 28 127 36 0 
16 -31 0 0 -124 0 0 52 0 79 111 62 0 49 -62 -76 -46 6 -85 0 88 0 29 0 2 93 0 0 13 4 0 80 
-76 3 -41 -82 0 0 0 58 0 120 -32 0 -121 0 -45 -127 0 -34 126 -71 -67 -110 71 0 0 79 0 0 116 -41 23 0 
-20 0 0 0 -108 -71 34 -47 0 -115 0 -91 66 53 0 -37 0 -127 68 116 127 -117 -50 0 44 127 -16 0 0 -5 0 0 
0 -108 0 -118 0 0 122 69 0 17 0 26 -30 -55 53 34 5 0 -111 2 109 0 0 -88 0 0 127 6 104 -50 9 0 
-84 0 -73 0 -104 0 -74 -6 104 0 -85 -111 0 0 -119 -22 0 96 -10 59 63 0 -49 0 -82 -33 0 0 0 -112 54 -33 
-119 -28 0 0 48 57 0 0 0 74 99 -110 123 0 46 -42 0 0 -67 -35 104 -88 -48 -113 125 -75 52 0 -127 0 0 0 
0 -20 0 0 27 42 0 0 -54 26 32 96 -43 17 39 0 -107 0 123 -99 0 0 0 -31 102 0 25 -109 0 0 70 116 
106 -34 90 0 -36 0 -98 21 0 83 3 0 -24 0 -28 0 84 -51 0 0 0 -23 73 0 -42 0 1 76 0 9 -11 -4 
0 -78 42 38 0 119 -110 0 -75 0 112 -3 0 0 -75 -4 -13 -81 -117 -118 123 0 87 -60 0 -34 0 0 0 22 -105 0 
94 -52 0 0 5 84 127 75 0 -98 0 0 -124 0 13 -71 127 0 106 -74 0 -111 45 -86 94 -90 89 0 1 0 0 0 
-127 112 0 0 0 -57 0 68 98 -112 77 -94 94 0 0 117 0 -53 64 0 0 0 76 107 109 0 83 4 -94 -17 -118 0 
12 16 0 -115 118 -90 0 95 0 113 0 0 46 0 64 55 0 48 0 -114 -126 0 0 -72 0 0 -67 -33 105 20 91 -89 
49 0 0 -9 0 -15 0 99 -27 -116 -17 0 0 -73 -13 8 126 72 0 43 -33 25 36 30 0 0 0 -61 0 57 0 -9 
-67 -127 92 -110 61 -36 84 -127 93 0 0 0 0 55 0 0 0 0 127 -88 0 116 0 -3 -66 0 0 117 -115 22 -75 20 
-28 -70 14 69 0 0 69 102 0 0 -19 -25 -79 7 0 0 19 0 0 -20 0 42 -95 -36 -53 0 0 -23 93 -111 7 0 
-93 0 17 56 -28 -37 11 0 0 0 55 0 -95 -77 -114 0 0 -30 0 -67 54 0 62 -83 0 -8 40 62 0 0 73 11 
-28 19 -88 124 0 0 0 -87 30 0 0 -89 -6 -43 0 -108 24 0 0 10 0 91 47 0 -2 -14 -105 24 0 -78 0 81 
0 -45 42 116 -92 35 93 0 0 -107 14 0 0 -34 119 0 43 46 -110 0 -17 75 0 0 0 -45 33 0 -28 0 67 77 
100 -73 -55 72 0 -5 0 0 0 49 -49 0 26 101 -12 0 26 2 -40 0 0 59 45 0 -2 0 -127 59 -50 119 0 0 
0 0 -4 0 91 0 117 77 0 -113 101 -31 -67 -116 0 13 126 0 -47 91 0 -85 0 0 0 -12 121 124 -16 -93 0 -97 
-82 0 75 2 78 0 0 -125 103 0 -90 -77 -13 -75 0 0 -74 -52 -93 0 20 0 6 0 -13 0 -23 40 127 0 -27 0 
-51 25 71 -12 -48 -42 15 0 0 53 0 51 0 0 0 -30 0 69 10 -12 0 -25 -127 0 -47 45 0 38 0 0 10 -80 
0 0 63 0 -14 -65 29 60 0 87 27 0 77 66 0 78 0 0 7 118 -109 0 127 0 34 105 -72 0 -23 118 48 0 
0 101 35 0 0 0 -127 62 -31 0 80 -98 -37 125 0 -90 0 -90 -25 0 94 0 58 -104 56 0 0 0 -119 120 127 -71 
-19 -105 101 -78 120 12 -9 -127 0 -59 0 0 0 0 -68 0 39 0 0 0 -75 -26 -11 -22 17 82 75 0 -62 0 91 0 
0 -107 9 0 0 -7 -127 0 53 -62 0 -37 17 -112 75 0 -61 0 -56 0 22 -86 97 -102 0 0 0 102 119 63 0 22 
-87 0 0 0 10 -17 -39 -72 -87 0 -81 -99 0 -115 -39 0 0 -22 -123 47 -67 0 0 0 0 77 -65 0 -33 -68 -126 14 
0 0 0 0 -58 82 0 -7 -25 -53 -73 0 19 -51 -44 95 17 99 -9 57 -13 0 -21 -119 0 0 70 -39 0 9 0 0 
113 14 -47 0 0 -37 -83 0 -61 -57 52 0 -106 0 0 -67 0 0 -63 0 72 51 -98 0 90 111 -13 -45 51 120 0 0 
0 0 -68 113 0 -48 0 0 35 107 3 0 -10 78 73 -15 -58 0 64 3 0 0 33 53 5 0 124 -57 -127 0 0 14 
26 0 -55 0 0 9 79 49 0 -30 118 79 -15 0 -18 0 0 -19 -24 0 48 -63 -108 0 0 127 0 77 -24 0 117 6 
102 0 115 0 -76 66 0 0 -76 0 -99 0 -104 23 65 17 -116 -31 104 72 0 63 0 0 0 -111 -102 0 -5 -18 84 0 
4 0 -93 116 0 80 0 2 0 45 -74 115 0 15 0 -55 0 76 23 81 -15 0 -39 0 -82 0 0 -38 0 -77 2 75 
12 -62 0 0 63 -46 6 47 -121 51 66 0 0 0 0 122 75 -28 -31 0 0 0 0 -109 62 0 8 77 -50 65 62 0 
74 0 0 0 127 126 -62 127 99 0 -125 52 0 -53 104 0 -94 0 -44 -82 22 0 -96 -112 27 0 0 127 0 85 127 0 
0 -71 91 4 -23 -2 84 -10 0 21 0 0 61 0 0 -58 0 -101 30 0 0 111 2 127 0 49 0 63 -29 -127 110 0 
67 0 0 0 99 0 118 -61 -22 0 -77 -7 0 -97 -63 -66 24 0 0 -75 -117 120 -32 42 -56 -116 127 0 0 0 0 -48 
-49 -29 -77 -16 72 0 4 -26 100 0 0 0 28 0 -102 0 -68 -44 120 0 0 36 0 29 0 0 22 3 -126 0 -78 -101 
0 40 0 81 16 -94 0 4 -127 -55 0 82 0 101 0 -28 -4 0 0 -110 -49 -64 88 -103 0 -77 0 0 0 100 -21 58 
30 0 0 0 38 0 115 -88 -61 71 34 -2 7 0 97 0 -50 19 -37 94 0 -108 0 0 28 -17 -127 0 31 0 0 -7 
-121 0 65 0 -116 -32 52 0 2 0 -18 63 0 0 105 21 27 0 6 -36 -23 85 14 -116 0 96 0 63 0 0 0 -4 
-27 0 30 -10 27 0 87 21 0 102 9 -41 0 0 0 -86 -76 0 -62 -64 70 0 0 0 80 -60 82 -38 58 0 0 88 
-120 83 0 0 116 -92 0 -29 0 70 -61 0 0 105 -105 49 0 127 0 -65 -69 -70 115 0 0 32 53 0 0 31 -109 29 
124 0 8 -127 0 -106 84 0 91 17 -122 57 57 0 0 0 64 25 0 0 0 121 0 -127 0 0 -29 -57 -16 120 0 0 
0 103 0 0 56 -2 0 -2 0 0 48 -36 -66 -102 -27 -29 58 32 23 0 39 0 -127 0 25 127 -7 0 -85 10 0 0 
7 0 104 0 91 76 93 -44 -28 124 -20 0 0 0 0 122 -57 0 -13 46 0 2 103 0 127 34 0 -114 0 0 30 47 
-32 0 11 -105 -127 -100 -42 0 0 -39 0 116 0 0 -93 104 102 -92 0 0 78 0 17 34 -114 0 68 0 -96 -71 0 -56 
-22 0 0 120 15 -43 0 0 124 80 0 109 -7 0 35 -124 -2 0 0 2 0 -13 -127 0 0 -10 104 -127 -5 0 101 -127 
0 -31 0 -127 0 84 -91 -87 84 0 52 0 -43 -67 0 0 -1 0 -66 -52 0 -3 35 5 0 80 -112 0 0 0 -101 -101 
0 0 79 95 92 -88 81 0 37 0 -99 0 -102 -35 -46 0 0 -88 -48 99 -99 76 0 0 103 0 75 7 0 96 0 -126 
0 0 93 0 1 -106 0 0 -24 102 -22 117 -4 0 -2 -127 127 49 0 0 -7 -114 0 -58 0 -87 -114 -108 95 0 0 25 
50 65 0 68 -53 -115 0 0 98 127 -29 0 0 0 17 22 0 36 18 -85 0 -73 0 -45 89 -6 0 0 -127 70 -116 0 
0 0 -66 94 26 0 -92 24 0 -61 -123 12 0 -28 99 0 -40 25 0 76 0 60 49 24 0 -15 0 79 0 -3 -14 0 
122 11 0 0 -118 107 -63 -119 27 0 0 -17 0 105 -60 0 115 51 0 -87 -73 -126 0 -103 -122 71 0 0 13 0 -113 0 
0 45 0 -34 -80 -98 -65 10 0 42 0 -58 5 0 -28 0 0 -68 93 105 -98 96 116 0 0 -89 -127 0 121 0 0 118 
-121 -47 0 0 34 0 126 0 109 58 0 52 71 4 -4 0 0 0 -34 0 -67 0 -13 0 87 127 117 0 -125 -91 -13 89 
-52 43 -1 127 -127 0 0 -65 14 -113 0 0 92 0 38 0 0 -56 0 -96 0 -43 117 0 -8 82 0 -48 0 -107 99 -112 
0 127 -57 -74 0 -95 -61 0 0 -27 0 0 124 118 -103 106 -120 49 0 -117 94 0 -54 71 0 0 0 -73 83 0 -66 -14 
0 19 0 0 84 -44 119 0 0 -20 -114 30 0 47 -124 -86 71 0 25 -84 0 47 94 20 70 0 0 -91 0 0 -60 -89 
0 -38 0 35 0 109 0 -13 36 -40 0 -98 34 -33 127 0 0 0 -127 121 67 0 -25 36 7 0 -33 41 69 0 126 0 
0 -119 68 -89 0 89 0 26 -115 0 -1 0 -94 16 0 31 -90 0 0 0 -47 103 94 0 -31 31 96 -8 16 0 0 -107 
0 0 -44 0 18 4 23 0 -79 0 26 122 0 -6 -109 -14 0 -21 0 0 0 -31 -93 -70 99 66 -119 -64 -69 -112 0 0 
0 -22 -16 -63 0 96 -104 54 2 0 0 -65 0 79 32 0 -29 -59 0 0 -63 -17 -76 0 101 -111 83 -82 -13 0 0 0 
27 11 -26 0 81 -85 0 46 -124 50 0 0 0 -37 107 0 -44 0 -3 64 109 0 -108 0 0 63 0 -127 68 -123 0 66 
113 71 79 0 0 0 10 0 0 36 0 31 28 -111 32 11 -42 -31 0 25 0 0 -80 -110 14 -11 0 101 0 -4 0 75 
92 61 20 -7 0 -37 -23 0 92 -14 0 12 0 -22 0 0 -9 -36 0 99 0 0 50 0 -2 127 0 0 123 -69 -35 122 
0 -97 0 0 -97 34 -81 9 0 48 30 -80 0 100 28 0 -115 0 19 0 -29 0 87 -69 -127 98 0 -66 -127 0 -90 0 
0 0 -36 0 -59 -82 -5 22 0 44 12 0 -123 0 -9 -26 12 117 0 -15 0 0 58 -17 56 -120 -103 0 0 -1 0 -85 
0 -106 104 0 35 -75 -5 0 117 0 -51 -24 -76 53 0 0 127 18 70 0 54 -23 0 0 13 0 0 108 -111 48 0 -65 
-81 0 127 87 0 0 -70 -72 -87 -92 0 127 106 -11 0 0 -40 0 0 0 108 -84 -66 0 -72 122 -38 79 -96 0 0 1 
-13 22 -75 -4 -62 31 0 121 -96 0 0 0 -21 -97 0 0 -99 -84 -94 31 0 0 0 -66 125 -45 123 0 53 0 0 -13 
0 -86 0 61 59 76 0 -82 0 55 -56 0 -65 89 0 -86 0 90 0 0 -83 0 84 127 61 -34 -19 -77 -73 0 -31 0 
-123 0 0 0 -49 -75 -30 0 0 -92 111 124 0 2 6 124 120 89 0 0 -66 0 7 0 65 0 41 -62 115 102 0 -84 
0 -33 -82 0 0 120 0 95 0 -18 0 123 12 1 -55 -86 118 0 -60 -67 -12 0 74 0 0 114 33 0 -36 25 118 0 
-127 -116 0 0 0 127 0 -113 -29 106 80 89 0 -3 -79 0 -126 -34 -118 0 -121 39 0 -81 65 0 -6 0 0 -100 62 0 
0 -33 0 86 18 -89 0 50 0 97 0 -54 -59 -16 0 -14 0 109 51 0 -58 -29 -127 33 0 -50 0 0 0 -56 83 -1 
-35 0 0 -110 -56 -60 -110 -46 0 0 102 -121 0 -127 0 18 0 0 -13 -127 84 -127 17 -127 -115 0 0 0 0 85 -49 66 
-10 0 81 86 0 -26 0 -109 38 -64 65 0 -63 0 -127 0 81 71 0 0 0 0 -74 -91 0 127 -19 36 0 0 94 96 
39 0 -23 0 -32 5 0 79 -53 -22 -41 0 80 9 0 0 0 -127 0 115 -13 109 0 -44 -73 1 0 0 0 86 -39 112 
0 75 -29 0 -11 0 83 0 -29 72 -19 0 76 104 52 0 62 -46 0 0 0 -69 -18 25 -41 29 0 0 35 0 -102 80 
0 24 14 -110 108 0 -105 92 0 -115 84 0 9 -85 0 0 0 0 20 -37 0 -109 7 -34 -127 29 0 0 0 107 39 41 
0 8 0 60 0 -84 113 -117 -95 0 -119 38 18 -112 0 0 -87 0 -127 12 0 78 0 0 -68 65 0 0 21 -16 -127 56 
116 -21 0 110 26 0 -18 -10 -44 0 -114 0 0 -118 0 -47 0 -6 0 75 -45 116 0 19 0 36 -34 73 0 92 41 0 
58 86 127 -70 0 0 0 0 0 -43 0 -117 -10 120 -117 48 114 0 0 115 6 48 0 7 78 92 0 -78 44 0 88 0 
0 7 0 112 -102 -23 -100 115 0 -30 -109 -58 0 -57 0 0 60 81 0 -57 0 60 -15 77 44 58 0 0 -115 0 0 -6 
0 -89 97 17 0 126 0 -113 -89 32 0 0 0 94 49 125 0 0 0 -97 0 1 0 -114 1 0 28 -85 125 -43 -41 -51 
0 23 121 -88 0 0 49 70 -101 -38 0 0 110 -61 0 69 0 0 -32 47 96 27 -10 49 0 0 -22 -16 0 -114 124 0 
-21 127 110 0 0 -105 0 -7 0 127 73 -65 0 0 -51 -127 -63 -61 -52 0 -86 -34 5 0 0 0 0 0 53 91 96 98 
-118 0 -122 43 0 0 0 -9 -30 127 0 0 -120 -115 61 -30 -34 0 17 0 34 0 97 100 -72 85 41 0 -122 0 -104 0 
0 -119 -97 -82 0 0 -83 0 95 -65 -34 0 0 -47 89 -50 -13 38 16 -52 9 0 0 0 64 0 84 0 -91 97 0 -22 
59 0 -48 0 0 15 0 95 121 70 106 0 -24 36 0 -8 0 -55 0 0 0 0 -28 0 -2 92 18 -58 75 -17 -37 58 
0 3 -74 0 -6 -106 0 119 15 0 116 12 100 0 -101 0 0 0 0 20 -21 0 113 -79 -80 -40 -28 39 0 -3 0 -47 
-13 85 0 -100 0 4 0 -93 -127 47 0 0 0 -71 -90 -94 -63 -71 0 0 10 -127 75 0 -110 74 -38 0 -91 -98 0 0 
0 -88 0 -68 77 -30 0 0 -113 -75 69 69 0 0 23 -69 23 97 0 88 91 -41 120 104 0 0 -43 0 -22 77 0 0 
0 0 0 0 -36 -57 21 61 89 0 -87 -71 -29 -5 -103 0 -73 -47 0 25 0 0 0 -43 0 -14 -90 -38 20 0 0 -75 
0 82 87 -93 0 0 -108 15 0 95 5 0 60 58 65 0 17 0 -34 108 -47 0 0 0 80 -60 34 0 0 -41 -125 -7 
0 -89 0 11 127 49 0 0 57 -10 0 31 0 -81 -48 -91 -63 -27 -103 -17 0 0 -85 66 0 0 -110 -34 -127 74 0 0 
-47 0 45 33 49 -1 25 -122 121 122 0 0 0 0 0 19 -31 0 0 -20 0 70 0 96 0 -127 0 -97 -126 -74 -83 0 
-66 -49 112 0 18 0 -67 -20 0 0 0 115 0 15 -38 -43 -21 0 28 -24 0 127 0 0 122 26 0 -2 78 36 -2 0 
0 54 -65 0 49 120 0 26 -3 0 35 113 0 29 0 55 -99 -79 -115 0 127 -40 0 -13 127 0 -13 0 -2 114 0 0 
-54 -49 42 -88 0 -60 0 0 0 12 99 -127 70 -112 0 0 -71 0 41 0 0 0 43 0 125 -117 100 -79 -127 -84 0 -53 
126 0 0 -122 50 0 0 -92 -81 81 127 -45 -70 0 0 -7 0 9 86 20 74 37 0 124 0 127 0 0 29 0 58 88 
0 92 -108 0 17 -119 108 -45 5 0 0 61 29 0 -31 0 -16 119 -83 127 60 0 0 -92 0 0 -97 0 0 -35 -96 31 
88 0 -35 0 -71 -126 3 0 0 52 0 62 127 -39 0 -100 0 -2 0 0 3 -41 0 101 43 2 119 -35 0 11 102 0 
-54 -105 -25 38 87 0 0 25 0 0 -48 0 32 32 35 0 0 -106 -31 83 0 33 -43 0 0 33 0 100 109 -60 0 -55 
42 0 82 0 93 -100 22 -1 -55 118 0 0 -127 0 -79 0 69 -79 0 0 111 -120 0 0 0 99 78 0 -34 -37 -9 14 
0 -120 0 0 0 88 -56 115 0 0 -113 -38 127 123 -117 -35 52 -42 -85 0 0 -97 127 -53 0 -55 0 0 107 0 -6 -17 
0 -12 -77 -105 21 127 0 0 -115 -119 0 0 0 46 19 -105 -47 119 0 0 -99 -40 0 -81 0 -3 115 0 0 124 -117 -5 
0 -29 97 100 0 0 0 49 -73 -64 -124 20 -127 96 0 0 45 -51 -111 14 -83 32 0 -105 5 0 126 71 0 0 0 0 
-12 -30 -73 -98 0 -45 122 -118 -18 0 0 35 0 0 -30 0 -37 -80 -99 -10 0 -72 0 0 -119 -53 0 -95 -127 0 -7 0 
20 0 123 -91 0 125 0 -91 -125 0 0 19 35 -29 0 46 -94 -72 113 0 109 0 0 127 -127 -120 86 38 0 99 0 0 
108 -75 0 0 -101 -110 -109 102 0 -28 0 -85 -113 0 0 10 -24 9 0 72 -127 21 -69 0 0 0 -83 5 102 100 0 0 
0 0 -116 0 90 17 -33 0 0 93 -58 76 93 -35 127 0 10 0 120 0 -55 57 3 0 -41 0 0 0 114 -42 88 -110 
-77 -58 0 0 0 123 0 25 93 87 -38 -35 0 0 -123 21 -80 104 0 77 -7 -6 0 32 0 0 -23 -43 -98 0 92 0 
-85 -30 0 -33 0 0 -112 74 0 70 0 -44 87 -127 0 44 0 87 -81 -32 -112 0 -25 0 98 0 16 29 -25 0 106 0 
-115 -65 0 25 -127 0 -6 0 -80 0 -124 0 -7 0 115 -122 14 0 -52 73 47 -4 90 -89 0 0 0 89 34 127 0 0 
-35 0 0 95 0 -4 38 -48 7 0 -37 0 121 -97 109 0 -103 57 0 0 -120 73 0 0 0 52 0 -86 73 -65 88 43 
-63 0 -127 -124 22 0 0 29 -85 92 0 83 -15 0 0 3 20 38 -97 93 88 35 -109 -8 0 0 0 -93 0 -41 0 0 
71 0 98 0 14 0 0 66 29 -65 0 -75 -97 42 0 -22 0 19 79 127 -11 37 0 27 0 95 0 0 54 0 -108 -29 
-92 0 -26 38 127 0 -127 91 15 0 -127 -56 -72 0 0 0 80 -59 0 121 86 0 -72 -77 37 0 99 -70 0 4 0 0 
-91 0 -44 0 0 0 -9 0 -43 0 117 -74 -2 -33 -127 103 93 108 0 127 -27 81 0 0 -96 0 81 -57 0 22 -112 0 
0 40 4 0 -44 7 0 127 121 7 0 0 -103 28 -105 0 108 0 -63 98 0 0 -14 -43 -32 0 51 0 0 -77 33 124 
0 -19 -91 94 103 22 0 0 -127 -58 0 0 -43 -116 57 0 0 12 -79 -110 111 0 0 0 11 -57 -3 94 0 50 64 0 
0 0 -75 0 0 5 58 -26 -37 50 -90 0 0 -33 101 -115 56 0 0 -24 41 69 -65 -22 6 0 0 121 -61 0 27 0 
-65 0 -43 0 0 -18 105 0 92 39 0 117 -114 75 0 -9 83 0 0 0 25 -105 0 -114 -43 0 -66 -86 0 6 104 62 
0 22 0 0 0 117 -26 -72 0 -77 -123 85 0 -9 5 125 -7 60 0 0 -78 0 -29 127 1 0 -104 -108 127 0 0 -105 
95 41 -5 0 4 59 0 -33 0 0 0 -47 -33 0 83 43 125 0 0 43 -105 -39 -30 0 26 0 84 -78 -95 0 0 122 
77 18 79 36 0 0 0 10 -106 103 59 0 0 75 0 0 0 -90 -42 78 105 2 -112 36 113 0 110 0 0 36 0 0 
0 0 -74 0 -126 -58 0 -51 91 127 0 -6 -113 -60 -42 0 0 52 111 78 0 -38 68 -26 0 42 0 1 110 12 0 0 
0 101 0 -1 0 -85 127 -1 0 -116 9 0 -35 0 48 82 0 0 -36 0 73 -121 0 -16 -54 0 0 -126 18 72 -106 -120 
32 82 23 0 96 -44 -98 0 -104 68 0 108 0 -98 0 0 0 119 4 -49 0 91 0 -2 0 0 78 102 -2 -127 0 69 
0 -42 -90 56 36 -89 56 0 -84 92 0 10 0 -10 0 0 0 -53 0 94 0 -68 -37 0 -127 -39 -27 0 104 16 -81 0 
0 0 -22 -98 -115 -27 125 -127 119 65 0 -108 0 0 86 0 0 0 -23 0 90 -120 38 -39 8 0 -127 99 51 0 0 -66 
0 0 114 0 -117 69 -127 122 11 0 -71 0 6 0 -68 100 0 0 59 -109 0 2 0 -83 -127 -5 -87 8 0 69 0 -108 
-22 91 -36 0 0 -122 0 0 0 60 -17 -127 18 0 104 112 0 -91 -56 -66 37 -126 0 0 0 -79 93 0 127 117 -20 0 
-91 0 103 0 78 -18 -3 0 -62 -22 118 0 18 0 0 0 0 0 54 5 28 1 127 0 0 -99 0 -26 -42 65 0 118 
0 0 117 0 126 0 -99 108 -16 53 58 38 38 0 0 -50 0 -14 0 -35 0 0 6 0 0 51 -70 127 -107 6 -43 -90 
0 13 -34 0 0 -69 47 111 124 93 0 0 52 0 -49 -127 -115 0 0 0 -45 -66 2 63 79 0 -126 52 0 0 -127 -91 
0 70 -29 -44 0 86 -56 0 0 0 -121 -115 62 30 57 0 127 0 95 -80 -20 62 0 0 -125 0 0 99 120 0 122 68 
44 73 0 0 85 0 -97 -7 -14 0 88 0 79 -91 0 -124 95 0 119 0 0 0 -86 -127 -65 -47 -113 0 108 -9 0 91 
66 -43 0 -36 -79 0 99 77 -6 -34 -53 68 0 0 0 0 0 0 0 0 -5 -54 14 19 63 -20 0 127 -50 75 -76 0 
0 18 48 0 0 -39 0 94 0 51 0 121 41 12 -8 -59 0 0 -58 -85 -78 -24 0 66 0 0 -89 77 55 -29 0 -53 
-48 0 116 -33 64 -2 0 60 35 0 -108 26 0 0 0 -21 0 -95 0 0 112 44 28 0 0 -102 127 -127 0 -93 74 30 
127 66 4 6 0 127 0 0 -35 0 71 0 -123 9 125 0 14 -104 0 0 -115 0 20 0 0 -90 23 -73 -41 26 31 0 
-127 0 71 0 127 -13 -46 0 34 0 81 0 -122 93 0 -30 -86 0 -120 0 0 -56 57 32 0 86 -32 -127 -38 74 0 0 
68 18 123 5 31 -120 0 0 -26 119 99 0 0 0 114 0 -38 0 0 0 -63 0 0 0 70 -37 126 -124 59 -2 68 -77 
-70 0 0 24 63 -126 18 0 -49 0 0 -54 -94 -11 0 78 112 21 0 0 25 87 0 0 127 -125 -61 120 -56 0 -77 0 
-77 127 0 127 80 -106 0 -48 0 0 -4 -66 42 126 0 0 -81 0 -59 0 0 0 -115 112 -127 -59 -115 102 1 37 0 0 
-117 97 0 -67 0 -41 53 0 0 -85 90 -39 0 64 -24 0 -10 -117 0 -90 94 -85 0 73 91 103 0 0 0 -80 52 0 
0 0 127 0 -113 -33 -32 -117 0 -7 75 0 98 -41 0 79 0 108 0 -36 -110 109 70 0 62 0 -16 0 -69 -76 0 -8 
36 96 0 0 0 0 -96 -58 -67 -50 -7 0 0 69 -55 -44 0 -66 114 -6 95 0 -24 114 -7 0 0 -27 0 0 92 -8 
-28 0 0 101 114 -47 83 97 -34 0 -79 -110 0 0 -109 0 -5 66 93 0 0 0 0 98 -17 44 41 -42 124 0 0 8 
60 -65 -127 0 60 98 0 -67 0 -88 0 0 30 0 113 -74 -127 81 85 0 0 47 0 0 3 0 -109 0 40 110 114 -30 
-46 88 -74 49 27 0 0 0 -80 0 15 -126 49 -100 0 0 14 0 105 -118 0 120 46 -37 -67 0 -78 0 51 65 0 0 
117 -93 0 89 -125 -101 0 0 103 11 -48 0 0 -98 0 -4 13 -103 -31 -38 0 121 -6 0 0 0 0 37 119 63 -73 0 
-77 0 0 90 0 0 -33 0 92 0 -24 19 -48 -47 -60 -103 121 0 0 0 -87 127 -13 82 -5 0 -127 14 0 0 -10 114 
0 0 16 -51 0 -109 -127 -124 -127 0 -121 -83 111 0 0 16 -115 92 -13 0 0 107 44 18 0 0 0 97 0 -122 21 -127 
-103 0 0 -42 54 -92 68 0 0 77 -35 101 0 76 99 0 -54 0 0 102 -22 -86 0 120 0 -127 -86 0 83 60 -76 0 
0 -1 0 0 0 34 -127 0 0 -33 52 86 -80 -115 -1 -92 70 -52 0 42 0 -43 0 79 0 -80 0 16 -111 -67 -119 0 
-127 0 79 -31 0 0 0 -127 60 -63 84 41 117 0 0 -60 0 -41 127 0 -119 103 0 -98 21 0 0 0 58 103 109 55 
0 -56 -127 0 0 14 -45 -25 0 0 -119 -30 39 -1 0 120 0 -19 -115 0 32 125 -98 -84 -51 101 0 0 11 0 -43 0 
-45 -92 0 0 56 0 30 -119 0 -121 0 30 -24 0 -19 -96 -97 0 111 0 81 -51 -48 0 0 -52 21 90 -5 0 -75 0 
102 -46 0 0 -127 -72 -68 -120 0 82 62 0 98 0 2 0 15 0 0 0 -73 127 -106 -67 0 0 53 0 -33 4 82 105 
88 -40 -96 0 -7 0 0 -2 124 95 0 -61 1 0 0 23 0 0 120 -7 126 0 79 119 0 0 -94 -45 -109 0 61 37 
-73 -127 61 0 0 29 0 0 -82 -53 0 0 -2 -91 122 110 0 0 0 50 0 -57 91 -70 0 84 -16 0 117 115 11 0 
0 119 55 0 120 77 0 127 8 59 0 0 0 -74 -127 -22 0 14 0 73 0 0 0 127 117 0 38 102 -85 -115 -73 -61 
101 -54 -36 -106 41 0 -21 30 0 0 -88 0 0 42 114 0 0 105 0 -17 0 0 -6 -115 -81 0 57 26 0 9 38 127 
54 86 0 0 0 -60 -19 -107 0 127 24 79 -44 0 -62 0 71 0 0 11 0 0 54 -58 -53 0 3 18 -72 0 36 1 
-123 41 -26 0 -108 29 -113 0 0 0 71 127 127 77 0 0 118 0 -81 -95 0 -124 0 127 0 97 0 -44 -48 -118 -113 0 
-71 -83 0 0 0 116 0 9 31 -114 63 89 60 0 99 0 -127 0 55 -101 2 0 -96 0 23 114 -19 0 0 0 16 2 
0 0 8 28 0 25 42 41 0 -30 30 55 0 0 23 127 0 -53 0 -36 -127 70 0 -54 0 70 -74 -40 57 0 113 0 
9 -119 0 0 -40 0 -77 12 0 44 -5 17 0 -42 12 0 70 -99 0 0 77 0 -7 -92 82 74 -83 -125 0 0 0 -99 
-117 56 -119 7 0 0 40 0 0 68 0 -24 -24 81 0 -61 -125 0 18 -2 0 0 0 109 -9 -116 45 44 118 0 -117 0 
-68 54 -41 -98 13 0 0 40 36 -28 0 0 0 118 111 0 0 74 59 -58 24 -13 0 37 -21 0 32 108 0 -61 0 0 
31 0 0 0 23 -62 -71 127 85 -127 0 0 0 -122 28 84 -98 0 0 0 -111 -66 2 0 -7 -88 0 -62 -127 0 -37 -2 
0 0 -119 -76 0 0 -30 4 15 -24 -52 0 -98 0 -124 12 114 -50 0 -18 0 126 -125 0 38 0 0 0 30 24 85 -11 
82 0 -103 -4 7 0 0 97 0 0 0 -18 19 -111 54 -11 57 -127 -37 0 0 71 0 -61 0 -23 0 -99 0 -49 35 -88 
63 -19 -11 98 0 0 -92 0 -65 0 31 0 124 99 0 70 -94 69 -5 0 97 0 0 73 -126 0 0 -107 -92 89 0 -110 
102 78 88 0 94 0 0 0 -127 0 0 -38 102 0 28 -97 0 0 111 0 75 0 -31 -103 28 80 88 45 0 -74 0 32 
0 79 0 40 96 79 66 23 0 0 0 -47 -127 -83 0 59 0 -5 0 25 85 0 44 104 -70 0 54 57 -77 0 -22 0 
0 35 0 0 -37 -97 -127 0 100 -22 0 0 -47 -98 -89 -67 0 21 -96 1 0 0 0 -21 0 -126 -45 97 -122 0 0 -38 
63 0 48 0 -22 -26 0 0 0 -105 -21 -27 0 54 -53 11 -111 0 0 0 -74 74 13 -77 -104 -12 0 88 -25 0 90 0 
1 0 28 -127 0 15 12 -66 -125 -73 0 0 0 -1 60 0 -70 -38 0 -33 45 0 -31 0 -90 0 -93 0 -44 -87 0 126 
29 -79 0 0 0 0 82 -116 15 -89 0 -73 2 -107 0 9 0 0 -84 -62 0 97 0 -72 -77 -127 -82 -85 0 -45 0 29 
-97 10 -12 21 -5 0 -17 16 0 100 0 0 72 -89 0 0 0 0 19 -48 40 0 -127 0 125 0 127 0 -5 111 116 99 
79 -61 0 20 -74 -8 0 0 -18 0 0 -97 -26 0 -48 14 -20 0 0 0 -6 0 -20 -84 0 -32 0 -81 2 -32 89 68 
0 0 0 0 -77 0 -55 96 63 -123 78 -104 91 0 24 -63 -122 0 51 114 78 0 -79 0 118 56 12 0 -127 121 0 0 
0 0 0 0 -19 0 127 32 127 38 80 -30 -68 0 106 0 0 56 0 0 0 0 -39 66 75 76 -1 127 0 31 94 82 
27 0 -11 0 0 117 61 0 -85 27 64 -48 -77 43 0 0 40 127 0 91 15 0 0 -94 0 0 0 116 -120 -14 105 -77 
127 67 0 0 0 11 126 -26 0 126 -98 0 71 0 120 -55 -14 0 0 7 127 -67 81 0 -33 -29 0 -67 0 -94 -117 0 
111 127 72 -96 0 0 34 -127 0 -32 0 0 8 117 0 -9 19 0 96 -26 35 23 0 4 -127 0 -39 0 0 -124 2 0 
127 0 0 -105 -99 30 -88 -91 0 0 0 -3 -78 0 -25 -82 -38 -66 36 13 -30 0 -8 48 0 38 0 14 0 0 -47 0 
127 -33 0 -18 -43 105 0 -87 0 122 0 0 101 0 47 126 99 -44 0 0 -1 -127 -127 0 108 -16 0 0 -127 4 112 0 
-70 0 94 106 0 0 0 -28 95 127 0 -98 -20 -102 0 109 0 -49 0 0 -42 -73 0 0 0 -13 23 -117 14 3 61 -39 
0 76 0 27 70 -1 -14 -114 0 127 0 0 2 15 0 71 0 -121 -81 -100 -120 -15 96 0 -117 0 0 0 -84 -102 0 72 
0 0 0 124 0 95 -39 -12 0 42 -95 0 -127 -29 12 -109 -66 57 0 -71 4 0 -61 66 21 -96 0 -92 0 0 -75 0 
127 30 55 -55 0 -31 -127 0 0 0 119 0 100 0 91 -80 76 71 54 -61 0 66 0 -59 54 19 -71 78 0 0 0 0 
0 0 -127 -96 92 127 -52 0 -115 0 100 -127 0 0 -95 -98 0 127 0 -24 -97 -29 0 -10 -104 -96 0 0 -127 0 -93 -16 
0 0 13 29 -75 -70 127 0 0 -66 0 -30 -100 -14 -72 0 -59 88 0 7 105 0 121 0 -126 39 0 10 0 65 -76 0 
0 0 0 51 -66 53 -94 0 127 0 40 69 127 93 58 0 -16 85 0 0 -81 -110 -2 -127 0 25 0 127 126 76 0 0 
45 81 0 127 0 -8 0 68 -6 0 14 0 78 0 -80 -125 -121 0 0 8 -52 0 -98 -72 107 0 0 71 -127 22 0 -61 
32 0 -1 52 0 0 11 56 0 74 0 -124 -95 -48 0 36 0 -37 0 0 0 75 -101 -35 -30 80 38 0 0 -90 -48 -78 
3 0 5 -7 115 27 -60 0 9 82 0 0 0 -24 0 0 -6 76 0 0 30 -66 3 100 73 124 0 -36 0 59 0 0 
0 -69 0 -29 -80 13 0 0 0 21 -24 23 0 10 13 -4 0 -20 -17 0 0 -73 -109 0 -110 0 24 127 0 9 0 -67 
0 0 -80 -74 51 76 42 0 0 -81 -31 0 -7 0 95 34 0 53 0 78 -58 55 0 22 57 42 -65 0 -89 29 0 0 
0 110 10 0 94 -90 0 0 0 -40 82 -122 76 0 -108 -51 0 -9 0 -60 -55 0 -21 0 -34 -59 -41 0 0 -3 78 55 
-40 0 -47 0 -67 -41 92 0 127 126 0 27 -4 0 0 1 -12 -126 -91 39 0 52 0 47 0 -7 0 41 -38 0 119 0 
58 0 0 0 -26 0 -68 0 77 0 -56 127 37 -17 70 59 0 -20 -110 0 0 -34 -124 105 -116 0 -40 0 78 118 45 0 
57 -67 0 105 29 -119 0 119 -47 91 0 0 -122 0 0 36 0 -49 -1 125 23 -34 0 0 -6 0 41 -3 0 0 76 -30 
-79 -127 12 0 0 0 73 104 38 57 0 -118 72 -127 0 0 37 -109 0 -55 0 0 68 21 -77 70 112 0 72 -49 0 0 
0 101 -86 0 75 0 0 -99 -115 -110 0 75 -11 126 0 38 0 0 -13 49 0 -89 0 0 108 28 -26 5 -11 -49 25 0 
0 -39 124 0 0 0 -42 0 101 0 -61 -61 25 -127 125 39 19 88 -126 0 0 -92 0 0 -22 -96 127 54 0 61 17 0 
54 0 4 0 66 -52 0 0 0 109 -89 80 119 0 -99 -50 0 37 -30 0 -51 0 -36 32 0 9 -5 0 0 105 86 -43 
42 -126 -97 30 0 63 0 -37 76 0 0 110 17 0 0 87 0 0 -25 0 -16 -39 0 121 -76 0 -7 69 0 -51 -30 -98 
104 -107 -127 -26 31 -1 0 0 81 -44 0 90 0 0 -85 0 0 87 71 -1 -4 -59 33 -93 -24 0 0 0 0 -71 0 -64 
-65 -46 0 0 20 30 0 21 55 2 0 0 0 48 -118 -6 76 0 113 -6 0 -48 0 105 0 -49 0 0 23 -2 -37 -86 
-103 29 88 0 0 0 0 0 39 -107 78 0 -79 -97 41 -111 103 116 -23 0 0 0 -62 0 -58 1 -63 -123 0 0 83 13 
59 0 0 -48 121 109 0 -44 -106 69 108 0 0 0 -105 -40 0 0 -62 -1 83 116 0 -28 66 -29 24 0 -81 0 0 18 
127 0 122 28 100 32 7 0 0 44 72 0 0 -13 0 52 22 50 0 0 0 -127 -25 0 50 0 -13 -127 -40 77 0 108 
-127 127 90 -94 0 23 0 -52 0 71 48 0 -23 65 0 0 103 0 -14 -44 -125 -127 0 -74 48 127 -61 0 1 0 0 0 
16 127 0 0 46 -73 -83 13 105 0 0 -96 0 22 -118 0 -28 -50 0 70 -127 0 117 -33 97 0 -73 0 0 93 27 0 
0 115 0 127 123 -21 -118 -121 78 0 -29 93 0 0 0 0 0 119 -106 -55 -2 -11 -127 -126 0 0 5 34 0 0 0 -106 
0 0 65 115 -33 52 60 56 93 70 0 0 -127 0 0 103 27 0 127 117 94 33 126 0 -108 -55 28 0 -51 0 0 0 
0 0 -39 126 -29 29 87 0 -47 43 0 -19 79 0 -49 0 -17 0 53 0 -106 124 0 -34 0 94 0 -96 -61 -52 -55 0 
0 0 -42 7 -58 0 114 -102 113 0 -46 0 69 -15 -19 0 0 0 0 -49 92 -87 52 0 25 -71 0 -127 -116 54 -41 0 
0 81 0 -61 112 0 -53 0 0 0 55 -41 -116 -20 -112 64 0 0 0 -112 67 23 0 109 0 113 -94 72 0 12 17 -118 
-88 0 -53 -59 56 4 0 -50 0 -62 0 86 127 40 0 0 -105 0 -127 -52 73 80 -100 -75 50 0 0 106 0 0 0 -87 
-99 42 21 -116 -66 77 -122 -76 0 -18 0 0 0 0 84 0 -115 -68 50 0 0 104 10 -70 -97 0 4 95 0 -89 0 0 
103 0 0 -106 56 47 0 0 79 0 127 0 91 -64 36 -6 -110 55 -78 0 70 -17 115 0 -18 104 0 0 0 0 -30 127 
0 55 -98 -127 24 0 0 31 -107 0 20 109 -127 0 0 -86 -114 -88 0 92 119 33 13 0 42 26 47 0 0 20 0 0 
0 -95 -4 0 31 17 0 79 78 126 -110 0 0 127 -100 0 -63 -89 -93 0 92 0 -93 0 114 15 0 0 -35 -82 0 45 
0 0 32 -58 0 -127 34 125 93 0 -10 44 7 0 -89 0 17 -101 0 59 0 0 0 0 80 82 11 0 49 -98 -84 -40 
44 95 0 -58 -33 118 -49 -87 102 -13 0 0 -19 0 0 0 0 -82 -32 -90 0 -86 0 -35 91 0 17 80 0 0 61 -82 
-112 0 0 -102 37 103 0 127 0 0 0 8 79 48 -33 -74 -109 114 -71 50 0 74 0 113 -46 0 -86 0 23 60 0 0 
-14 -23 0 0 0 -39 -104 0 -127 -4 -61 41 38 0 -77 0 13 0 96 -56 0 0 34 39 0 -93 120 2 -25 84 0 0 
-9 23 0 0 9 0 50 0 0 -63 -57 0 -14 -127 108 102 0 81 67 -60 49 0 0 -14 60 0 -88 102 0 0 -28 21 
0 79 -2 94 20 70 0 -122 -86 -38 0 -17 -2 0 0 0 -107 13 0 0 0 0 14 0 -93 -69 0 -81 -80 -9 -122 -48 
-43 -11 0 0 -123 66 -34 0 -112 0 61 -4 0 -2 0 -59 70 0 0 0 -28 86 1 0 59 -106 -65 -9 0 -89 0 121 
0 -92 -62 108 72 0 -72 -92 0 64 0 106 0 -28 0 -127 0 68 -113 48 103 -96 0 -16 0 -43 0 0 20 -95 0 -127 
0 101 58 61 -44 46 -110 64 0 31 0 0 87 0 0 -121 0 24 -29 -81 -84 0 5 0 29 0 -10 -109 0 0 -2 109 
42 -58 12 0 127 0 77 -46 0 -18 0 -127 0 0 97 50 -111 35 0 -58 -43 0 35 0 0 0 -14 126 0 -3 62 90 
43 -100 0 -1 127 38 10 -127 -127 0 0 -126 0 10 0 0 -126 0 -127 0 84 -123 -91 119 96 0 -96 115 0 0 18 0 
0 63 0 37 55 12 0 -9 -89 -57 -7 0 10 0 0 108 30 -127 -32 55 0 -43 0 87 0 14 0 0 -4 -13 -20 0 
87 33 0 0 73 7 -91 105 0 0 18 127 40 0 119 0 -86 0 75 0 0 -36 -55 -55 0 111 -69 0 30 0 -86 -15 
0 0 113 88 0 77 -54 4 127 86 -127 24 0 -20 0 0 42 12 -70 -83 0 -6 0 0 -98 0 0 -38 -62 0 21 -65 
-57 -44 38 0 0 0 0 -54 126 0 -40 94 80 55 15 0 62 -105 -14 0 0 -114 0 124 6 0 0 0 52 120 -98 -57 
0 81 0 0 0 41 0 -70 -83 52 27 57 -48 0 -53 -127 -109 -106 -86 29 0 0 53 -112 0 0 -127 0 70 53 0 123 
-60 -125 -54 0 0 117 -87 78 0 -46 0 -127 13 0 72 0 -108 62 0 0 -126 43 -118 120 6 0 127 0 -29 0 0 101 
-34 0 0 14 62 116 0 -42 65 21 -47 -15 0 0 0 57 0 0 -118 63 -127 -9 0 87 -17 0 -118 0 -71 2 -115 0 
0 -119 0 -29 36 114 0 -127 0 4 108 -43 0 125 -24 0 0 18 82 48 0 0 125 -22 -82 0 -70 -103 -3 0 0 -14 
0 20 29 0 1 113 0 0 0 126 118 -118 39 -105 122 0 -91 -83 -71 -111 -96 0 -57 0 -42 0 -37 0 -82 -74 0 0 
0 23 0 0 -41 17 74 -125 -36 0 0 -127 0 24 -86 -14 -61 0 -127 119 -46 0 -84 -108 0 0 77 58 0 0 0 -67 
0 -27 0 -71 0 5 0 41 -122 14 0 -72 122 0 102 -72 -99 -57 0 57 -52 -30 -85 23 0 0 0 -55 0 23 -29 0 
0 -99 -20 0 0 127 72 123 0 -39 -70 -59 10 27 0 0 57 37 -28 0 0 1 -36 0 0 -66 110 0 0 11 20 -27 
0 13 -33 0 -125 46 0 96 -105 0 -117 -79 0 77 0 116 60 -7 -37 0 -77 12 -12 0 0 0 0 0 46 -127 37 120 
-81 30 0 0 -86 -111 119 -57 0 87 0 0 -69 -82 0 38 0 0 0 -90 0 36 0 -108 -28 -115 -45 0 -99 0 33 -89 
31 0 0 0 -75 59 -118 -104 101 0 -83 127 109 0 0 93 0 85 0 0 22 108 -94 8 95 0 112 28 0 4 30 0 
80 0 -127 0 0 -61 -88 106 5 64 72 0 97 0 -96 0 -124 66 32 0 -4 0 53 0 0 71 -118 42 0 -72 -127 0 
12 0 -102 -5 -66 17 0 11 -96 0 0 -41 0 0 -57 -53 77 0 52 0 90 -48 -63 9 50 0 0 -43 0 -17 -4 0 
0 94 120 -10 0 -10 52 0 72 62 108 85 0 0 0 -79 -40 61 -4 0 0 0 -54 0 -55 -38 0 110 0 -25 87 -50 
0 -96 -16 0 0 -39 0 0 0 44 -117 0 33 -30 -35 59 -125 -11 0 18 123 64 0 127 80 -94 0 0 0 -51 -68 0 
-125 114 68 0 0 0 0 0 98 106 60 -35 127 -77 94 0 0 -71 -54 61 0 101 0 0 56 0 28 12 0 51 125 14 
18 -24 0 -29 -13 0 -23 -100 -90 0 0 66 -112 0 0 -66 0 95 74 0 -91 -97 -42 0 0 81 0 126 -119 0 98 95 
89 0 0 -44 125 0 -54 6 0 0 0 -89 87 113 50 69 0 65 -76 31 124 0 -63 -81 8 0 38 0 0 0 112 -2 
-83 -21 0 0 0 -68 0 91 -8 -127 0 -29 127 -64 0 -66 -123 14 0 0 -113 -110 26 0 -69 94 0 -105 0 -28 18 0 
-64 15 -4 -24 0 -5 39 -94 0 22 0 0 0 88 -52 0 18 0 0 62 74 82 85 0 16 -126 -78 0 0 0 6 82 
117 62 92 0 0 -29 0 -20 0 -42 -60 0 0 112 -21 -36 0 0 124 -117 0 -110 39 42 35 0 -57 17 0 -80 0 -122 
8 -127 64 66 0 11 -74 0 0 0 82 -11 0 51 3 0 108 0 11 -85 0 0 0 -100 90 0 -55 -127 -118 0 10 107 
-49 0 86 -1 38 0 0 81 2 0 -127 -78 0 0 36 -18 127 0 108 1 29 0 0 -126 -39 0 28 81 9 0 123 0 
-127 -81 0 -35 0 -66 0 -68 0 -81 -122 77 27 0 -96 0 -127 0 -89 0 0 15 38 0 0 26 -23 0 -88 -22 112 49 
104 0 104 0 0 54 68 -63 0 0 -96 -127 -116 48 0 -44 0 0 88 -11 0 -43 0 -119 66 107 0 -48 -14 112 0 95 
0 -9 0 -5 127 -84 64 -85 35 0 -11 -115 -34 0 0 0 15 -123 -68 -23 127 60 0 0 0 0 -66 30 0 -35 87 0 
-108 104 0 0 -41 -115 -9 0 0 51 -3 0 35 -30 0 -2 0 0 0 31 -46 111 64 22 0 -40 0 20 -124 126 0 0 
-100 68 -101 -127 -41 0 37 0 -47 0 -124 9 0 5 0 0 0 -101 15 119 0 -39 36 58 35 1 -8 83 0 0 0 0 
0 104 41 50 87 0 -64 0 -77 -107 0 7 22 -119 0 0 0 11 0 0 31 0 0 0 -4 -106 -127 92 101 -21 -24 61 
0 -13 0 -114 0 -46 0 -16 -42 -67 -23 0 35 0 3 -78 0 0 -32 -34 -96 47 -26 10 0 -81 0 0 -103 45 0 0 
120 94 0 0 -119 -75 22 127 0 73 0 1 0 -16 0 48 -13 65 19 0 104 0 42 0 -112 0 90 0 116 70 43 0 
94 59 0 108 122 0 0 0 -38 2 119 54 0 0 -86 39 0 -87 123 71 -26 0 99 17 0 -57 0 0 4 0 27 17 
0 0 104 26 -31 57 0 -84 44 -4 0 -21 -54 -3 0 0 0 0 76 61 -91 0 88 124 0 -120 0 -28 -22 -102 111 0 
0 -65 0 37 85 15 0 86 0 0 -71 -94 118 -126 -90 0 0 44 43 0 -9 17 5 0 80 -127 120 0 42 -46 0 0 
-40 0 0 127 115 0 4 87 -98 0 0 18 0 -83 -1 -50 111 93 0 24 0 54 109 0 -37 0 0 50 -95 -93 0 43 
46 65 14 0 0 -127 35 0 67 77 -93 0 0 0 16 -10 0 -119 0 80 93 -21 50 -112 0 38 0 0 0 -127 -127 -127 
71 -47 -120 -71 32 111 0 0 0 0 0 127 0 26 -122 37 0 0 0 -10 -116 -50 -46 -62 111 93 0 0 101 0 111 0 
82 -60 100 70 -69 0 0 0 -52 52 0 74 0 31 -127 0 0 -39 0 -119 -1 88 0 0 -92 0 -50 102 -99 -9 0 43 
45 0 0 -72 0 0 -79 -43 0 42 -19 0 -41 -95 19 47 -116 0 0 -62 0 -35 90 -27 0 0 114 16 -103 -86 45 0 
0 -54 30 -88 -67 -3 -82 82 0 0 8 -53 -101 0 0 0 12 93 0 -63 0 7 0 64 0 -62 -49 84 0 0 81 40 
0 15 98 0 84 95 24 127 -92 -59 -105 60 0 0 0 0 0 -93 -80 0 0 0 54 -104 0 0 -6 -69 6 -36 43 27 
0 0 15 125 0 -89 -107 -94 0 -21 -50 -85 106 0 -127 0 0 31 0 127 -85 80 -51 0 0 -69 0 -7 0 -22 -7 -31 
127 0 0 0 -9 65 0 -122 -17 86 78 119 33 0 0 44 -107 -83 110 -34 0 0 0 0 7 62 0 -123 68 0 7 6 
-85 -29 0 0 -84 0 67 54 -125 0 0 81 -105 0 -28 -112 127 -46 4 0 0 0 0 0 85 66 80 117 57 86 99 0 
32 0 0 89 0 -44 39 -57 0 -125 -32 -98 118 0 -14 0 115 -20 88 -29 118 0 0 85 0 -123 -35 0 0 87 33 0 
0 0 -66 -22 0 -76 -45 -8 0 52 -80 66 0 0 -127 64 0 -125 -48 0 123 0 -34 68 0 0 9 72 99 -118 -9 0 
113 21 0 0 -105 16 2 0 117 -3 0 -103 -108 51 0 0 0 0 76 80 104 117 26 0 5 13 0 -50 0 0 19 61 
0 64 12 -103 16 115 0 52 0 -72 -108 0 0 42 -21 0 -94 0 -31 -93 127 14 -6 0 -10 -120 -124 0 -53 0 0 0 
0 104 72 0 98 -80 0 0 -20 0 -41 127 -10 33 -35 0 -40 -103 0 0 0 -40 -82 127 6 -74 3 0 0 114 -51 0 
79 1 0 104 118 0 -25 -9 0 50 -21 0 82 -121 0 0 31 0 0 0 -49 0 -52 14 93 0 -90 0 -23 122 41 -92 
-84 0 0 -122 0 0 120 85 100 -43 54 0 122 84 117 0 124 0 0 105 0 112 0 -68 0 -15 -27 -27 -57 0 -1 -76 
0 0 13 -87 35 -64 16 107 0 0 0 0 -1 121 39 -96 -5 0 0 -105 0 6 14 95 23 0 41 0 0 -13 127 -71 
100 0 -109 32 7 0 0 0 23 89 77 0 63 100 0 52 0 0 -126 50 -74 -72 -20 -20 24 0 -87 0 0 0 -114 98 
94 115 73 0 0 -1 0 -111 -127 -59 0 126 19 6 0 0 24 93 -37 0 81 -22 123 0 -20 0 -54 27 0 -55 0 0 
0 -80 0 65 0 77 -64 0 17 -83 -4 123 3 0 0 -28 7 113 0 0 104 30 0 30 0 0 121 2 0 -49 92 127 
50 0 -6 0 -117 127 0 106 20 0 28 0 57 11 0 35 0 11 0 -105 -44 -4 0 -26 0 0 -38 -38 58 0 -91 -71 
0 39 -112 0 -38 0 0 -127 -70 61 2 -22 -127 11 0 0 -38 0 24 -9 -104 -73 -45 105 -71 0 -106 0 0 0 0 57 
-99 60 -36 -109 11 -68 0 -3 127 0 0 0 0 -3 88 0 105 0 -47 0 -29 0 0 -57 -127 0 19 93 3 0 -21 -99 
0 -27 -40 0 0 59 -96 0 -79 -63 0 60 25 -127 -4 0 -104 13 0 -67 0 7 100 0 -127 -78 0 38 36 0 0 -46 
62 0 -53 -53 84 -33 0 0 80 -90 0 0 0 89 -118 -77 -121 0 15 0 6 38 -127 0 -88 0 0 0 104 119 -87 -23 
120 0 3 -45 0 -37 0 -81 0 0 -127 118 13 116 127 0 54 0 -127 0 34 116 0 -97 30 73 -14 0 -49 0 58 0 
-16 -61 5 -49 101 -125 0 0 0 0 12 -47 16 0 -81 0 0 -95 -127 0 0 -112 -72 86 32 0 0 44 0 73 121 86 
55 0 18 -25 -76 -127 0 45 -84 0 60 0 0 -72 14 0 -27 -127 70 -111 64 -118 42 0 0 5 0 0 -93 101 0 0 
0 0 -2 94 0 -7 0 -84 -45 94 0 -111 0 117 72 -117 0 -15 55 -1 45 0 0 -60 8 122 66 0 127 0 -50 0 
82 0 0 28 -106 0 0 -82 -122 -113 39 0 0 -28 -116 127 0 0 -79 -22 0 -45 -38 5 13 104 55 0 0 0 -20 -35 
0 -117 -127 0 36 122 0 -92 0 -97 0 -117 -83 0 -80 -127 -126 -40 0 -64 0 -60 76 0 0 -49 0 -101 107 -38 -4 0 
-30 -108 95 -42 0 0 -127 0 -105 127 0 0 115 111 90 0 14 35 0 91 18 32 -111 0 -51 0 33 0 -11 0 100 0 
67 -34 -127 -50 0 -14 96 101 0 -95 0 0 109 102 0 0 32 92 0 -98 0 -119 0 123 -64 -47 0 0 0 66 67 -13 
15 -127 28 0 0 -65 0 -26 -34 0 0 0 -78 -86 -1 50 -127 -123 0 0 115 0 0 123 0 -127 0 58 -45 48 87 7 
87 -83 -44 -74 3 99 0 0 95 0 88 0 -118 -126 0 0 -116 -112 0 0 0 113 0 0 5 0 -102 -127 47 -65 -55 -70 
-13 0 -45 60 0 88 0 0 -86 85 -52 -82 0 45 0 50 -42 0 0 -36 82 62 0 0 17 23 -65 -11 127 0 39 0 
-99 -47 0 0 0 -4 127 0 0 49 101 0 -115 -11 20 22 -33 104 0 45 -47 0 67 0 0 0 -112 -120 37 -76 0 12 
-11 22 0 0 0 -28 -32 -17 0 -10 33 0 54 -127 0 -87 0 26 -52 46 0 0 -70 0 92 -111 0 113 26 28 -119 0 
47 0 0 0 0 20 81 -127 0 -96 -67 120 -45 38 16 0 0 111 0 0 105 127 111 102 63 0 -102 -71 0 -93 127 0 
0 0 103 69 0 -50 -126 0 -65 112 -6 -4 0 6 0 -127 122 7 0 -9 0 0 126 127 0 3 32 0 107 0 -33 47 
0 0 0 -117 -26 -27 -116 0 88 51 -125 -113 0 108 0 -106 0 -81 -125 82 0 -104 -85 0 0 0 -63 0 -71 96 109 71 
0 -117 107 21 -16 0 -127 0 0 -74 -66 41 49 88 0 0 0 23 0 0 111 29 69 0 -31 0 23 -60 -88 43 0 -22 
-99 63 9 -84 0 -1 71 0 0 84 0 -87 0 79 0 61 73 15 -16 23 90 0 0 3 0 2 0 113 0 61 0 26 
0 -85 0 0 0 -127 -116 0 49 37 71 89 -90 78 9 0 0 63 -91 0 25 -37 78 37 -57 22 -76 0 127 0 0 0 
0 -122 112 -95 -22 0 48 18 127 -105 0 0 0 0 -98 -47 0 -19 -3 35 0 -59 0 -18 0 -23 120 0 127 -52 -9 0 
71 0 0 -52 0 0 70 -78 -99 0 -123 0 57 64 6 -66 16 0 -77 0 -19 0 -42 0 0 -26 -23 53 -24 0 127 -123 
0 27 35 79 -55 0 -79 109 8 0 -39 0 0 0 -7 -22 0 0 46 0 0 0 0 -123 49 84 -113 47 28 96 -45 66 
-70 58 44 0 26 0 8 0 44 -14 -91 0 0 0 69 -100 0 0 0 44 -91 0 -88 -107 -69 -85 -78 0 15 0 -122 -122 
-104 -127 44 0 -57 -99 -119 0 69 21 0 0 -22 0 -80 0 16 12 71 0 32 0 0 -34 0 66 110 0 -69 14 -2 0 
-1 -33 0 0 -2 0 -59 57 19 0 -104 0 0 18 -118 -99 25 62 0 4 0 37 -94 75 0 34 37 44 0 0 0 44 
-78 0 0 0 -60 0 -38 0 0 70 -88 -113 25 -65 3 -88 0 33 0 127 2 -55 -127 -16 0 0 56 -92 0 0 27 127 
115 0 62 0 -24 0 34 0 0 -98 58 12 127 0 27 124 77 61 0 -54 67 52 -40 0 -18 0 -58 0 0 0 -4 -68 
28 69 -9 85 5 0 0 0 -95 -124 -24 0 -92 0 0 -124 -18 0 -123 95 0 -103 -21 124 -115 -33 -102 0 0 -41 0 0 
-25 0 -123 0 0 0 -44 0 -122 31 102 22 0 -31 -65 -117 53 0 -101 0 -68 -91 57 0 0 -58 0 -46 0 -121 0 121 
0 0 -65 103 0 -125 101 65 0 -123 0 29 0 39 127 125 -47 0 0 -45 0 -69 -56 0 33 -46 -24 52 0 -117 34 0 
0 0 -59 1 -120 -100 -11 79 127 104 -61 0 0 0 103 0 0 0 15 -51 27 0 19 0 84 37 41 0 -115 0 -17 -110 
-6 0 0 0 112 0 127 0 34 -55 -19 -43 0 89 -39 -82 0 5 0 0 -71 123 -108 -13 -18 0 120 0 0 -67 -62 25 
0 -109 76 -120 87 -46 0 -79 0 -127 0 -47 -79 -73 0 0 -42 -22 -75 -28 49 -51 0 0 107 0 0 0 -72 -61 106 0 
0 0 0 -71 54 66 -90 -30 0 -106 -127 -63 -42 0 -43 0 97 0 -8 -122 0 0 -62 66 110 0 0 95 0 -36 52 -106 
-14 -6 0 -56 115 0 0 44 98 8 113 0 0 114 0 20 113 -37 -40 0 -112 121 0 -103 -90 0 -34 0 -6 0 -63 0 
17 106 70 0 63 -69 0 82 -38 -40 0 -75 0 -73 0 0 0 91 0 -127 -72 0 -69 42 -83 0 127 1 0 -83 0 -88 
52 69 -80 0 -32 78 0 97 0 -41 0 -92 0 -88 0 108 0 -111 -48 -30 -46 -117 0 -64 0 -54 -38 0 90 92 0 0 
0 23 0 127 -111 56 -124 0 -66 -76 0 0 0 66 125 123 66 73 -35 0 0 -20 111 0 -40 0 0 109 -126 0 72 -40 
-5 0 -71 0 -54 102 -118 0 0 0 -39 -68 -80 0 -127 123 14 106 -47 -71 77 0 -1 90 0 0 -119 0 39 0 -22 0 
0 45 -34 0 0 0 53 37 -92 38 127 0 -10 0 -91 -60 -65 -82 0 -82 98 39 0 41 0 0 -76 0 -27 0 -74 4 
14 -39 0 -125 94 127 0 0 0 -39 98 -21 98 0 7 0 -97 20 0 -123 0 0 -59 -127 112 -33 64 0 0 -113 0 -74 
-49 0 0 43 0 95 111 102 0 69 19 54 0 0 -99 -75 -15 -100 0 -30 0 0 -38 0 23 124 32 0 -45 -127 0 -127 
0 0 19 125 93 61 84 65 -119 0 0 5 0 0 50 89 0 15 -36 0 0 -93 -78 -88 121 0 -95 0 103 0 -58 -68 
-75 0 0 -127 8 115 120 121 49 51 0 119 -124 0 0 0 -112 3 0 26 0 0 29 -84 118 0 88 127 -51 0 36 0 
-93 -29 -63 15 -81 80 -127 -71 0 0 87 0 0 0 0 -63 51 98 0 -14 68 0 0 62 20 0 -38 0 33 111 33 0 
-26 0 -108 99 0 -100 0 47 -81 102 0 -50 0 0 -106 -17 -15 120 0 0 0 0 -94 78 -79 73 0 14 106 0 -50 16 
0 42 13 0 0 126 0 107 -80 0 -108 0 -62 85 124 31 109 0 -37 97 -122 0 -69 25 0 0 0 -16 0 -90 -62 48 
101 -31 0 -58 71 0 -24 0 16 12 0 108 -80 0 0 -10 0 -127 -101 -23 122 126 -67 -86 0 0 -15 0 0 73 0 -59 
0 0 -127 0 114 -46 7 93 0 61 115 -14 0 0 -94 0 39 13 0 0 100 0 120 0 118 0 -75 0 -126 32 113 122 
0 51 -48 31 -112 0 -45 0 0 0 38 -17 -93 0 43 -37 100 114 0 122 66 0 0 69 -127 123 127 0 0 0 0 -107 
-30 63 0 -98 0 0 -24 82 127 0 -2 0 101 87 0 -39 -36 0 65 0 0 9 -113 11 0 -72 -8 8 0 60 0 -77 
-42 0 34 24 -41 -89 -56 0 0 0 60 0 0 12 0 124 -118 28 0 0 -44 122 0 1 -25 84 0 0 94 0 97 -92 
-127 0 -10 123 118 0 107 -98 -116 -49 0 -106 0 0 66 0 78 0 0 0 127 0 55 -5 0 111 -79 0 33 88 46 -56 
-77 0 50 127 0 -23 -10 -77 124 0 102 0 0 0 22 -22 0 -22 53 82 -91 -35 118 0 9 0 103 -91 0 0 -62 0 
0 20 32 0 23 82 82 -89 0 0 -79 9 0 127 0 -52 0 -83 -75 120 -126 76 0 -55 -88 73 -26 0 0 0 0 -68 
3 0 57 117 -67 0 45 -69 95 0 0 -66 0 0 -115 5 -5 127 0 63 0 0 -48 14 51 30 0 36 107 0 -51 0 
-51 0 49 0 0 47 122 42 0 69 55 0 0 58 127 -58 126 0 111 52 0 0 126 0 11 -88 -119 31 111 0 0 -23 
69 -38 0 110 0 72 -32 -119 0 -19 0 0 -78 -76 0 -62 0 0 -117 -3 114 0 -91 59 -96 -48 0 -108 0 0 64 -59 
18 1 88 120 127 -17 0 -19 -99 -36 0 0 0 0 -107 0 0 0 -16 -87 79 93 0 -66 32 0 0 -13 -88 127 47 0 
0 0 0 57 -95 97 124 74 -32 56 0 62 0 0 -71 89 12 22 121 -115 0 0 0 -50 110 102 0 -17 57 76 0 0 
0 0 0 -63 79 -23 -19 0 0 54 -108 16 -127 58 -55 0 -40 48 0 0 82 -24 54 38 0 -30 -17 -29 0 0 39 0 
-59 0 0 -11 0 0 -25 23 -97 -104 0 -56 0 -80 8 102 -73 -80 -119 119 0 114 81 -32 -63 0 0 94 0 0 127 0 
-7 0 -42 0 -17 36 -125 0 124 -121 108 0 82 0 -104 0 -104 86 -69 43 123 0 0 -107 107 -63 -109 0 0 0 0 -55 
0 0 32 73 16 -54 67 56 0 0 35 2 -59 0 0 -17 20 -91 0 -29 0 81 63 0 -5 0 107 -69 -90 0 77 0 
0 0 0 127 0 85 -18 0 -30 90 106 62 90 0 -122 -23 116 0 -59 80 0 101 -68 -127 0 -16 -77 123 0 0 28 0 
-120 0 47 -78 102 68 68 -122 0 0 0 0 -84 9 -127 0 0 -56 116 -5 -42 -47 0 0 0 97 -16 0 92 -24 69 0 
76 57 0 0 0 90 30 -112 0 116 -7 -47 0 93 94 0 -65 -17 -33 0 0 0 76 0 127 26 -93 -105 -127 0 0 -102 
0 -59 75 -124 108 104 0 0 95 1 0 -127 0 -34 0 114 -89 60 0 -96 -33 0 0 -42 0 0 0 -108 -28 -24 -19 108 
0 -13 0 0 0 -45 4 25 0 125 111 0 -66 38 54 -3 48 5 0 23 0 92 35 0 0 112 59 0 -111 0 107 -63 
0 80 51 0 -127 56 -57 -91 0 -121 -23 -111 0 -120 0 0 -19 0 -101 -127 -6 0 0 0 0 9 -18 57 -100 121 0 108 
34 -5 0 0 74 0 -97 0 68 -101 0 -68 -33 0 -84 -12 61 -15 0 0 32 0 88 -102 0 80 -107 88 0 0 62 -67 
0 -60 42 0 -101 88 -64 -9 0 0 0 -43 -10 -1 -105 0 -96 0 -7 0 -52 -45 34 -6 -109 0 0 0 109 0 -66 -126 
-41 0 -90 1 -111 -61 -22 0 0 -14 0 0 48 85 -32 0 0 0 36 86 41 97 0 -9 0 0 67 0 0 124 82 29 
0 0 -47 104 105 -40 0 22 -42 0 0 0 -104 38 -81 127 -116 107 -27 0 -126 -81 0 -115 0 113 50 51 0 0 -86 0 
0 104 0 9 -19 74 0 98 90 0 67 0 126 69 0 118 99 0 0 -73 -53 6 23 0 23 0 -58 107 -15 0 0 -10 
87 0 0 0 37 4 -92 0 111 -23 -58 109 0 0 111 5 -87 0 -9 0 -88 -57 -100 -15 0 0 0 -88 68 55 0 -50 
89 91 45 122 0 0 0 0 0 30 0 -108 0 -92 112 98 0 93 -127 -36 0 0 1 99 -127 106 -127 0 0 0 82 37 
0 0 0 -123 0 0 0 -20 -35 2 -127 107 -112 -72 -91 24 91 -33 0 -76 0 -65 0 0 -75 0 50 0 77 9 77 126 
-127 41 0 0 -60 -71 0 0 21 0 127 127 101 44 -103 0 71 -127 127 56 0 0 -29 58 0 0 -93 111 0 -25 0 -127 
109 0 0 0 -118 80 32 0 -98 -104 -114 0 125 127 82 0 6 0 -126 -73 -54 -14 0 83 0 0 -127 0 -55 -49 0 -35 
-96 -40 91 0 107 0 0 58 49 -59 0 0 -79 0 120 47 97 84 48 0 -100 0 0 0 -39 13 -79 -42 0 83 2 0 
0 0 94 -14 -1 -28 0 121 0 -125 -48 122 -33 0 -102 0 -32 0 60 -87 0 -42 83 0 0 -66 105 0 -86 23 -26 0 
80 -115 -52 -57 0 0 0 0 -1 -112 -76 0 13 -41 15 0 0 0 0 0 91 0 82 122 0 -5 -94 87 37 -125 78 -121 
-89 117 0 0 13 0 -118 -52 -110 -23 0 -123 0 -45 -113 0 -91 20 0 14 61 0 57 50 127 -28 0 114 0 0 -118 0 
0 91 49 -53 -45 0 0 -107 0 60 -17 0 15 0 33 -15 -73 -9 54 4 -8 104 123 0 0 0 0 9 0 103 109 0 
17 -127 0 0 0 0 1 0 -103 -119 -87 -24 93 69 0 -115 88 0 59 0 8 0 0 -112 85 0 -25 0 -68 -12 94 105 
127 0 -39 0 -30 -28 0 0 69 0 0 -76 43 -117 8 -90 120 127 84 0 35 0 84 0 0 0 39 -4 104 0 99 101 
0 -79 0 -40 -62 55 -95 0 0 29 -5 -103 127 0 50 0 0 116 -29 -19 96 -92 102 82 1 15 0 0 0 0 96 0 
-118 0 -72 0 -65 -86 90 0 70 91 0 34 0 120 -43 0 0 0 0 -64 0 -87 0 0 68 -127 127 -96 38 13 -9 117 
-127 113 -122 -26 -21 0 0 4 -47 0 0 125 86 0 21 0 0 0 82 -9 0 124 0 0 127 110 40 -17 9 0 -86 17 
-39 -117 0 -1 0 0 -69 -121 0 80 5 0 -99 13 59 0 -116 -118 0 0 113 31 7 6 0 -79 120 0 124 0 87 0 
0 123 0 0 0 -48 71 -41 119 -35 -3 46 0 -83 -54 0 -127 0 -124 0 64 39 -20 0 -73 0 104 -113 0 -39 57 0 
-36 0 7 0 -12 0 0 118 0 -51 17 -24 4 62 0 37 -10 0 1 -50 0 81 0 -111 -84 0 127 0 0 99 -69 84 
0 -8 -25 -26 0 -109 42 -13 121 0 18 18 43 0 0 0 36 0 0 37 0 73 0 89 -30 0 24 90 -127 -10 0 -127 
0 0 0 0 35 20 122 30 -21 -86 -119 -53 0 116 0 91 -117 0 0 -8 0 0 -57 0 52 -127 68 124 102 0 -26 18 
67 0 0 -7 0 0 -118 -61 0 -33 -120 27 0 -15 57 17 0 0 -62 -29 114 0 59 29 0 0 3 89 -14 -42 0 127 
0 0 51 7 -42 0 32 0 -92 78 -124 0 -56 0 0 -73 -126 -114 68 0 0 0 0 0 -26 -6 -98 84 0 58 -127 86 
-102 121 -69 103 0 0 0 18 108 127 42 0 0 0 18 -108 0 0 -13 0 -66 -53 -93 105 -10 9 9 -93 0 0 0 -64 
77 0 -51 -21 -98 0 -96 0 0 -123 -55 -108 -31 0 0 -69 0 -101 90 7 0 79 0 29 -17 0 -116 12 24 0 7 0 
46 0 0 -63 58 -21 0 0 0 -15 0 32 51 127 -20 0 0 13 0 78 0 127 -57 0 -58 0 43 -1 118 -127 0 -48 
102 100 0 95 -127 -102 0 0 -31 51 81 0 0 -76 0 -112 -67 0 -94 0 -127 0 -66 68 -43 -74 0 -99 -101 0 0 68 
-68 -4 0 0 0 0 -81 -76 -85 -127 77 0 75 0 42 30 0 32 -84 2 -46 0 0 52 0 0 -63 -65 -84 -126 81 0 
37 111 0 111 77 84 13 89 108 0 31 0 0 0 -70 0 -77 0 -5 65 -62 0 0 -48 -57 -127 0 -105 0 127 0 -24 
0 0 11 0 0 -102 -79 0 56 0 25 -108 -28 -66 33 68 0 66 0 0 -9 110 -78 69 0 -127 0 53 -107 -127 39 0 
48 0 7 -100 0 -82 117 -93 0 0 -96 114 0 0 -103 91 -90 -56 0 -42 71 0 116 0 0 -90 -41 -32 59 0 114 0 
0 108 67 99 44 -104 0 127 0 0 105 -46 0 0 94 -116 -6 0 19 89 -12 0 -70 0 -112 0 0 -98 32 0 -87 -1 
0 -69 122 -104 36 0 -10 0 -54 87 46 0 0 -116 -81 0 0 89 34 125 0 20 100 0 59 -85 0 0 113 98 127 0 
-9 60 34 -29 0 0 11 0 120 -74 0 -28 0 0 51 0 -31 16 110 94 -66 90 53 0 0 -49 0 0 117 0 4 0 
0 0 -37 0 21 49 -125 0 7 0 100 -16 -63 0 -79 -43 2 0 -108 0 0 127 -72 119 0 112 0 -44 76 -42 0 -70 
0 0 0 -96 0 68 -4 0 -48 0 -1 104 -24 74 62 91 86 0 56 65 -4 0 -4 0 -87 0 -69 70 0 -2 0 28 
-20 0 0 -51 -56 0 0 -27 28 126 -71 -100 -37 -107 0 0 0 0 -6 22 -5 -124 108 103 0 -83 -49 0 0 0 -127 38 
-27 0 32 81 79 0 -75 0 16 -109 56 -29 0 0 0 -42 -57 0 -12 -36 44 0 40 109 95 -63 0 0 0 0 127 10 
109 74 54 0 0 0 -73 22 -43 -43 0 0 24 -82 0 -6 -5 43 -127 0 0 -17 38 -87 0 -110 -80 5 0 0 0 -114 
0 0 0 78 44 -120 0 121 0 44 2 -33 0 0 127 104 0 -99 13 0 69 -71 0 0 -63 111 61 0 0 96 34 -16 
-68 0 -55 -103 94 56 0 0 0 0 10 -95 0 0 48 -38 -41 8 -39 -100 -47 117 0 0 0 17 0 0 -68 0 -9 -112 
3 -127 0 85 0 -21 119 0 85 0 0 -114 127 -100 0 54 0 -6 -104 0 0 -103 94 0 0 -80 -112 0 -31 -32 127 25 
88 0 65 -56 127 -117 0 0 -6 113 10 0 -90 0 0 -32 -22 44 -99 0 94 -73 0 10 0 -9 0 0 0 -85 127 113 
0 127 -37 0 0 -97 0 46 50 83 75 38 0 0 29 103 0 78 -58 94 0 0 -124 -55 76 -119 0 0 97 -88 97 0 
-41 0 -25 101 0 123 -86 -103 0 0 -42 0 -83 -64 58 0 0 -34 -20 -37 25 0 0 -82 0 38 -88 -74 0 -69 0 0 
0 25 -50 0 -24 63 127 0 18 0 82 64 -75 -22 0 0 -127 -94 0 -71 -43 127 0 -114 0 46 0 55 0 84 0 25 
67 0 -109 127 0 0 0 125 -58 0 -116 0 -43 -9 -50 -58 67 -26 -110 -98 0 0 -97 0 0 20 3 0 0 106 19 -103 
-99 0 -71 4 0 -90 0 0 -69 93 -16 0 107 0 103 59 -36 0 -69 0 0 51 86 -30 127 0 -99 0 0 127 103 -57 
38 0 89 0 59 0 109 0 47 -92 94 0 83 127 -9 0 0 0 0 121 -112 0 -22 13 -71 0 0 -80 67 -121 -127 -2 
0 23 0 -94 -98 -127 0 0 0 -83 0 -79 28 112 11 -22 19 121 60 0 0 0 -64 0 127 121 0 -44 0 -55 -23 58 
0 0 -19 0 -125 -69 -88 0 -46 -39 -118 0 -30 -93 100 0 0 15 12 0 -36 10 0 0 0 46 -76 112 0 -126 26 -52 
127 -119 29 0 50 7 28 0 0 0 -88 97 0 0 -70 -76 0 62 -41 107 -9 0 -38 0 0 0 118 0 -108 -33 -61 -87 
82 -78 0 0 -84 -127 66 0 122 0 83 0 0 117 120 -48 0 -2 -92 0 -79 43 -44 -44 0 0 0 19 0 -113 7 78 
0 0 127 0 85 -114 0 113 71 0 51 -78 0 99 -107 39 3 0 0 -95 -66 -100 115 0 0 0 -127 107 79 87 -78 0 
25 0 120 0 42 81 0 -74 0 -108 12 0 -9 76 0 69 -89 -30 0 0 7 -87 118 0 125 0 6 57 0 -119 -85 0 
0 -86 -101 -97 111 0 -65 60 0 0 122 63 73 11 0 0 0 -54 -5 -127 0 0 55 -98 0 0 0 -111 -40 -122 -98 -43 
-52 -17 0 0 98 -74 0 0 -72 0 -85 -15 115 -27 0 4 0 0 0 0 0 30 41 117 0 84 25 66 -104 -4 -31 9 
0 0 24 -42 -127 0 0 65 -64 0 -19 114 47 0 116 63 -117 -73 83 -95 0 -46 6 0 -104 0 121 0 0 -118 0 -75 
0 127 63 95 -85 0 42 0 -115 -55 0 69 16 0 0 4 94 98 4 -118 -36 13 0 3 0 22 0 0 91 0 0 -127 
98 56 -48 -85 0 0 0 -62 -122 -34 0 48 0 0 2 0 0 0 0 -21 36 127 7 -22 22 0 89 -56 0 0 0 97 
-57 0 0 54 -43 -18 36 0 0 -91 39 0 87 0 -84 -123 0 0 -105 0 117 107 106 5 0 0 -13 0 -111 53 99 95 
0 -85 31 0 0 121 -55 -72 0 -22 106 123 53 0 0 -68 0 0 -70 0 -22 127 -53 0 9 3 91 0 44 127 0 68 
-31 0 -9 -42 0 17 0 -99 0 66 71 0 99 -47 -101 0 0 95 0 0 -51 0 0 0 2 17 126 24 120 61 -116 -12 
17 -92 0 67 0 -16 -118 0 0 -43 0 -127 -95 -127 -19 0 0 0 0 0 123 0 -15 2 -39 105 29 0 -122 -26 -99 -77 
68 127 0 -127 93 0 -51 0 113 0 94 61 0 0 107 -74 65 0 -116 -53 10 39 0 0 0 -52 -105 0 -11 -90 0 121 
80 0 -123 -36 0 10 115 102 0 -16 101 -95 0 0 0 -116 1 -37 106 105 -15 -96 -30 29 0 0 0 -63 -121 0 0 0 
-30 -73 -100 0 127 0 0 0 0 -26 0 -42 63 -65 -106 -102 0 -49 108 0 0 72 36 0 -96 21 10 0 102 0 -67 15 
-120 21 0 121 -26 0 0 0 -87 81 0 -53 28 47 19 0 0 123 0 0 -49 -10 0 59 -117 0 -116 -45 -22 0 -111 14 
0 0 -121 90 -80 0 0 0 -78 -75 94 121 0 86 -99 -105 -15 64 0 -28 1 0 -122 110 91 0 0 -110 0 127 85 0 
0 32 32 0 -2 0 -75 0 0 -117 121 -49 -127 0 -12 -99 0 58 118 0 15 0 -118 -29 103 -93 -61 0 0 67 127 0 
-32 -11 -123 29 0 -124 -13 -86 0 0 20 40 0 0 0 -86 0 19 -104 0 -126 125 -53 0 -32 59 -123 45 0 0 -61 0 
0 11 127 0 -12 -22 0 -117 0 20 -91 127 0 0 -123 -40 0 0 -27 40 -56 0 70 -36 -86 0 -9 0 0 98 -83 126 
0 0 96 -48 0 -13 98 -127 0 -99 0 -99 0 0 108 -32 0 -64 0 0 0 -45 -70 28 46 -37 0 -34 -17 14 -10 0 
70 126 -115 0 37 0 0 0 58 52 58 -22 17 0 115 0 65 0 0 96 50 -7 -31 -110 -10 -21 0 0 -45 0 115 0 
-36 0 -57 -70 -19 0 -87 0 0 82 0 33 88 0 -47 -116 0 0 -47 -62 0 -23 124 126 94 34 115 0 0 0 90 50 
0 0 127 126 0 -71 22 19 0 31 -42 4 0 118 -112 0 -73 66 0 0 0 127 0 -8 -114 42 0 11 16 -110 0 92 
0 127 0 20 0 0 0 88 100 18 39 -92 0 -127 -96 -23 90 0 32 32 36 -53 0 0 -85 -50 0 -49 -94 -52 0 0 
-2 -69 0 0 0 51 -55 -19 -67 75 34 109 0 20 0 0 -79 -4 -127 0 0 127 0 10 0 0 -18 -66 -52 0 25 106 
75 -127 -122 -6 0 -56 0 0 0 39 0 -57 85 115 117 0 -34 -3 0 -125 0 -81 88 -25 -79 114 0 6 0 0 0 -6 
121 127 -109 0 100 0 59 -63 0 2 -101 0 113 0 0 35 0 0 0 0 60 10 95 0 -70 -32 -9 -45 -102 127 109 0 
-12 0 56 -9 35 -122 0 66 0 -62 0 48 38 -39 0 0 0 -75 0 0 98 0 105 0 47 19 -17 -56 100 0 87 -65 
0 -84 -75 127 16 69 85 0 -24 -39 0 0 10 0 -60 0 0 48 95 -104 7 0 0 65 61 0 -37 0 1 0 79 -83 
61 0 -83 -116 -120 0 -39 -42 0 0 81 -72 74 0 0 -15 63 110 0 90 -41 -30 54 0 0 -80 -10 0 0 58 0 26 
-60 0 -43 107 0 0 0 -37 -114 -44 -115 15 -42 0 -9 0 -6 -45 0 -17 20 -23 0 41 0 40 0 -38 127 0 0 -20 
84 0 0 -42 101 0 95 0 14 0 75 -33 -84 0 102 -15 -116 37 -108 -91 0 127 0 -14 0 0 60 0 -11 0 -90 -34 
0 61 -53 0 -70 89 0 89 0 -8 -91 95 0 59 -96 0 -23 0 93 0 92 43 -30 0 0 -10 77 0 -56 0 -52 -81 
0 0 -49 -54 -4 0 0 88 -4 -64 0 112 -110 0 -100 -24 0 0 0 45 84 39 -119 30 -118 -41 0 69 0 12 58 0 
70 89 0 -5 -97 0 0 -127 0 26 22 0 32 123 -110 0 -76 -73 -51 0 111 -120 0 0 -92 45 0 -57 0 0 -104 59 
0 -81 35 127 -4 31 118 0 0 -86 -23 -100 0 -96 0 0 47 117 11 46 14 0 0 122 -73 0 -84 41 -80 0 0 0 
-60 0 0 0 -123 -7 -33 0 81 0 -92 5 -10 0 -127 75 126 0 127 0 0 0 63 -37 -85 -20 97 0 114 94 -67 0 
-100 -13 -96 0 32 0 -92 89 0 0 0 115 -13 0 -61 -63 121 0 0 -99 0 45 -99 -18 75 -69 0 -51 0 56 0 -89 
0 22 0 0 -4 0 84 0 -29 93 104 -85 119 83 25 0 84 0 0 0 45 0 -41 -97 0 -3 -56 0 5 -58 92 116 
0 71 48 0 0 57 5 0 0 -63 80 -2 -127 23 68 0 116 0 60 0 101 0 127 -32 125 40 14 -45 -119 0 0 0 
-88 -93 68 -63 0 43 -72 0 -48 0 122 0 -11 0 72 0 5 23 6 0 -93 67 0 0 0 0 87 39 49 106 0 -111 
24 -49 -64 19 -31 0 0 0 -127 127 0 0 0 94 7 26 0 -85 -28 0 15 7 0 112 -104 0 0 0 105 -29 0 -92 
36 120 -64 0 0 -5 55 0 126 0 0 22 59 0 114 18 102 0 0 78 124 -127 0 -104 76 -17 0 0 -11 0 -2 14 
-86 -32 -120 0 0 -60 -86 0 40 87 -10 -28 25 0 0 0 38 0 0 111 0 13 81 0 0 16 127 0 -60 -117 -8 33 
91 -118 0 -95 -55 114 60 0 0 0 47 61 0 -127 -112 0 -95 0 113 -98 -20 25 0 0 114 0 -98 0 0 -26 -112 -77 
0 -69 -108 -108 9 -110 -94 0 0 -73 -85 -84 0 0 0 92 0 -127 79 0 95 90 0 14 85 0 -46 -36 0 91 0 40 
-100 89 -41 -80 32 0 0 -125 127 33 -80 0 127 0 0 0 44 -6 16 -6 -10 35 0 -96 -10 0 -54 -81 0 0 0 0 
-97 0 -52 3 -15 0 -117 0 113 0 14 -58 0 19 63 0 -92 -53 -78 -28 76 -120 -20 0 89 0 51 0 -127 0 0 0 
-126 -69 67 117 0 0 -35 13 -58 0 -31 0 0 95 0 -127 0 112 -34 -76 102 0 0 0 -72 1 0 -11 102 -63 42 0 
-72 -19 0 110 127 0 78 -44 89 115 54 0 0 0 -127 0 0 58 3 0 -126 10 0 -30 -15 84 7 33 0 0 0 -23 
-11 -62 104 -46 0 0 -20 28 -29 0 -54 0 -78 123 0 0 -12 -108 0 0 -21 0 120 -29 -78 -95 -127 0 0 -45 -17 0 
-21 118 49 0 -120 0 0 -114 13 70 0 122 68 0 0 -4 -102 -69 0 0 -43 52 -14 125 0 41 0 127 0 -63 -72 0 
0 22 0 2 -68 0 0 11 -69 41 120 0 -58 116 -9 0 0 0 -66 0 0 68 -67 -10 -1 0 0 -52 -8 -100 -31 -1 
22 0 -14 0 -18 98 97 16 0 -24 35 0 0 106 -43 0 0 0 -71 64 -20 0 27 125 59 0 43 118 0 -66 0 -58 
-37 -34 0 0 -127 0 0 53 0 -56 0 -19 -37 -2 -15 19 -38 0 -32 -127 102 0 20 0 -44 0 32 0 80 0 -87 -59 
-127 0 0 -61 -34 -70 0 0 20 72 0 2 -14 -74 0 127 0 104 0 0 -85 0 23 126 40 0 111 0 78 115 38 21 
0 0 73 0 -53 90 -32 17 0 0 -85 31 -47 0 -98 80 0 0 -88 42 -1 9 0 16 -18 0 57 -100 0 50 109 0 
0 0 94 52 -37 100 0 42 65 61 0 60 0 -56 -63 0 -102 95 0 52 -28 0 -3 0 0 40 0 -25 62 -113 0 -118 
14 -14 0 79 35 -75 122 0 0 0 59 0 28 -40 0 -93 -45 24 0 123 81 -113 -111 0 0 44 -50 0 -15 13 0 0 
0 0 0 0 0 0 -25 -117 54 -108 0 -84 -47 -41 95 7 127 0 115 0 120 110 0 -18 0 91 55 0 0 127 4 108 
0 -86 115 0 -64 -8 -61 68 -43 -80 0 37 0 0 0 -114 -22 0 6 29 119 49 32 73 91 0 81 0 -58 0 0 0 
71 9 0 0 -24 0 -115 0 -85 97 -39 0 108 -95 0 -85 -77 0 0 84 0 84 -45 94 0 -2 0 58 0 -111 5 89 
-127 102 -108 21 0 -82 0 -97 0 0 102 0 -117 0 -71 -81 4 0 0 -127 -112 -19 -53 0 0 -59 0 -2 122 0 -125 -99 
0 0 121 0 4 0 -26 122 -50 -21 0 28 96 0 -28 44 13 -24 0 0 125 117 0 -4 0 -108 0 117 0 70 25 127 
0 14 -127 97 25 0 -10 0 0 10 18 0 109 44 0 31 0 22 0 0 42 -54 0 -11 60 -87 -72 -15 0 -9 -18 0 
69 20 51 104 6 0 0 101 74 0 0 -21 -16 0 0 -9 38 0 0 0 0 -73 122 -49 -48 -85 83 80 -80 0 0 62 
114 113 -45 0 -95 -37 -29 0 0 0 -112 -87 18 0 -105 0 0 -55 98 0 0 -12 49 -118 59 -27 0 92 0 -35 0 -87 
98 97 0 -50 0 102 100 84 -84 -24 0 0 0 0 -55 106 68 0 69 68 -119 -124 0 0 0 0 -41 0 103 -89 -50 -20 
0 1 -46 -30 0 -5 0 0 -84 0 91 0 31 51 2 81 -9 0 0 -127 0 -71 80 0 -66 58 127 -108 0 52 94 0 
0 -43 54 -98 63 -23 0 -119 0 -72 0 127 0 32 -84 0 54 21 0 95 0 -49 0 14 114 0 0 -97 0 68 -52 95 
29 -24 0 0 0 127 0 -103 55 -127 127 0 -7 -51 0 95 0 -89 71 -53 127 0 77 0 113 0 127 45 0 -82 61 0 
-40 89 -84 -101 48 0 -50 0 0 0 -55 -16 -42 0 -57 0 0 0 0 -70 -8 0 127 -122 -99 -90 -43 13 0 -20 -80 0 
0 16 103 0 62 0 21 -70 8 27 -91 -17 0 0 -127 0 0 -15 0 0 -101 -30 -30 0 62 108 0 -31 -45 0 -4 -34 
90 60 8 0 -22 45 -76 0 0 43 0 -68 -32 0 -127 0 0 0 -121 -94 0 49 0 -118 38 0 -103 -91 42 -107 0 37 
0 0 100 0 112 -5 -120 14 0 -64 -107 0 127 0 -18 96 2 -92 0 0 -26 0 -46 0 101 0 33 24 -15 47 19 0 
78 -69 -43 0 108 0 -64 -18 0 34 23 0 0 127 0 12 -85 0 0 31 44 44 39 0 22 -15 -28 0 0 0 -9 -56 
0 0 22 0 0 0 -115 50 0 -31 107 23 -86 -105 0 -116 -114 0 0 0 -10 0 -127 0 16 -50 127 78 64 89 -105 0 
0 -105 0 0 24 0 7 25 35 -114 -72 -55 -100 -70 0 0 -16 0 0 0 -82 -92 0 108 -108 94 -93 127 0 85 -121 0 
76 0 52 0 0 -30 103 -34 0 0 -41 127 0 102 41 61 0 74 -106 0 -127 0 -32 0 127 -103 -27 -101 -86 0 0 85 
-9 127 -118 0 68 -56 0 0 0 55 10 0 65 0 -51 29 127 0 0 0 0 36 -82 62 -73 0 0 -108 127 81 97 95 
74 79 0 18 -80 0 0 -34 -117 0 0 63 0 -103 -106 127 89 0 0 -62 0 127 0 96 -104 -113 28 67 0 0 -6 1 
0 -89 16 116 0 0 -108 0 108 0 -108 -125 -66 110 -22 0 -60 -127 7 0 0 0 -93 -79 -68 50 23 0 0 0 -104 -127 
22 0 0 0 0 -3 -82 -127 0 -100 -84 -54 0 -117 0 99 39 0 0 -56 66 0 25 3 -52 -108 102 0 -48 75 0 0 
0 67 79 0 -32 58 -10 35 0 0 0 0 -18 87 -40 -81 -79 0 0 0 110 0 -55 0 96 -127 93 65 0 127 -18 -89 
118 20 42 0 -86 0 0 -37 62 2 -18 0 0 0 -127 81 66 -106 115 -64 -81 124 0 0 60 0 -70 22 0 39 0 0 
0 116 0 0 21 0 119 51 37 46 0 0 47 3 126 37 0 0 -125 0 103 -122 9 -75 97 0 0 -119 25 0 -12 39 
35 0 0 0 40 -116 -83 88 -72 0 -107 0 -126 -8 0 127 120 105 -86 0 -10 100 0 0 0 117 0 74 -107 -95 -36 0 
115 124 0 0 -77 0 116 -46 0 0 -87 -80 -45 0 -26 50 -14 0 0 87 -68 57 0 -32 -82 -27 0 -104 25 0 -62 0 
-92 0 -95 -62 0 -36 115 88 0 0 107 0 -93 0 7 15 -35 -35 -47 -127 0 0 72 0 0 -60 0 -19 0 31 -9 35 
0 0 0 65 -87 127 -61 127 0 -89 124 44 0 0 -59 115 -65 -64 0 0 33 32 68 -18 69 0 0 5 32 0 0 -51 
0 0 121 121 90 0 -118 0 22 0 -120 -108 0 64 68 -19 0 -60 58 -86 44 0 -78 105 -104 0 127 -20 0 0 -115 0 
0 0 -83 34 0 -110 -115 111 0 0 0 -113 -109 20 121 -52 0 -79 0 0 0 122 17 127 127 96 -17 0 21 -36 0 -8 
0 0 0 0 18 112 76 -119 -95 -17 111 0 -81 -30 0 -13 0 -90 -127 0 26 -127 -70 106 0 0 0 112 -50 -52 0 14 
-12 -92 -89 0 0 96 97 68 0 0 3 0 83 -20 104 0 -127 0 -127 0 0 0 -80 60 121 -83 -71 0 -93 0 0 -119 
0 0 -127 34 -107 -86 99 0 93 -11 0 0 0 88 -33 -74 -67 -14 112 110 0 -83 -27 -4 0 0 0 4 118 0 0 -52 
0 44 0 90 -121 0 45 56 0 107 -39 16 29 -41 0 0 0 122 0 127 0 120 0 -55 0 -67 0 127 -72 58 73 -7 
0 0 0 -106 -79 0 111 91 -3 0 57 54 0 0 43 24 127 0 95 71 0 -94 35 0 0 13 109 -53 0 95 41 0 
2 -27 -102 -71 -61 0 0 -97 0 0 0 16 -89 0 -29 -11 36 -68 -117 -79 17 113 79 0 0 74 0 72 0 0 -88 0 
0 0 -110 59 0 0 56 -52 -127 -25 0 -78 -26 46 0 -26 -41 -6 0 47 -78 0 0 85 0 -120 0 -28 0 -14 -17 -8 
-52 11 -104 0 31 0 127 95 0 9 0 -90 -56 -104 0 0 0 0 0 -32 0 112 36 39 0 -127 0 60 64 -97 -31 -47 
-39 123 57 0 78 18 0 0 -41 -63 16 0 -66 0 0 93 0 0 -127 0 -121 0 -4 88 0 116 102 40 -28 -113 -126 0 
33 47 0 102 0 0 0 42 -98 0 0 -50 60 -107 63 -86 0 0 0 -116 0 104 53 -34 70 -105 -112 114 0 5 0 88 
-41 0 0 0 6 0 -127 -69 -105 116 0 2 -29 14 0 -21 0 0 0 -66 0 19 -22 0 -54 0 -28 -100 122 50 -56 -5 
-15 22 0 88 10 0 0 0 -58 -39 4 109 27 127 0 0 0 -124 66 -49 102 67 0 -101 0 -57 119 0 92 0 -30 0 
-18 0 0 0 79 0 118 -66 -46 61 75 86 120 0 -14 0 -49 0 16 0 -100 105 82 -14 0 0 0 60 -102 -78 0 -125 
-122 0 -86 0 0 -120 -54 0 38 -94 -96 0 -43 0 -81 -88 31 0 0 27 123 -53 0 -65 -127 23 -64 60 0 0 0 109 
-23 0 47 99 0 96 25 0 0 0 -6 70 -19 109 0 16 -28 -115 0 0 -37 -119 0 68 74 0 -28 -79 0 0 127 106 
-19 -56 -37 0 -108 0 58 89 127 -83 0 25 0 0 0 123 62 0 -116 0 -27 57 0 106 0 0 -105 0 -86 -3 90 47 
86 45 0 0 28 -65 -32 -111 0 0 -31 0 -1 0 110 87 -73 63 0 0 28 105 -87 -106 115 99 0 109 0 0 0 -120 
0 -91 0 0 0 2 22 112 0 9 90 117 27 -100 -123 0 0 127 0 108 96 9 -99 0 -32 18 0 -93 0 -82 36 0 
-17 25 67 121 42 0 -99 -25 0 -71 0 0 0 -72 66 0 -57 -40 1 -87 0 0 74 0 -78 -88 0 -43 0 -72 0 117 
0 -78 -90 109 91 -92 11 97 -1 89 0 3 0 0 0 0 -1 0 127 -7 -26 -69 18 -127 -13 0 -88 0 0 0 127 0 
0 0 -75 -125 0 102 -87 0 -16 55 -24 120 117 0 -23 0 80 -65 1 91 0 0 -43 0 40 -72 -18 -25 0 0 73 0 
107 0 -5 122 22 -90 -94 0 -107 -105 0 0 107 0 47 0 0 0 -40 0 -73 -59 -66 0 -12 -10 43 -45 -97 0 0 127 
0 -117 -53 -33 0 0 18 0 122 36 -19 -104 91 0 -59 0 121 -9 -14 62 0 11 0 -14 0 -46 0 -50 0 -107 0 111 
-107 0 -9 0 127 0 0 0 -68 0 -86 21 10 72 -82 121 43 -86 0 0 72 0 106 124 0 0 110 -30 87 0 97 34 
90 0 0 -70 -73 -60 -105 0 49 -66 70 0 83 105 0 0 -57 0 0 0 -18 0 64 -113 2 -84 66 15 117 0 0 27 
0 0 0 4 -47 59 15 -127 -72 73 56 0 0 0 -100 6 35 26 0 0 0 -1 93 2 0 0 -84 0 -54 -90 -51 -127 
0 0 120 0 -105 0 -79 -5 92 45 -48 121 25 0 0 1 -81 90 -5 0 0 -119 -44 0 0 0 62 -124 16 84 0 76 
69 0 122 -127 -86 0 -63 0 0 -124 -44 0 0 2 85 43 -119 0 -28 -127 0 127 121 50 122 85 0 108 0 -84 0 0 
52 45 20 -76 0 -70 0 9 38 0 0 -8 0 -24 5 0 43 0 18 -8 -91 0 3 0 93 0 0 -45 85 0 61 61 
126 0 0 0 0 0 -123 0 112 -19 -127 -65 31 -51 -108 -68 -49 0 0 -7 0 4 0 0 -81 98 10 22 -44 127 0 -67 
0 11 0 89 0 -77 0 -21 82 0 8 -44 85 0 -54 41 117 43 -13 0 0 -31 -121 -34 0 -20 -19 0 87 0 0 -67 
-89 78 90 -117 -4 0 0 0 0 0 -41 -93 -43 0 -35 -55 120 0 43 0 0 -59 -40 -48 126 -70 0 0 -104 0 53 -98 
4 -14 -42 -85 -70 0 121 -24 0 0 0 89 0 72 72 0 0 -80 0 0 106 0 49 99 0 0 -30 -112 107 -103 -91 95 
0 0 64 0 -90 -6 127 -55 127 44 0 0 0 -125 -108 -1 -52 0 0 -91 80 -67 0 0 -1 -20 72 0 0 16 -58 66 
-40 0 0 0 0 -65 3 -46 36 0 41 -52 -72 60 0 -66 0 0 0 127 -54 0 116 9 0 -122 -72 -127 -102 75 29 0 
0 -97 -118 15 -109 -33 0 0 0 0 34 28 110 53 0 -43 0 0 -125 -95 70 -38 -102 0 -111 -41 0 0 -117 79 -47 0 
26 49 0 0 0 4 -42 0 -17 0 -99 83 64 35 0 118 9 88 -44 0 0 0 0 -56 45 4 -53 0 -121 -78 17 0 
0 -98 100 0 116 -80 0 0 0 -4 -127 107 -121 0 85 12 -99 -62 0 0 123 0 -111 -24 0 26 -28 -11 54 -113 0 0 
-60 95 -95 0 0 -89 0 -32 -86 -59 0 115 -127 -115 0 0 0 0 119 -33 -90 -123 -101 0 -92 8 49 0 0 0 30 13 
0 -62 0 0 127 89 -27 -74 -96 91 85 0 -19 -70 0 0 0 -38 -97 -47 -22 -72 -27 0 -53 97 0 34 0 -115 0 0 
67 -91 0 36 -127 0 -24 56 75 0 -35 0 80 0 57 0 55 -117 0 110 -1 123 0 -47 -39 7 0 0 0 0 54 69 
0 103 0 79 -95 23 -104 0 0 0 93 127 0 -37 -32 -18 71 -7 25 89 0 32 0 75 -33 0 27 0 0 23 -53 0 
0 -116 -46 10 87 0 -127 0 11 0 127 31 70 78 0 0 0 90 -28 93 0 0 -112 -75 38 -36 -101 0 53 0 0 11 
78 64 104 0 0 -34 -75 0 0 0 82 96 0 31 14 44 -96 105 91 26 0 -65 0 0 16 -12 109 -42 0 -101 0 0 
-27 70 102 -101 -39 0 -108 0 25 68 112 0 0 0 18 0 -119 -41 0 0 0 77 -83 94 58 13 0 -39 -109 0 40 0 
51 0 15 -110 -122 21 0 -39 0 0 -44 -25 69 0 17 0 -39 0 0 117 5 0 0 0 -64 19 -57 86 -51 0 -18 -122 
49 0 -74 0 -113 0 -44 -73 88 52 -47 0 13 0 0 5 0 0 0 63 -45 -63 82 0 0 -94 11 19 101 -60 19 0 
-68 0 39 0 -98 -55 93 0 0 94 -22 118 0 -104 8 0 -58 0 127 0 -70 0 -43 93 0 40 -62 0 82 -47 0 -116 
126 123 -8 38 55 0 0 33 17 68 0 0 0 111 63 0 0 11 -2 115 100 0 0 0 -117 4 15 0 105 60 0 -93 
0 -28 100 -71 28 30 104 0 61 0 0 -76 0 -13 -102 0 0 0 -37 -16 105 23 50 0 48 -107 -47 0 -127 0 -15 0 
-4 0 -77 0 106 -94 -61 105 0 37 0 0 0 -52 -8 72 -64 -89 -105 27 68 0 0 -89 0 0 0 0 -24 79 -21 6 
93 0 10 0 98 0 0 79 0 -42 -105 0 -123 62 -59 80 52 0 -124 -103 -113 0 91 -120 0 0 0 -109 16 79 0 80 
0 -83 0 0 0 4 30 -80 0 -76 80 83 -70 -53 -73 0 106 18 0 54 -127 86 0 26 54 -83 0 -57 0 0 -53 0 
0 0 -102 0 -8 -88 105 91 37 0 -86 -127 -65 0 0 -87 0 45 15 0 -74 56 75 -25 0 120 0 0 0 -45 -31 127 
0 116 0 118 -33 9 -127 120 0 42 63 69 0 100 0 0 -64 0 98 0 -77 78 41 -28 -55 0 102 0 30 -87 0 0 
94 -97 21 0 112 56 0 6 127 0 23 0 0 0 27 48 0 -123 114 -98 0 126 0 -74 -84 117 0 -35 -121 0 -48 0 
0 16 58 26 0 68 127 -97 0 52 -10 21 110 0 0 0 0 -69 109 0 0 35 81 47 -55 0 77 102 -22 0 -69 0 
0 -36 -16 0 0 -75 -95 18 0 -13 0 69 -28 34 -47 0 0 0 39 -69 110 0 0 -49 0 85 11 -105 117 0 109 28 
116 -66 127 0 0 -83 0 0 -83 0 -13 36 -43 74 106 0 -48 68 0 -73 -88 0 -113 80 0 -10 -3 -121 0 0 0 108 
-38 0 62 -42 -38 123 0 26 -39 0 -53 -127 0 0 -114 0 120 80 -104 67 0 0 0 29 -49 0 -81 0 0 -76 71 115 
-93 127 76 0 -99 -116 -32 0 124 0 0 12 -4 20 0 0 1 -104 33 0 41 -121 0 75 0 0 0 13 0 117 -117 -83 
0 -79 0 -114 0 -43 106 0 -40 0 127 0 110 -79 121 -43 0 -18 31 21 -118 105 0 121 -82 46 0 0 109 0 0 -113 
0 0 -122 90 0 0 -35 -125 -101 53 -65 0 101 -36 0 -51 13 0 0 12 -25 -75 23 115 0 -41 -50 -125 0 0 126 0 
-83 0 0 -72 0 -53 -124 58 2 58 -94 0 68 94 0 0 15 0 0 11 74 0 0 115 29 0 -48 0 67 67 23 125 
-86 25 -85 -40 -63 0 127 84 0 -1 0 0 0 -42 -81 0 0 0 -78 -101 -64 5 91 0 57 0 -50 0 -69 104 44 0 
-35 -7 96 78 -126 0 0 0 -116 34 0 0 -126 97 -42 0 -15 0 -28 0 7 0 113 22 0 -5 -57 86 0 -18 33 0 
90 0 109 127 84 -72 18 62 0 0 88 0 0 48 0 -23 59 -117 16 0 0 -16 0 0 31 55 47 -36 0 -126 60 0 
17 58 65 0 60 -127 0 117 0 0 -9 -121 0 61 127 0 0 83 0 -43 0 0 104 10 -101 0 -11 -106 0 25 116 120 
0 9 0 -9 0 -94 -81 56 99 -7 -89 -127 0 0 -13 0 0 0 119 25 -52 0 -11 111 -72 58 72 -82 0 0 0 -114 
24 -52 114 -25 -99 0 0 0 0 -95 0 -122 0 -12 -48 -87 0 -80 97 0 0 65 0 -88 -86 -77 -111 0 -95 0 123 86 
-99 -72 112 -127 0 0 76 0 0 -127 -50 115 -77 0 0 -64 36 80 121 17 0 114 81 -72 59 0 0 0 0 -127 -94 0 
0 -57 -122 101 74 0 0 0 0 -5 -127 -108 20 0 -35 -69 0 -29 0 -49 68 0 0 -2 62 -5 97 0 -103 0 -61 58 
0 0 -116 41 -78 0 97 -89 0 0 127 0 -25 -14 0 -4 -74 -17 0 0 0 -56 0 0 66 24 0 68 -15 43 -58 47 
0 3 112 16 101 21 105 0 38 0 38 0 51 0 120 0 -127 -66 30 0 70 0 -122 25 -86 -83 -84 0 0 0 0 103 
0 -101 0 -99 0 -102 0 -96 50 0 127 -60 -11 127 0 -39 0 25 0 65 24 119 69 0 -118 0 0 22 13 0 -111 41 
98 0 -98 88 3 0 124 92 -127 0 -122 0 124 0 0 33 0 -3 102 -40 -23 -57 0 49 0 -77 0 -53 0 -123 64 0 
0 123 0 -103 77 0 0 69 -100 114 127 0 67 -102 112 0 0 112 31 -66 0 -96 0 -94 0 94 -57 0 -32 -36 -109 0 
127 12 -41 90 -67 0 -62 0 0 113 102 98 0 0 0 2 -78 125 0 32 0 123 -11 0 0 74 0 -19 -119 14 0 30 
-83 -55 0 -29 -93 10 96 -73 0 -13 -55 0 -12 0 0 0 0 76 -19 -58 0 -99 -102 0 -60 -127 -83 -54 0 0 62 0 
-89 -84 0 100 127 -66 0 0 69 0 -46 0 0 -19 84 -119 -103 0 -5 0 59 0 42 0 -7 -88 -40 113 -116 0 0 -108 
12 0 0 0 -114 0 0 -116 -123 0 -41 62 111 101 71 58 0 -116 0 0 0 -41 9 94 0 116 -46 -76 14 0 -112 104 
0 55 0 16 40 -57 -41 26 -68 -80 0 0 -71 -48 0 0 0 -76 85 0 0 91 -88 26 40 -107 60 -127 -112 0 0 0 
-127 16 -13 0 0 -80 0 -25 0 -95 112 83 -88 -16 0 0 96 0 0 -53 14 0 0 3 -107 0 -107 12 -105 117 -37 0 
0 83 59 82 0 -70 83 47 112 0 0 0 54 -25 83 0 -55 -110 68 -55 57 30 0 -74 0 -26 0 0 0 -5 91 0 
0 0 15 0 78 92 -97 -35 53 42 77 0 0 118 0 -37 127 0 0 -99 0 0 124 -46 18 -106 0 -20 0 86 -120 -74 
0 0 55 -75 0 -57 51 -102 59 0 -117 71 -108 127 0 0 0 0 -94 -83 64 0 94 0 127 29 -99 0 71 -52 -33 0 
-70 0 57 0 44 0 65 0 -10 -2 88 -69 28 0 0 15 5 107 -25 100 122 -13 -70 0 -42 -95 0 0 55 0 0 0 
0 127 0 -59 -34 0 3 0 -127 54 0 48 -31 0 75 115 0 -117 0 -23 60 0 61 -84 0 40 -71 0 95 0 -52 -98 
-16 0 -46 127 0 0 0 -127 32 80 0 -27 -122 49 1 0 0 98 0 0 -127 0 127 108 0 30 -67 0 1 -47 -97 94 
14 -104 17 0 0 0 15 -92 0 1 -101 -8 72 0 -55 0 0 0 -19 110 -15 -67 0 0 0 55 -93 -44 -46 123 0 -111 
-32 0 0 -15 0 0 0 0 -74 23 85 74 -5 42 -101 -70 74 35 0 0 55 0 0 -84 86 2 0 0 0 71 0 122 
3 73 -97 -26 0 117 -88 0 0 0 -23 0 -44 -5 0 -52 -67 -52 0 63 91 0 33 0 0 0 -98 0 58 -103 -46 119 
0 0 0 96 -96 -85 0 0 0 120 66 30 -56 27 53 -67 22 0 14 31 0 -38 68 0 -39 43 0 0 69 0 -73 -64 
75 0 0 -46 127 -42 0 0 63 -92 0 -127 -95 96 -28 0 127 -78 0 -43 -31 -69 -18 0 126 0 -36 0 0 0 -55 -101 
0 42 -38 48 47 25 0 89 0 -15 33 0 0 0 -84 -26 0 -4 6 53 0 -39 0 5 65 90 88 0 -110 0 0 -32 
0 0 38 0 88 0 23 -84 56 54 69 25 -127 0 0 50 -12 0 37 0 -61 60 0 47 -68 0 0 108 99 -68 -99 0 
-22 -109 81 0 82 -27 8 0 0 -53 0 -127 0 0 77 3 0 0 0 0 16 -69 -106 -12 0 0 -117 56 -87 96 -86 29 
124 0 37 -35 -87 0 17 -23 0 -75 0 0 -55 0 -41 96 -7 0 -16 0 -24 -74 0 83 78 -119 30 0 28 -112 0 0 
-46 0 93 -38 94 84 0 56 0 -31 0 97 110 0 0 -10 0 -94 -16 65 -52 0 55 0 100 49 102 37 112 0 0 0 
43 69 67 0 0 -18 11 71 -1 0 -118 111 0 0 0 -50 0 100 58 30 0 77 -43 127 111 0 0 111 0 0 2 -69 
0 92 0 -84 -19 0 0 38 0 0 0 -118 -57 -28 0 -84 -127 65 -80 -127 0 0 -49 66 -33 -127 0 0 -65 0 -43 0 
0 24 0 0 90 0 0 106 -85 56 -18 -41 0 27 57 56 -116 83 -66 -56 0 0 22 -33 0 12 57 0 107 0 -32 0 
-32 0 60 -6 -117 12 0 -2 0 0 127 -92 71 100 0 0 -116 69 0 0 12 0 0 -26 0 -32 0 102 -68 -82 -26 2 
-118 1 0 85 94 0 -114 0 101 0 102 0 -121 -33 0 -76 28 0 -82 0 94 27 0 -1 -2 0 -108 0 -127 0 13 12 
72 -55 0 3 0 -60 -39 127 0 63 125 0 -35 0 -47 0 0 31 0 111 0 0 0 95 66 110 -12 -51 -76 -100 0 -64 
41 0 0 17 0 -87 0 2 0 -58 13 3 -97 0 -123 -94 65 17 0 0 114 0 0 -44 -33 -111 -59 0 45 -95 0 39 
-71 0 109 -93 0 0 14 -60 0 -76 58 127 0 -96 0 -101 0 0 115 0 0 15 40 -110 0 0 4 -36 -68 52 86 48 
-82 0 -127 -51 0 0 -41 -19 -98 0 72 -79 -15 0 13 0 0 0 0 -114 46 77 0 120 127 0 127 -115 -108 0 -69 -25 
76 103 -127 -5 -102 0 -5 0 16 0 0 64 0 -19 81 0 41 -120 0 0 111 50 103 -53 0 0 45 -44 -94 111 0 0 
0 -112 0 117 -119 -3 -88 -17 0 -63 64 0 0 -60 0 44 109 -98 -10 90 0 0 79 -52 0 0 124 0 0 -57 -81 -7 
-96 88 0 -91 100 0 0 -110 0 0 -60 0 20 33 -57 -65 -83 40 0 0 0 80 97 -76 0 -94 -27 -18 0 6 -41 0 
-127 12 0 0 52 -40 -111 32 0 0 123 0 -63 109 -11 0 0 66 0 0 -121 42 46 115 2 -91 102 0 -38 -28 0 0 
-22 0 -84 114 0 0 -127 -52 -12 74 65 0 0 -54 0 42 -18 0 0 0 65 50 97 -28 108 -30 0 25 -106 0 -9 0 
-31 0 0 0 116 5 0 117 -2 37 26 -121 0 -50 57 0 -47 0 0 -50 0 -125 -67 -116 52 -21 0 110 -47 0 -45 0 
61 0 1 0 0 48 59 0 -80 -7 0 112 0 106 -37 44 75 46 -6 -47 37 -45 -55 5 -99 0 0 0 0 0 0 -101 
11 0 -1 57 -43 0 -7 -114 -62 0 0 99 0 0 -49 114 -75 77 -17 0 0 0 0 5 127 120 0 28 -23 0 -18 33 
0 122 109 2 -106 -112 0 0 -14 96 0 0 55 -24 -93 0 36 0 -82 0 0 30 0 65 -127 -97 0 126 84 -87 -78 0 
25 -35 0 -72 -23 1 11 6 37 0 0 0 103 0 -102 0 0 62 13 -11 29 104 0 0 0 117 67 0 -57 0 16 82 
0 126 0 15 91 0 0 0 -52 21 0 103 110 -69 127 36 108 0 0 0 0 119 18 -127 -34 61 0 -105 -38 126 0 60 
0 -76 -60 31 69 0 0 0 -111 48 -49 0 -62 -60 113 0 -15 -43 0 -127 77 -65 -52 0 116 0 -107 115 0 0 0 37 
0 12 127 96 -18 127 113 0 0 101 -46 -63 0 0 101 0 14 0 86 0 64 61 0 71 -55 78 -39 0 0 0 -76 -126 
0 -52 0 -61 0 0 55 122 106 65 106 -69 -117 91 0 0 0 114 -72 -90 -32 0 0 0 0 -36 109 0 82 54 -33 75 
0 0 0 126 23 0 -105 39 0 -78 30 -81 0 -127 -50 -120 -116 82 0 56 -10 0 8 -92 0 0 0 15 0 116 84 110 
0 0 0 -10 91 -3 0 0 23 0 -118 88 -4 -35 26 -37 -117 0 58 0 0 43 -81 -101 -104 47 51 -13 0 0 0 -45 
-67 96 -48 54 81 0 0 0 -117 -127 -120 0 123 0 81 0 0 0 8 0 0 27 -23 -99 3 23 0 44 0 0 27 10 
-91 -125 0 8 -61 118 82 0 22 0 0 114 0 -49 -21 0 43 0 -35 0 -127 0 2 0 51 -85 -13 -45 -118 0 -63 0 
0 84 0 68 41 -109 0 91 -127 0 0 -20 0 105 34 -3 0 -60 0 0 -74 6 122 0 -62 0 88 -96 0 1 -14 2 
-41 -21 0 0 1 73 0 0 -32 -74 22 8 0 39 92 0 0 0 0 89 -11 0 0 65 41 -127 83 9 -65 0 16 -1 
-30 121 0 51 0 -13 -7 0 0 84 -114 -24 0 -16 29 0 91 -53 0 0 0 -119 -67 0 -4 7 10 -37 -48 0 0 -13 
0 55 -88 0 -127 116 127 0 -38 -54 0 -19 -90 -63 0 0 107 0 0 64 -1 0 35 91 -64 0 0 -89 -17 0 99 9 
0 -86 0 33 0 35 0 44 -103 0 -119 -46 -23 -16 -83 0 60 0 -122 0 -81 13 45 -87 -60 -101 0 0 101 0 0 -7 
0 0 0 86 -32 0 -88 107 40 0 0 39 -85 -107 -93 108 89 0 -108 0 -114 98 100 0 0 6 121 -25 107 0 42 0 
0 100 0 0 -93 0 115 127 67 63 0 28 0 97 -74 116 27 -48 13 67 35 0 0 -29 -96 0 113 -102 0 0 0 -125 
0 72 0 0 -106 121 -103 71 -65 117 -106 0 -112 -82 0 0 0 87 -23 48 120 -63 0 13 0 51 -2 0 -54 0 -91 0 
47 0 -50 0 0 -127 -118 -103 0 -69 -109 42 42 -113 0 0 96 116 0 -25 4 -12 -21 0 50 12 0 0 0 0 95 119 
121 0 -110 118 0 17 82 0 0 75 0 -114 64 0 107 -24 -13 18 -127 -91 39 0 -9 0 102 0 0 5 0 -59 -111 0 
0 -121 -60 -3 0 0 -73 -3 0 -81 0 -125 0 47 -49 23 96 -115 0 -126 0 -69 8 0 42 55 10 121 0 0 0 -125 
20 0 0 0 -99 64 -15 -127 -95 0 -35 119 82 0 127 0 0 65 -89 -84 0 82 0 -114 0 -16 -78 120 0 -54 -26 0 
127 127 -75 -105 0 -126 0 20 0 0 68 -11 0 101 0 24 0 0 0 0 105 58 -28 -37 108 35 88 113 0 0 58 88 
0 -11 0 76 0 -107 0 5 -117 0 -32 109 0 96 -62 124 0 0 -100 23 -127 0 19 -104 -127 0 -127 61 0 0 102 -103 
17 0 0 -3 125 0 0 -106 -56 119 10 0 0 -109 13 -69 33 80 0 0 12 0 95 30 39 111 0 0 0 -41 116 105 
-43 -56 0 83 0 0 0 44 0 -3 -33 -8 0 62 -58 10 127 0 112 -21 30 -50 81 0 0 0 72 -31 -86 73 0 0 
53 0 8 0 90 0 0 -127 -27 -14 73 0 32 118 -102 0 -59 -32 127 0 0 99 0 -89 -27 45 0 0 51 120 -74 0 
0 48 0 -117 72 -12 13 0 0 0 45 62 -69 104 0 0 -85 0 -9 0 -106 66 -122 0 -94 22 0 73 0 0 96 106 
0 0 -25 -88 -117 -84 0 77 0 0 0 94 97 -96 -28 37 -58 0 29 0 95 -32 -94 0 32 -64 -30 0 59 0 0 25 
86 0 -87 -72 0 -15 0 100 101 109 36 0 0 0 -102 57 -127 -44 0 0 -61 -127 40 -119 76 0 0 0 -15 0 -55 -45 
-50 -25 0 -15 -83 0 76 0 -54 0 50 -77 0 20 0 53 0 114 0 -7 0 0 0 84 85 21 0 -127 105 4 -97 127 
-109 0 -21 67 44 0 -77 -126 -64 85 0 49 0 0 0 127 21 86 32 -95 0 0 0 0 0 -116 43 77 0 26 -23 -114 
-88 -18 0 0 24 -52 -127 0 0 0 -98 -118 -110 0 -115 81 0 -54 -115 31 0 30 12 -101 -43 0 0 0 0 6 20 -55 
0 0 0 -121 0 8 55 111 74 -37 -53 18 16 -107 0 0 0 0 27 0 0 -70 0 102 0 -70 1 127 -107 -115 -99 127 
0 0 -123 0 49 127 125 0 -23 94 0 0 0 118 0 119 -100 -65 66 0 0 0 22 0 -34 -17 99 0 -109 69 0 -112 
0 -1 25 7 0 0 -87 127 0 0 37 0 18 -40 22 -40 0 0 0 91 -7 -95 0 21 -3 0 0 -52 125 -73 -56 116 
64 0 0 0 -110 -67 -107 -81 112 0 -27 0 0 73 -109 -54 0 110 0 0 -37 -127 -10 0 -10 72 0 -77 -25 101 -87 0 
103 -127 -68 116 -94 7 110 0 0 -1 0 -20 0 -7 0 0 -125 81 0 127 100 0 0 0 102 127 0 36 119 0 57 -100 
-47 127 -91 -68 29 0 -104 0 0 0 -99 0 69 -45 -65 0 -112 0 72 84 1 0 -50 0 0 26 -64 0 100 -127 0 63 
0 -48 -106 21 -94 -82 94 0 0 0 0 0 49 -32 14 98 -80 104 27 0 0 0 75 0 127 123 0 0 127 82 -20 -49 
-65 94 91 67 0 0 -10 98 15 -76 0 0 0 0 44 -48 78 0 0 56 10 0 46 127 0 -57 127 18 39 0 0 -78 
0 0 -77 15 80 7 0 -87 74 -58 89 0 0 113 117 0 0 1 0 116 -65 -58 -107 0 99 38 0 -80 0 111 0 86 
0 0 25 59 -49 -82 90 -38 0 0 -59 -29 36 0 -98 0 73 0 103 0 116 79 0 0 94 0 73 -101 0 127 124 -23 
0 0 -127 0 78 0 0 -36 75 71 -25 -74 -70 0 125 -70 37 127 -95 55 0 -48 0 0 -53 127 -37 0 0 0 59 26 
49 5 -98 35 0 0 31 0 0 0 0 -118 3 -44 -80 -101 0 -84 0 -46 -41 66 0 -53 -120 -23 0 0 -96 -75 0 82 
0 112 127 127 0 -55 110 0 -6 119 0 0 127 88 0 84 -81 -5 21 0 0 0 -8 -127 0 -36 0 127 116 -71 60 0 
0 -105 60 -13 0 61 65 0 0 0 117 0 53 101 48 -60 0 0 -119 0 -62 -122 0 0 57 -107 127 0 102 -75 91 -28 
-56 123 -24 74 -127 0 -13 -62 0 0 0 103 0 -90 0 127 0 0 93 48 -121 0 0 0 -117 93 -87 -37 53 0 124 121 
-64 0 -50 93 -124 0 82 -22 0 -59 0 71 0 -91 0 -75 0 45 -82 0 -108 4 82 0 -108 0 0 27 12 127 -59 0 
0 0 94 -90 -78 0 0 0 123 58 -70 -27 -35 -48 -106 0 0 102 0 0 -111 65 0 -70 0 80 0 3 4 39 81 92 
0 -127 67 0 116 104 18 7 0 -75 0 -6 63 0 69 0 41 -30 -39 120 -111 83 0 74 23 0 0 0 0 0 46 -1 
0 80 -13 126 -52 0 0 -21 70 0 0 -59 0 79 -39 -59 0 -102 0 0 -90 -109 68 -31 35 -11 -26 -72 0 0 -41 0 
71 110 0 37 102 -127 0 0 -87 0 22 -107 -72 0 -5 0 40 0 0 -75 33 -36 0 0 -4 -114 0 75 124 -6 0 57 
-111 -91 0 108 76 -127 0 -124 0 0 0 78 0 -21 31 -126 0 84 0 0 82 32 65 91 -110 96 16 127 33 0 0 0 
0 121 -82 0 -20 36 0 -67 0 107 -32 40 0 -9 123 0 -93 0 0 118 47 0 0 89 -50 -75 -102 -36 0 0 7 -108 
10 3 71 0 0 36 0 69 -93 0 0 -120 0 -69 0 -36 -53 17 0 -29 -45 -119 64 0 -24 52 101 0 0 0 0 -122 
127 -105 49 0 0 -115 0 0 0 55 -96 48 -108 32 0 -6 127 -92 -80 0 -104 117 0 0 -34 -127 -56 72 0 0 0 100 
0 7 -49 41 0 -87 48 66 79 0 0 0 -44 0 96 3 0 0 0 0 -125 -34 -94 0 95 -114 0 -81 -92 -45 -119 -103 
48 -104 -71 0 0 -121 0 -40 111 0 94 0 2 62 0 7 106 78 20 0 97 -64 0 0 88 0 -65 0 -127 4 0 9 
-45 0 -22 0 0 0 113 -17 -69 2 0 -26 -10 -40 -90 0 -83 -63 0 29 0 0 92 -33 95 -38 0 -104 0 127 0 -95 
0 55 -124 -120 -37 0 0 0 0 0 122 -19 -106 19 -127 22 -72 -16 -6 -24 0 -4 0 0 0 51 -52 41 82 0 0 -23 
127 82 -98 0 -65 0 0 0 -23 52 54 0 38 0 83 -72 0 -76 0 31 0 67 0 19 38 -33 -90 0 0 -108 105 64 
0 -57 -105 40 0 117 30 0 80 -35 0 -86 0 94 103 0 122 86 1 97 0 0 0 83 45 0 104 2 0 28 -5 0 
0 84 0 0 106 111 82 58 -100 84 -32 0 -89 -127 0 0 -125 3 -114 -119 0 68 0 -72 12 0 17 16 0 -116 0 0 
27 -127 0 -116 -44 0 13 -101 -29 0 -38 0 0 44 -26 0 0 57 36 124 0 25 82 0 51 9 -105 107 0 0 0 -56 
-57 0 -85 0 113 0 33 58 124 0 0 93 0 45 66 -36 0 87 117 -94 0 -53 125 0 -65 114 0 0 -46 -77 -114 0 
-127 107 0 10 0 -90 127 0 0 51 0 -89 0 84 28 63 -80 0 127 86 -122 0 7 -20 68 46 0 83 0 37 0 0 
40 -69 -42 0 0 -100 0 -12 -103 -61 0 0 102 0 -55 49 0 16 0 110 -121 -67 0 0 26 0 77 103 81 -123 0 -77 
0 50 47 -39 0 5 127 0 96 0 0 -84 -71 0 13 -21 -30 0 -32 62 111 -71 -108 0 -45 -6 69 0 0 0 0 5 
-47 -41 -64 -12 0 -58 0 -31 -97 0 92 0 0 0 -127 -100 -3 0 0 -34 0 0 112 -20 46 125 0 -24 -52 42 0 111 
0 101 53 0 41 123 40 87 -7 47 0 35 0 0 0 40 0 -38 0 -92 117 0 -105 -29 59 0 0 -112 0 13 -92 127 
0 125 18 73 0 100 -76 -116 0 0 61 66 -113 0 73 0 -89 -127 62 13 0 31 0 0 114 -69 0 30 0 7 -19 0 
81 0 -15 0 11 60 -30 -60 0 114 0 0 60 -36 0 61 54 -52 0 61 -52 0 57 0 -88 69 0 60 0 -25 0 -104 
-98 -41 37 0 106 127 0 -127 0 -115 12 0 -124 -127 0 0 -85 33 48 31 4 0 33 0 0 44 0 -127 0 -127 0 3 
-52 -32 41 14 -2 0 -107 0 33 0 0 -125 0 115 0 61 -37 0 0 -127 -80 0 -123 113 0 54 -15 0 0 -57 -109 33 
126 -63 0 -30 76 21 -4 127 0 0 -87 0 0 60 -127 0 0 -53 -9 0 100 -55 92 24 58 -118 0 0 -51 11 0 0 
-70 0 12 0 0 -103 0 -45 -58 -31 0 68 -67 0 -93 -44 0 0 7 99 -118 75 53 -39 -17 0 0 -12 0 0 30 -68 
71 0 -61 78 87 -85 13 0 0 31 0 0 -104 -79 52 0 -81 -19 0 -81 0 -30 93 0 -36 0 36 0 0 121 102 -108 
-72 -18 -39 0 7 0 22 -75 -109 14 0 0 0 0 0 -2 59 0 -42 -108 82 0 6 -11 -122 -118 0 0 -33 0 80 0 
0 0 -107 28 0 -78 -92 -88 -91 0 -113 -84 0 -13 11 0 56 73 0 0 92 0 50 -1 0 50 0 -126 -87 0 66 -127 
55 -23 0 91 0 -91 -67 0 83 0 0 -20 0 121 116 -98 2 0 0 54 0 0 -43 -11 36 -4 15 3 0 0 -44 114 
95 0 -65 72 107 0 -67 -61 0 84 0 0 0 71 -2 0 86 127 35 0 -64 56 35 0 0 0 67 43 0 76 0 -39 
0 0 -99 -24 0 -62 103 -9 -11 0 72 0 -62 -127 0 -80 0 0 54 127 0 41 127 0 21 0 23 112 41 -124 -110 0 
-6 34 -31 0 0 -38 113 0 0 -51 0 -18 -92 78 0 -70 0 59 -82 54 -98 0 -117 -81 0 0 90 0 -96 0 22 58 
0 9 0 101 -18 23 0 22 -123 0 -73 0 -79 -19 0 116 -97 117 112 -127 0 0 -24 0 0 -68 113 -5 0 31 105 0 
120 0 -73 0 -69 -59 0 69 -49 0 0 0 106 108 5 31 -36 105 74 0 11 12 0 21 102 0 -43 0 -5 0 30 0 
104 0 -24 0 40 0 115 19 -7 27 0 -49 0 -117 -112 0 -17 0 -95 60 -60 0 -81 -25 12 0 -113 0 0 -20 0 -108 
0 35 0 0 0 -98 -107 0 109 -5 22 31 37 0 47 15 5 0 -70 0 0 6 94 10 0 -22 -13 104 76 0 -10 0 
0 0 0 85 -112 122 65 0 0 -86 -112 -90 -99 -120 -60 0 76 2 0 0 -66 0 -127 29 50 -38 0 0 -71 56 -16 0 
-5 0 0 0 -79 -121 -96 127 0 0 0 13 29 -8 106 99 -108 -113 -31 -38 0 0 56 101 15 0 0 1 -6 59 0 0 
0 63 -11 0 117 0 0 56 109 -30 0 -123 82 -111 36 0 -15 0 112 -86 0 117 31 38 58 -76 0 104 0 -29 0 0 
122 -102 -93 -12 90 127 0 37 0 -19 -40 -74 0 0 0 0 106 0 82 0 113 100 0 0 45 75 0 88 57 -99 85 0 
0 0 0 81 0 29 44 123 -37 0 14 -87 -87 92 0 111 -45 54 0 95 0 15 90 0 98 0 72 0 -93 -65 0 -6 
0 0 0 127 113 15 0 -28 0 -21 -62 95 0 74 -12 15 0 52 102 -33 78 79 -11 0 127 13 0 0 0 -1 -67 0 
-50 -23 37 37 120 112 -88 22 0 0 93 0 0 0 0 -14 99 0 -127 127 -127 86 0 0 0 -32 -34 0 33 109 0 -123 
0 0 21 0 71 -91 -28 90 -118 -71 0 0 16 0 45 -23 -1 -48 -22 37 80 0 97 0 21 0 -26 0 -1 0 109 0 
0 -68 -36 -62 0 52 -63 -74 0 0 57 0 -73 103 0 32 -59 0 -36 0 0 0 56 0 47 -1 -127 124 -117 29 -21 0 
127 73 -14 0 124 87 0 0 61 0 0 -54 -33 0 -51 -63 127 -52 -12 122 0 -30 108 0 -92 -66 -1 0 0 0 10 0 
-15 -75 -45 125 114 50 101 -68 0 -86 76 0 0 0 0 0 -42 0 9 0 -46 -112 -76 23 0 -61 -118 0 0 0 -84 95 
-105 0 0 127 75 92 -115 0 127 -55 0 0 26 -60 17 0 91 -97 0 0 -100 0 0 0 98 114 -84 -124 117 -105 0 -117 
0 -39 -21 -55 0 88 0 0 -21 93 5 0 17 105 0 -85 0 -67 0 0 0 -121 0 23 79 -11 -27 0 8 -101 127 -110 
37 -2 -78 0 0 0 -127 -15 -99 37 0 76 0 0 -13 64 -37 0 92 -123 0 120 -126 0 33 -24 -39 0 0 -127 0 96 
-4 0 0 83 -9 -74 -73 0 49 0 52 37 -126 0 116 0 -25 0 48 45 -126 68 98 119 -78 -100 1 0 0 0 0 0 
9 73 -28 -57 0 0 0 0 124 0 0 -127 18 14 52 33 -13 -80 0 0 0 0 121 116 96 0 0 35 -106 -127 -41 0 
